{
	"decoder": {
		"cell_count": 10,
		"cells": [
			{
				"biases": [
					-0.1081183511981,
					1.34477490503605,
					1.74711978385599,
					3.52721267866844
				],
				"weights": [
					[
						0.0368371278468963,
						-0.97472299951312
					],
					[
						0.207831419303928,
						-0.63020130724366
					],
					[
						-0.21244279288244,
						-0.02652503964545
					],
					[
						0.00873072436942159,
						1.1153578430753
					]
				]
			},
			{
				"biases": [
					0.401516924884981,
					0.368929505225139,
					0.750369696071368,
					3.99210804825307
				],
				"weights": [
					[
						0.562632540400273,
						0.369957042366321
					],
					[
						0.237692684587689,
						0.311714690517916
					],
					[
						0.381506510823372,
						-1.25729938315079
					],
					[
						-0.12982155252582,
						-2.88560516173718
					]
				]
			},
			{
				"biases": [
					-0.46866656745154,
					-0.17840065783312,
					-1.1847362373782,
					3.57176618576541
				],
				"weights": [
					[
						-0.2661963945687,
						0.994845578977957
					],
					[
						-0.8278417436139,
						0.245080302366285
					],
					[
						-0.83839999228988,
						0.783432663257648
					],
					[
						0.862666148054159,
						-1.5207359005814
					]
				]
			},
			{
				"biases": [
					-1.22543279673989,
					1.04778045258664,
					-1.43936817196347,
					4.53360557973544
				],
				"weights": [
					[
						0.738770775498671,
						0.190898516232766
					],
					[
						-1.7080765946612,
						-0.22983352296019
					],
					[
						1.39495872611874,
						0.446472389868953
					],
					[
						-0.64543860259577,
						-1.31857682746857
					]
				]
			},
			{
				"biases": [
					-1.9257195734186,
					2.17194032327114,
					-2.30486952379152,
					4.00626421952181
				],
				"weights": [
					[
						0.616591933184267,
						-0.13431888767443
					],
					[
						0.0631199170989557,
						0.0127652886674578
					],
					[
						0.289166665309029,
						0.301574249127366
					],
					[
						0.682213804570703,
						-0.61358528024521
					]
				]
			},
			{
				"biases": [
					0.82357827509566,
					-0.64657375091474,
					-0.55120377127161,
					3.77407299092465
				],
				"weights": [
					[
						0.837448860650853,
						0.458744676464782
					],
					[
						-0.44708177666112,
						0.678182324120081
					],
					[
						-0.80957896571843,
						0.673397877753131
					],
					[
						-0.23165594187736,
						-2.6407688350101
					]
				]
			},
			{
				"biases": [
					-0.36522344320471,
					2.10980460348546,
					-1.93838656972953,
					4.28368653056524
				],
				"weights": [
					[
						0.386321022923956,
						1.42136346930624
					],
					[
						-0.006252205162,
						0.517532871829325
					],
					[
						1.31629842354205,
						0.0658303300615217
					],
					[
						-0.14885304682465,
						-2.19560433863606
					]
				]
			},
			{
				"biases": [
					-0.86885885950005,
					2.33293247729193,
					1.93929133544276,
					4.30162435659739
				],
				"weights": [
					[
						-0.75202785515673,
						-0.12478076902335
					],
					[
						0.805852675073643,
						0.675078048281417
					],
					[
						0.894762910162131,
						-0.84263012923918
					],
					[
						-0.04007438836361,
						0.649091914109794
					]
				]
			},
			{
				"biases": [
					-1.63869463677475,
					2.07395315081395,
					-2.19561850369705,
					4.04778187798886
				],
				"weights": [
					[
						0.491087689095038,
						0.315904335254359
					],
					[
						0.162116769629975,
						0.775777785608534
					],
					[
						0.41501763962485,
						0.0890965036483301
					],
					[
						1.0270845901463,
						-1.86734042915268
					]
				]
			},
			{
				"biases": [
					0.248456211839525,
					1.68402460947968,
					0.960064226583289,
					4.52793713037099
				],
				"weights": [
					[
						-0.07740080214066,
						1.98583056127897
					],
					[
						0.728184733901474,
						-0.08659633111407
					],
					[
						1.40045928461669,
						-0.84190558870828
					],
					[
						0.81925482220513,
						-1.49252379313209
					]
				]
			}
		]
	},
	"embedding_input": {
		"input": 23,
		"is_biased": false,
		"layers": [
			{
				"a": 0,
				"b": [
					0,
					0,
					0,
					0,
					0,
					0,
					0,
					0,
					0,
					0
				],
				"i": 23,
				"o": 10,
				"w": [
					0.221398145476733,
					-0.40598985759972,
					-0.12245875246884,
					-0.43537392368374,
					-0.32932588127216,
					0.253104664491635,
					-0.30844061510199,
					0.36873943578428,
					-0.02367219706673,
					0.00585412363018178,
					-0.36304932603673,
					-0.48362453697653,
					0.42573606528259,
					0.111107852414383,
					-0.35131771972877,
					0.248132575507472,
					0.0211250971834945,
					0.149480181030715,
					0.293979288095209,
					-0.42592943865355,
					0.0800405736303792,
					-0.41914120594803,
					0.251065479128149,
					0.424095413368441,
					0.0938974195608151,
					0.0934916281290938,
					0.220073633952771,
					0.480223584291001,
					-0.3390472161436,
					0.283717968291788,
					0.272044256016539,
					-0.3608981534455,
					0.119671203938927,
					-0.46969588283238,
					-0.0927649669782,
					-0.3297488938071,
					-0.30626295968737,
					-0.43318195019574,
					-0.3172517204716,
					-0.17503893184636,
					0.00169045203626805,
					0.353300777655603,
					-0.07518103610158,
					0.280861083070726,
					0.320887636855727,
					-0.04948996562973,
					-0.27875795636269,
					-0.33207694681628,
					-0.4351078493793,
					-0.14265504741472,
					-0.44590492319943,
					0.0535177162214842,
					-0.32335468262691,
					0.229645362772398,
					-0.09880722045808,
					-0.38225692250394,
					0.440582148192972,
					-0.37577033823185,
					0.206002407973354,
					-0.26524794262733,
					-0.24819587473716,
					-0.30478504194608,
					0.267517793348566,
					-0.3727485530903,
					0.119985518460044,
					-0.06197287765366,
					0.292792285292405,
					0.487692173837627,
					0.254417934806681,
					0.260763286231291,
					-0.42286685237993,
					-0.28227716803403,
					-0.17779081799081,
					-0.06916373369918,
					-0.12712574211314,
					0.212635856765461,
					0.064610166744841,
					-0.37544979809593,
					-0.49767595815565,
					-0.32178454307048,
					-0.48735176448113,
					-0.12874432293977,
					0.201581253343775,
					-0.45064145974188,
					0.409611418966387,
					-0.01441400970917,
					0.396289972229338,
					-0.05295001397265,
					-0.04204254466222,
					-0.25159511753579,
					0.425372431693826,
					0.490823003682104,
					-0.16891283409356,
					0.0022487770933588,
					0.181491881098486,
					-0.32389323957355,
					-0.03829267122449,
					0.482295338492614,
					0.09656258294297,
					0.165538532653011,
					-0.48645844412397,
					0.0853541872977335,
					0.444690611378709,
					0.498113966030292,
					0.0313836647464888,
					0.294080761845214,
					0.346495582891391,
					-0.46040105364554,
					-0.33363359078693,
					-0.07358994835223,
					-0.17563268537357,
					0.148811080987263,
					0.207638358503628,
					0.159046434732687,
					-0.37383603177765,
					-0.16049565173744,
					0.0568047936500105,
					-0.06258975181636,
					-0.10510355511622,
					0.47429838735653,
					0.00231509442075462,
					0.450013491912479,
					-0.19330940217208,
					-0.21434042539991,
					0.486400900412863,
					-0.33497154659051,
					0.388310545294189,
					-0.39833971982289,
					-0.24149045350611,
					-0.45316324568791,
					0.306165951461797,
					0.00246693969228329,
					0.339483525947867,
					0.00522029709081939,
					0.0628698683269935,
					0.0548641080248032,
					-0.04536426103385,
					-0.12284668167599,
					-0.05045572754201,
					-0.49039975503956,
					-0.4171265713462,
					-0.4903696213377,
					0.14782837652538,
					-0.48578541959468,
					0.0260118110108091,
					0.220477600254614,
					-0.31072993386217,
					-0.31966481360133,
					0.167552096041029,
					-0.02925265721842,
					0.432934549294914,
					-0.21033878929878,
					-0.45366031903184,
					0.0308715095860944,
					-0.29873568498303,
					0.0039341378266663,
					0.148826151559973,
					-0.3744257901955,
					0.189279497568171,
					0.225019056852181,
					-0.46193388000851,
					-0.02894745655119,
					0.460955436406229,
					0.451971191360109,
					-0.06941409971188,
					-0.24459420334751,
					-0.27986029372644,
					-0.47537834036664,
					0.0102111655674416,
					0.456752844917381,
					-0.23091261528323,
					-0.1195901413676,
					-0.06332388535883,
					-0.33675344934164,
					-0.26956500386061,
					-0.05090485981709,
					-0.28032763222497,
					0.209549163114547,
					0.0718875358732691,
					0.260607658788519,
					0.350019197281209,
					-0.01493554062297,
					0.439187053249759,
					-0.38925342072837,
					-0.30577602204202,
					-0.19337401754289,
					0.153181740403792,
					-0.24851923122998,
					-0.29208624056789,
					0.299748404229461,
					-0.04485708268504,
					0.479958801430026,
					-0.15900825929496,
					-0.33067896364302,
					-0.05749537150085,
					0.0429233809342359,
					0.124589727914116,
					0.240455708221298,
					-0.42193161634559,
					-0.39662554867718,
					0.419796421682934,
					0.455312128272049,
					-0.29142175697265,
					-0.29113408777201,
					-0.06773749264453,
					0.0121238847594978,
					-0.34401812053714,
					0.0982939282248958,
					0.0584925963020786,
					0.351873484017637,
					0.387239845025743,
					0.034566458412248,
					0.363307714350406,
					-0.12718994655656,
					0.131769496228512,
					0.475515475061671,
					-0.30142328829547,
					0.18016501691632,
					0.217399787194642,
					-0.20268603345834,
					0.164059570425521,
					0.0396657187710582,
					-0.43076868846341,
					-0.21451696053322,
					-0.3915321470316,
					0.483283374832487,
					0.137791741024032,
					-0.17239461912251,
					-0.05485459148378,
					0.0686889158449671
				]
			}
		]
	},
	"embedding_output": {
		"input": 23,
		"is_biased": false,
		"layers": [
			{
				"a": 0,
				"b": [
					0,
					0,
					0,
					0,
					0,
					0,
					0,
					0,
					0,
					0
				],
				"i": 23,
				"o": 10,
				"w": [
					-0.49350257744785,
					0.105171986072296,
					-0.06558733690312,
					0.173201768115854,
					-0.1065798758471,
					0.477630985229811,
					0.14062386738762,
					0.181306141305434,
					-0.32227706287174,
					-0.06446679846963,
					-0.0607870914016,
					-0.27335309390517,
					0.463651331442528,
					-0.45436380205952,
					-0.00117748676321,
					0.451522109143912,
					-0.10765954886185,
					-0.47913654743631,
					0.148033098049766,
					-0.32342424983692,
					-0.49509437618783,
					-0.17226704931352,
					0.370435525336258,
					-0.23466956862111,
					-0.19583330432583,
					0.0963535530225919,
					-0.04441981246548,
					0.195036784239932,
					0.390763826455731,
					0.21492795081052,
					-0.0400008648234,
					0.0949143523571484,
					-0.38641720725839,
					-0.29480636772493,
					-0.24688992088869,
					0.318225628985323,
					-0.35969014328039,
					-0.13054052846777,
					0.357514604436147,
					0.276622808077496,
					0.172652647999706,
					-0.01127514575444,
					-0.47256687657388,
					-0.28889200949599,
					-0.17837365550715,
					-0.47889658954638,
					0.423408036904163,
					0.345440603263627,
					-0.34851753707349,
					0.108200070165245,
					0.0846519388457722,
					0.445842781419376,
					-0.22578674724305,
					-0.41001988758711,
					0.146349695096681,
					-0.12906106273986,
					-0.01049061518228,
					0.414370321679196,
					0.16273772749508,
					0.459257541921245,
					0.355491525682803,
					-0.10713926363422,
					0.0300278093312147,
					-0.04597854679463,
					-0.42777735742744,
					-0.06686256079596,
					-0.06291462539806,
					0.120418370440855,
					-0.36897070124189,
					-0.47362994595073,
					0.396431677045515,
					-0.13352124724189,
					0.287466597977973,
					-0.0583183019914,
					-0.02976569617787,
					-0.17979398665201,
					-0.25401438728435,
					0.27003729402409,
					-0.39036981424136,
					-0.04083169166548,
					-0.13578041380236,
					-0.01718620212363,
					-0.00421928442725,
					-0.007386386423,
					0.194692527237871,
					0.375108503768944,
					0.279116853414767,
					0.106508048767046,
					-0.09024660520607,
					-0.09130815630402,
					0.487517011617261,
					-0.34462019550016,
					-0.11065654570845,
					0.24335917818866,
					-0.07109473827576,
					-0.09693656033157,
					0.0130292581574941,
					-0.17179669028855,
					-0.20782439726501,
					-0.22935597484808,
					0.119270985042183,
					-0.3506359920153,
					-0.45517975713827,
					0.0823749693142863,
					0.123692288790055,
					0.181600472040437,
					0.39494176279905,
					0.00216420259018291,
					-0.10166693633877,
					-0.26889193958816,
					-0.2564868142951,
					-0.04444815395329,
					-0.08888978063494,
					-0.01449731926463,
					0.318927548833473,
					-0.17242784566555,
					0.479069056703905,
					-0.09329125599477,
					0.387398856202446,
					0.326133467595925,
					0.0805969751364923,
					0.180204734660651,
					-0.20636914146457,
					-0.36611333753698,
					-0.2100224054719,
					0.360185052056377,
					-0.06075534254278,
					-0.19496780223266,
					0.043190908205276,
					-0.00909745637424,
					-0.13238030934669,
					-0.1408696710993,
					-0.18712939037633,
					-0.40333766758752,
					0.191487622028467,
					0.271346614613875,
					-0.03863141395729,
					-0.1721222203401,
					-0.10982031036401,
					-0.09980067088733,
					0.0637213689391883,
					-0.13487001914925,
					0.152664576008274,
					-0.33527705926857,
					0.372761161415934,
					0.271382071691929,
					-0.33288676076078,
					-0.20511081966417,
					0.364495325047087,
					0.264274717473672,
					-0.48023121195266,
					0.335054534493295,
					-0.05661920095678,
					-0.20674763488611,
					-0.08393621869718,
					0.0126174070245463,
					-0.3701086459559,
					-0.28799511036471,
					0.0748245419723308,
					0.441996800860494,
					0.464810600094406,
					0.431595077744312,
					-0.22289232054081,
					-0.49498820197589,
					-0.06322590182507,
					0.35736737799994,
					0.22090920582133,
					-0.21077539726643,
					-0.10369626960444,
					0.184956193600777,
					-0.01014249461663,
					0.251556996657606,
					0.0566820478295392,
					0.472461006154739,
					-0.26332882209725,
					-0.00615069984208,
					-0.24289984283404,
					0.32477477342963,
					0.147767799408845,
					-0.10793576778166,
					0.0789489125683223,
					-0.07484522405607,
					-0.35492225810358,
					0.420163560378993,
					-0.02407030199597,
					-0.20601909349553,
					0.101403880094036,
					0.328001637048779,
					-0.17425713623649,
					-0.43542451512558,
					0.293942522507221,
					-0.27211537068735,
					0.265310841477247,
					-0.17337354061298,
					0.115022048640902,
					0.459305886792972,
					0.104625890716215,
					0.14591561711681,
					-0.00028329353238,
					0.442828718863985,
					-0.24495140628394,
					-0.13481047754057,
					-0.08679118001569,
					0.250360645485842,
					-0.31068807635953,
					0.0446584089166675,
					0.0314941460946143,
					0.160517080067983,
					-0.4838431167798,
					0.364615459193638,
					-0.27127171595773,
					0.451313433793475,
					0.43376319141853,
					0.307173956645374,
					0.0991950215030792,
					-0.32405062382625,
					-0.38860295131429,
					0.444661117724949,
					0.430194581242879,
					0.112720765310218,
					0.236091117196691,
					0.478816715443997,
					0.421334043907534,
					0.126907983071113,
					-0.16610682760443,
					-0.13044882232478,
					0.240508754483716,
					-0.20727789114972,
					0.363493610117945,
					0.152895714302201
				]
			}
		]
	},
	"encoder": {
		"cell_count": 10,
		"cells": [
			{
				"biases": [
					0.567006175932364,
					-0.23277846879074,
					-0.04205155303872,
					-0.41532945676733
				],
				"weights": [
					[
						-0.16391997545701,
						-0.00881530191585
					],
					[
						-0.33866301760592,
						-0.79414655590841
					],
					[
						-0.65288956930355,
						0.658264610289958
					],
					[
						-0.01096180170399,
						-0.92387684790653
					]
				]
			},
			{
				"biases": [
					-0.48165827131086,
					0.863856978256188,
					-0.705756028058,
					0.320457865691639
				],
				"weights": [
					[
						0.480462485216385,
						0.214304106257507
					],
					[
						0.252853157238723,
						-0.56533035493089
					],
					[
						0.618069793651104,
						0.904969539935716
					],
					[
						-0.18668273916372,
						0.0436523316343458
					]
				]
			},
			{
				"biases": [
					-0.82895534036187,
					0.219883901310553,
					-0.61409808802716,
					0.837116273147851
				],
				"weights": [
					[
						0.992796244004783,
						0.637568470559056
					],
					[
						0.692441441965926,
						-0.25934105248093
					],
					[
						0.246710153575008,
						0.610516900797072
					],
					[
						0.405646461772976,
						0.420599211439712
					]
				]
			},
			{
				"biases": [
					-0.3545050684402,
					0.724527843739084,
					-0.31506121302582,
					-0.49421783076886
				],
				"weights": [
					[
						0.608389100250402,
						0.785358551922916
					],
					[
						-0.06648245570171,
						-0.40478429519834
					],
					[
						0.0353573709798076,
						-0.42298847885283
					],
					[
						-0.14039175377361,
						-0.69484406162474
					]
				]
			},
			{
				"biases": [
					0.631378238759926,
					-0.57300519570764,
					0.486370000768394,
					0.720476415634285
				],
				"weights": [
					[
						-0.15735025626874,
						0.372575877575085
					],
					[
						-0.42353032406572,
						-0.77490792303865
					],
					[
						-0.18559560295934,
						0.964854360562377
					],
					[
						0.396574782443678,
						0.621351679161212
					]
				]
			},
			{
				"biases": [
					0.769476691563325,
					0.927180177594639,
					-0.68137300619089,
					-0.71345394361539
				],
				"weights": [
					[
						-0.05145604170321,
						-0.93322038316121
					],
					[
						0.614190947541073,
						0.969978704022719
					],
					[
						-0.83947634392676,
						-0.69212288726429
					],
					[
						-0.86231672983083,
						0.372443697034637
					]
				]
			},
			{
				"biases": [
					0.08735156978117,
					-0.93438176896382,
					-0.34650850591764,
					-0.96491001351784
				],
				"weights": [
					[
						0.0168480447362667,
						-0.17398201660014
					],
					[
						0.365195649034671,
						-0.81957768545521
					],
					[
						-0.20820474580776,
						-0.96044458953822
					],
					[
						0.674259237996396,
						0.823716503433204
					]
				]
			},
			{
				"biases": [
					-0.08250725256863,
					-0.33082587436321,
					-0.18933594894444,
					0.772724378240267
				],
				"weights": [
					[
						0.490968647015155,
						-0.80344475514821
					],
					[
						-0.70259998135051,
						0.0777247402036678
					],
					[
						0.26639952752216,
						-0.68963742163949
					],
					[
						-0.03423577051414,
						0.927746526708073
					]
				]
			},
			{
				"biases": [
					-0.56266762916367,
					-0.27695383484945,
					0.670471300532602,
					0.949596350026644
				],
				"weights": [
					[
						-0.30741077784713,
						-0.31357194730015
					],
					[
						0.634767579666202,
						0.225729149604913
					],
					[
						0.580980120905551,
						-0.05992666975487
					],
					[
						-0.8911779806429,
						-0.61882391799381
					]
				]
			},
			{
				"biases": [
					0.48364349512792,
					0.686038304511451,
					-0.2891811830012,
					-0.21006623138325
				],
				"weights": [
					[
						0.199773815891073,
						0.629974481771732
					],
					[
						-0.21615312006352,
						0.692439840045776
					],
					[
						-0.5198119730924,
						0.062486937012926
					],
					[
						0.120199362784075,
						0.43143562014415
					]
				]
			}
		]
	},
	"keys": {
		"!": 6,
		",": 3,
		".": 2,
		":": 4,
		";": 5,
		"?": 7,
		"\\eos": 1,
		"\\sos": 0,
		"aku": 12,
		"apakah": 8,
		"belum": 13,
		"bontang": 22,
		"di": 21,
		"dimana": 18,
		"kamu": 9,
		"mandi": 11,
		"manusia": 17,
		"namaku": 16,
		"namamu": 15,
		"rumahku": 20,
		"rumahmu": 19,
		"siapa": 14,
		"sudah": 10
	},
	"vec2word": {
		"input": 10,
		"is_biased": false,
		"layers": [
			{
				"a": 1,
				"b": [
					0,
					0,
					0,
					0,
					0,
					0,
					0,
					0,
					0,
					0,
					0,
					0,
					0,
					0,
					0,
					0,
					0,
					0,
					0,
					0,
					0,
					0,
					0
				],
				"i": 10,
				"o": 23,
				"w": [
					19.2775233221823,
					16.3835939234664,
					-22.3730409523828,
					3.36451654705261,
					-7.14767241061288,
					0.356716227416149,
					-15.1546775126288,
					5.42793188657539,
					-15.6538612290625,
					-17.8066577597589,
					15.8404350650855,
					-48.8329660741242,
					-37.3140438252498,
					-43.0903070234894,
					-32.4881635146014,
					-29.4340897560534,
					-35.8587717103778,
					30.3162281451067,
					-58.4929617639828,
					-36.0862445201128,
					18.727897728854,
					15.962459638175,
					-22.8728592756415,
					3.93405586729895,
					-6.73300951179609,
					0.443328476873317,
					-16.0672316991999,
					5.81754701859864,
					-16.0222586696207,
					-16.9010091641851,
					18.7944416667655,
					16.3714371819799,
					-22.7030723918962,
					4.04265963878307,
					-6.65538350421703,
					0.913878046947142,
					-15.9141131828102,
					5.85244566544235,
					-16.0177351486294,
					-16.8051700468109,
					19.4694460108695,
					15.8276041090529,
					-22.5006499981366,
					3.45161285690699,
					-6.63478669291365,
					0.232373882042419,
					-15.8942846207739,
					5.50008217623206,
					-16.2056716599649,
					-16.9351684925278,
					18.9163366329107,
					16.0526694620457,
					-22.5460640077209,
					3.93189767064079,
					-7.26146787156824,
					0.583892298400734,
					-15.7393902511311,
					5.85116719092044,
					-16.1246980679323,
					-17.0203559883802,
					19.3830759425554,
					15.6494806158223,
					-23.198634195918,
					4.01475864449932,
					-7.29522578608647,
					0.876756743787269,
					-15.4120567406269,
					5.1916325477292,
					-15.3989451844601,
					-17.1417281282757,
					18.9422720601948,
					15.685372987262,
					-23.1495422587011,
					3.81847745877732,
					-7.17007804690733,
					0.61976416065191,
					-15.9260652120543,
					5.31608006981879,
					-15.5230735408542,
					-17.1387557162325,
					19.1078595199877,
					16.0227930757255,
					-22.4626757348715,
					3.459122052942,
					-6.85257370755982,
					0.847774125822313,
					-16.0948803575307,
					5.61639453321751,
					-16.0114429411969,
					-17.0580221801675,
					19.1620735723445,
					15.8066085209069,
					-23.1340959635781,
					3.56581527387747,
					-7.4026627233315,
					0.514165033127085,
					-15.2975445726857,
					5.23745006434482,
					-15.5747511285145,
					-17.3151013514313,
					18.7023622482215,
					16.5080053140012,
					-22.9021238099773,
					3.58034450614976,
					-7.08690953791513,
					0.953238613682729,
					-15.7376377890976,
					5.30510917037762,
					-15.4750197291411,
					-17.2670229830802,
					14.5741853020043,
					-49.0884892490386,
					-37.4113785871188,
					-33.6439809704942,
					-53.0227337520179,
					-41.4492307789401,
					-42.9902987863768,
					48.0748343470794,
					-33.533578991851,
					-54.3157877471835,
					19.6068357193664,
					-72.4740984154561,
					-30.8510253003219,
					-56.182288040607,
					-27.9297489148699,
					-67.0659107889011,
					-55.7156525684467,
					42.4311258042405,
					-20.8646365651143,
					-63.9891777775088,
					54.9796400880179,
					-52.2701907972545,
					-13.8492425100955,
					-35.1384020148833,
					-29.1224273652761,
					-38.0478800574199,
					-64.8006256454111,
					44.3706532868893,
					-31.0452517907056,
					-68.1086783746939,
					19.3446380959287,
					15.6752568561921,
					-22.9430544189987,
					4.00078083170904,
					-6.78779044930724,
					0.257704246260628,
					-15.8633606373339,
					5.3570120551312,
					-15.8548735545112,
					-16.8442634035977,
					19.5411724774588,
					15.7040405574822,
					-22.5928693078382,
					3.90596910361169,
					-6.81388890828384,
					0.351128261624194,
					-15.7187625492392,
					5.54177441947069,
					-15.9971407742081,
					-17.01322192349,
					19.1969513089063,
					16.3797949734516,
					-22.3975306745263,
					3.97963847586706,
					-7.23917349294737,
					0.448397908323984,
					-15.437305236171,
					5.5815901980627,
					-16.0443657626922,
					-17.0414871918415,
					19.1381762073435,
					16.2575146685285,
					-22.4170594158658,
					3.5662166538312,
					-7.23409193150233,
					0.117874119086192,
					-15.4393947288417,
					5.57911644912931,
					-16.1629008775758,
					-17.1802126171163,
					19.2107964848259,
					15.9078330038456,
					-23.0131189914394,
					3.77422682997642,
					-6.54224822141639,
					0.203128850799208,
					-15.8427609869852,
					5.3622720721889,
					-15.9671231495883,
					-16.7481039578979,
					19.2776949441297,
					15.8252103610547,
					-22.5777402368232,
					3.63824259556843,
					-6.83814100351376,
					0.348345848708812,
					-15.7080800823319,
					5.75374590859014,
					-16.2435333618505,
					-16.9772863242607,
					19.3094496943665,
					15.5854760892648,
					-23.2497128595699,
					3.51012756416205,
					-6.66942978509156,
					0.412791046889852,
					-15.6779350421382,
					5.28768001317697,
					-15.7704437774778,
					-16.9732231103932,
					18.8128461008973,
					15.7973475571825,
					-23.2227794124379,
					3.65698395549823,
					-7.15598845199846,
					0.120990680395773,
					-15.7285748019655,
					5.30195639013559,
					-15.6043459204457,
					-17.2430129785236,
					18.6037794566894,
					16.1835840780967,
					-23.2802623641253,
					3.91457504884479,
					-6.53235460803236,
					0.0887982972407609,
					-15.2464157073333,
					5.91652490450877,
					-15.8393132435285,
					-17.2678290909463
				]
			}
		]
	},
	"vec_count": 10
}