{
	"decoder": {
		"cell_count": 100,
		"cells": [
			{
				"biases": [
					0.589240095250252,
					0.97074956059501,
					0.386623741300116,
					-0.31205915313473
				],
				"weights": [
					[
						0.365625309115079,
						0.262371574721039
					],
					[
						0.873069568255179,
						0.575629387454875
					],
					[
						0.408292623784093,
						-0.3381054485011
					],
					[
						0.976238848384645,
						-0.51078301713041
					]
				]
			},
			{
				"biases": [
					-0.90259880158577,
					0.926387237659582,
					-0.46270853561931,
					0.428568961056378
				],
				"weights": [
					[
						-0.06989472204885,
						-0.19707541040136
					],
					[
						0.470547663195358,
						-0.09920458243778
					],
					[
						-0.55483122302172,
						-0.23803970081785
					],
					[
						-0.54768851653906,
						-0.63917911000276
					]
				]
			},
			{
				"biases": [
					0.639277411394451,
					-0.96425283201776,
					0.791911999316398,
					-0.843368315874
				],
				"weights": [
					[
						0.710075714986892,
						0.0167929337879225
					],
					[
						-0.38144618350207,
						-0.91096913204939
					],
					[
						0.850575899777695,
						0.172815576036067
					],
					[
						-0.50632183947749,
						-0.51026179448007
					]
				]
			},
			{
				"biases": [
					0.821627426606072,
					0.323216735635554,
					0.243156317704468,
					-0.09930104759393
				],
				"weights": [
					[
						0.654576184074121,
						-0.74323020006559
					],
					[
						0.0197532375227029,
						-0.74493069407542
					],
					[
						0.598244322486523,
						0.299313232738979
					],
					[
						-0.98384650921792,
						-0.55125800077463
					]
				]
			},
			{
				"biases": [
					-0.47572491987487,
					0.179942531153422,
					-0.3386224674625,
					-0.95409327911913
				],
				"weights": [
					[
						0.534791893088814,
						-0.42250149507442
					],
					[
						0.915314236671395,
						-0.91338876439163
					],
					[
						0.09004601915983,
						0.0555959758420175
					],
					[
						-0.21794697891143,
						-0.06946814675705
					]
				]
			},
			{
				"biases": [
					-0.5826981283927,
					-0.30612408091906,
					-0.56844717758975,
					0.74204722075733
				],
				"weights": [
					[
						-0.34414734375137,
						0.0762546459264514
					],
					[
						-0.19700106762331,
						-0.83247053151621
					],
					[
						0.982379607121784,
						0.228923128878865
					],
					[
						-0.37052829602494,
						-0.69285128612802
					]
				]
			},
			{
				"biases": [
					-0.77038265738651,
					0.360352316836435,
					0.164229646153132,
					0.547879836736085
				],
				"weights": [
					[
						-0.01164059777235,
						0.00928659793524352
					],
					[
						-0.3325698667148,
						0.571103403308198
					],
					[
						-0.32281947984127,
						0.861663391619003
					],
					[
						0.5697645929461,
						0.319280405824495
					]
				]
			},
			{
				"biases": [
					-0.61941040303665,
					0.959340361241276,
					-0.78470827301881,
					-0.01340552904179
				],
				"weights": [
					[
						0.485802766614839,
						0.34757420386722
					],
					[
						-0.97416365333828,
						-0.77484962474391
					],
					[
						0.29184232284338,
						0.319301330491811
					],
					[
						0.989547290153252,
						-0.28233601764278
					]
				]
			},
			{
				"biases": [
					-0.74027243031747,
					-0.44806832087341,
					-0.80883550671283,
					-0.16662476691143
				],
				"weights": [
					[
						-0.25572388371963,
						0.45445794237823
					],
					[
						-0.57676778724107,
						-0.57732164010441
					],
					[
						0.609947969220573,
						0.845397039257892
					],
					[
						-0.14838080297491,
						0.106369086877595
					]
				]
			},
			{
				"biases": [
					-0.98419408087584,
					0.106377966491249,
					-0.21719501415582,
					-0.15844207764311
				],
				"weights": [
					[
						0.467705982507139,
						0.471204729179217
					],
					[
						-0.45289958849283,
						-0.41727724142617
					],
					[
						0.782155628971925,
						0.826179796021698
					],
					[
						0.234046543723079,
						0.123432622352313
					]
				]
			},
			{
				"biases": [
					-0.75618004391821,
					-0.3328548249797,
					-0.76690443835975,
					0.849169113861863
				],
				"weights": [
					[
						-0.82704727317072,
						0.398485355821628
					],
					[
						-0.75515086688693,
						-0.14921286290842
					],
					[
						-0.69023449993455,
						-0.39040789008421
					],
					[
						0.0597057384149677,
						0.0394261269114109
					]
				]
			},
			{
				"biases": [
					-0.06818128550531,
					-0.51234456764751,
					-0.84819579434722,
					0.252856047873198
				],
				"weights": [
					[
						0.0144133065493829,
						-0.02693344745901
					],
					[
						-0.54204070277362,
						-0.49034729537254
					],
					[
						0.045128845979343,
						-0.93052836804832
					],
					[
						0.0386392871945868,
						0.833851499759394
					]
				]
			},
			{
				"biases": [
					0.952807651794459,
					-0.65387220328475,
					0.281138757685571,
					-0.76376141453717
				],
				"weights": [
					[
						-0.81770103880682,
						0.330877026225572
					],
					[
						0.106781268408002,
						0.560266429038527
					],
					[
						-0.35662625057039,
						-0.68983497155616
					],
					[
						-0.34711646721876,
						-0.24662420299366
					]
				]
			},
			{
				"biases": [
					-0.96793546646029,
					-0.62560846919152,
					-0.61800206062896,
					0.720577574426021
				],
				"weights": [
					[
						-0.21796757877319,
						-0.24854322715376
					],
					[
						0.190283109550175,
						0.309028832382312
					],
					[
						-0.76140054439589,
						0.111335019153632
					],
					[
						-0.53501884877539,
						-0.99573681251892
					]
				]
			},
			{
				"biases": [
					-0.96838167949036,
					0.419046507374203,
					0.456757437167132,
					-0.12229987304045
				],
				"weights": [
					[
						0.360307348932085,
						-0.69619691683711
					],
					[
						-0.6476114819919,
						-0.40835362602874
					],
					[
						-0.55490326361801,
						0.899447799322452
					],
					[
						0.472689659997108,
						-0.45466483727074
					]
				]
			},
			{
				"biases": [
					0.560936652417238,
					-0.53864021677107,
					0.209963128445476,
					-0.98246485956446
				],
				"weights": [
					[
						0.244708245994995,
						0.197900362690055
					],
					[
						0.0530656685636932,
						0.47555871674748
					],
					[
						0.031350792278776,
						-0.77821035116026
					],
					[
						-0.70167146525924,
						0.320241511066795
					]
				]
			},
			{
				"biases": [
					0.530549459498403,
					-0.11206571238546,
					-0.5618130651316,
					0.570135255478989
				],
				"weights": [
					[
						0.367592154470093,
						-0.63141096686278
					],
					[
						0.721417458283497,
						-0.4951853874302
					],
					[
						0.228322198477228,
						-0.62272050874765
					],
					[
						0.960974261323015,
						0.685071315852798
					]
				]
			},
			{
				"biases": [
					0.124169457285254,
					-0.2029812826818,
					0.660045966411897,
					-0.87091489937691
				],
				"weights": [
					[
						0.647956705056554,
						-0.35337514462891
					],
					[
						0.0514158523595539,
						0.319098191939291
					],
					[
						0.642685883337289,
						-0.58125138436585
					],
					[
						-0.40476538612602,
						-0.45974795492218
					]
				]
			},
			{
				"biases": [
					-0.25114103688122,
					0.687464718297138,
					0.772219086860267,
					-0.7259941773875
				],
				"weights": [
					[
						0.337020236466971,
						-0.69115055700427
					],
					[
						-0.02493010385671,
						-0.6410482381314
					],
					[
						-0.47510244834853,
						-0.23035211472443
					],
					[
						-0.73939236504102,
						-0.86802447205395
					]
				]
			},
			{
				"biases": [
					0.877298093069157,
					-0.82556916121404,
					0.165914293705649,
					-0.27143358255299
				],
				"weights": [
					[
						0.314864810295777,
						0.190571574002462
					],
					[
						-0.68919437510405,
						-0.01406366053977
					],
					[
						-0.1809073047931,
						-0.44326540509851
					],
					[
						-0.18884895270774,
						0.380830855235497
					]
				]
			},
			{
				"biases": [
					-0.15493066882801,
					0.402987707398575,
					0.019319551891563,
					-0.92365809991847
				],
				"weights": [
					[
						0.920897214469054,
						0.921484870419439
					],
					[
						-0.02016125585058,
						-0.05313403297157
					],
					[
						0.980339694841522,
						-0.38854523595392
					],
					[
						-0.00385904115828,
						0.679048476682207
					]
				]
			},
			{
				"biases": [
					0.663036230184321,
					0.105484984298638,
					-0.8719487485499,
					0.330844826151956
				],
				"weights": [
					[
						-0.36127822985901,
						0.131647307860902
					],
					[
						-0.02954414899973,
						-0.66032481009623
					],
					[
						-0.67842584933722,
						0.174088522112356
					],
					[
						-0.46405053267591,
						0.35939451417205
					]
				]
			},
			{
				"biases": [
					-0.70698766567106,
					-0.50691344321799,
					0.552835990099736,
					-0.94539957788768
				],
				"weights": [
					[
						0.397663573904089,
						-0.27874627357848
					],
					[
						-0.56412566212484,
						-0.53276835525854
					],
					[
						0.208147869141438,
						-0.36776531889822
					],
					[
						0.0947194391270652,
						0.322361069002586
					]
				]
			},
			{
				"biases": [
					0.0828850037396471,
					0.855721211521813,
					0.807331263320933,
					-0.42318151453014
				],
				"weights": [
					[
						-0.37002257564059,
						-0.98041208464017
					],
					[
						0.0319791148616796,
						0.617907570042228
					],
					[
						-0.95837027524152,
						0.50529212233968
					],
					[
						-0.94390071023107,
						0.948194856104265
					]
				]
			},
			{
				"biases": [
					0.560683684847363,
					0.209223403622976,
					0.714548378865153,
					-0.89952440900282
				],
				"weights": [
					[
						-0.34331327304095,
						-0.07552576729854
					],
					[
						0.767462679912791,
						0.975439484017243
					],
					[
						-0.69283010231421,
						0.694241024529373
					],
					[
						0.33979797739187,
						0.0175125146660495
					]
				]
			},
			{
				"biases": [
					0.319153951045811,
					-0.81696923951019,
					-0.13075406030615,
					0.92951128155915
				],
				"weights": [
					[
						-0.7131834289248,
						-0.44535787076127
					],
					[
						0.872916665187757,
						0.0790745748412567
					],
					[
						-0.57941866472318,
						-0.32918290021952
					],
					[
						-0.69221944634965,
						0.35728287902161
					]
				]
			},
			{
				"biases": [
					0.653270794336165,
					0.305891428992744,
					0.214338874113329,
					0.662847898467281
				],
				"weights": [
					[
						-0.21213097735987,
						0.151816385730062
					],
					[
						0.0719704073708949,
						-0.82736997521288
					],
					[
						0.285876868163789,
						0.176165498176822
					],
					[
						0.762014898499761,
						-0.65374270406725
					]
				]
			},
			{
				"biases": [
					0.297458399674191,
					0.132621377978897,
					0.200673304659679,
					-0.81185706281051
				],
				"weights": [
					[
						-0.83275607355274,
						0.240170529260494
					],
					[
						0.88736538453092,
						0.253252629557688
					],
					[
						0.543098486263736,
						-0.28272597346186
					],
					[
						-0.3766803672,
						-0.18288196408476
					]
				]
			},
			{
				"biases": [
					0.931330598273134,
					-0.96284253034412,
					-0.24414633541282,
					-0.34646219889691
				],
				"weights": [
					[
						-0.56528780993877,
						-0.63627771200734
					],
					[
						-0.81152575740058,
						-0.05563735418391
					],
					[
						-0.99295510326376,
						0.988745146855835
					],
					[
						0.0142391145823604,
						0.550946275523241
					]
				]
			},
			{
				"biases": [
					0.306546711409299,
					-0.11978787318259,
					-0.72064924431422,
					-0.76465424164162
				],
				"weights": [
					[
						0.597349077398785,
						-0.87920219300071
					],
					[
						0.493703249427806,
						-0.42210629786133
					],
					[
						-0.01258379349256,
						-0.63453021451046
					],
					[
						0.722250448183998,
						0.393960492272789
					]
				]
			},
			{
				"biases": [
					0.434178139177502,
					0.108326396596828,
					0.987719657843625,
					-0.73779617683173
				],
				"weights": [
					[
						0.160193459036905,
						-0.332612445568
					],
					[
						0.418009554895385,
						-0.3416581919712
					],
					[
						0.626749987572789,
						0.804810536108734
					],
					[
						-0.08305200958967,
						0.866062276048506
					]
				]
			},
			{
				"biases": [
					-0.04418019153063,
					-0.40621330920732,
					0.949359203946771,
					0.988414251010226
				],
				"weights": [
					[
						0.631402756688692,
						-0.89745729768584
					],
					[
						0.899214096628733,
						0.916762566631294
					],
					[
						-0.6389016773158,
						-0.58444157578742
					],
					[
						-0.89149284497486,
						-0.5276594098395
					]
				]
			},
			{
				"biases": [
					-0.7610567706519,
					0.821256685649761,
					-0.97791857196582,
					-0.97280295948263
				],
				"weights": [
					[
						0.197130905704954,
						0.613529391393929
					],
					[
						-0.48919505090764,
						-0.768695549003
					],
					[
						0.340716291763447,
						-0.14725080845539
					],
					[
						-0.41038504921654,
						-0.32275812451197
					]
				]
			},
			{
				"biases": [
					0.765155722633871,
					0.404693920757863,
					0.863157091206913,
					-0.2249012090677
				],
				"weights": [
					[
						0.87730141927084,
						0.934798729275274
					],
					[
						0.707726690149962,
						0.494103486737475
					],
					[
						0.775269737076997,
						0.906577954527383
					],
					[
						-0.53409759744617,
						-0.15843135659398
					]
				]
			},
			{
				"biases": [
					-0.21461941290015,
					0.349762823572362,
					-0.41281393664624,
					-0.84200028073583
				],
				"weights": [
					[
						-0.4148491931144,
						0.00188192951157919
					],
					[
						-0.48445235414787,
						0.216300929325099
					],
					[
						0.430076288064945,
						0.581219833575656
					],
					[
						-0.80600938911053,
						-0.61941404794883
					]
				]
			},
			{
				"biases": [
					0.260782131985189,
					0.340894045293861,
					-0.43037683752709,
					-0.4244865269653
				],
				"weights": [
					[
						-0.59866226648887,
						-0.18708468611972
					],
					[
						0.302872175231341,
						0.604039528168771
					],
					[
						0.602234633219754,
						-0.13143236260584
					],
					[
						0.367767503285511,
						0.944726453115164
					]
				]
			},
			{
				"biases": [
					-0.32095254692732,
					-0.40805853180611,
					0.980231152464134,
					-0.17494612374739
				],
				"weights": [
					[
						0.923461643272483,
						0.318460169478148
					],
					[
						0.663533735483216,
						-0.43600173996855
					],
					[
						0.435020918072712,
						-0.03267083133358
					],
					[
						0.708870693185276,
						-0.53664010471786
					]
				]
			},
			{
				"biases": [
					-0.86056254336717,
					0.186533840422826,
					0.105354124193951,
					0.423432443234306
				],
				"weights": [
					[
						-0.25895329934988,
						0.369296521325586
					],
					[
						0.726387550570767,
						-0.9678027916577
					],
					[
						-0.66445364276259,
						-0.59030958743955
					],
					[
						0.189814276943591,
						0.446722580222032
					]
				]
			},
			{
				"biases": [
					-0.34819213989563,
					0.451304539732464,
					-0.41907213199275,
					0.271879974640944
				],
				"weights": [
					[
						-0.91799860977066,
						-0.00428742608667
					],
					[
						-0.59246104688634,
						-0.70662200511083
					],
					[
						-0.61517579480547,
						0.992000318730311
					],
					[
						0.891682134171025,
						-0.81738544416665
					]
				]
			},
			{
				"biases": [
					0.945017798570753,
					0.381798606974715,
					-0.26989799085517,
					-0.93563211490941
				],
				"weights": [
					[
						0.366129259858188,
						0.674259534239161
					],
					[
						-0.22362968883142,
						-0.18793547281581
					],
					[
						0.31541185772307,
						-0.55863758611042
					],
					[
						-0.36738224179442,
						0.294627192256146
					]
				]
			},
			{
				"biases": [
					-0.42771667568276,
					-0.40677059536111,
					-0.1534768045692,
					-0.68906860174828
				],
				"weights": [
					[
						-0.24615037071501,
						-0.39865043777833
					],
					[
						-0.44784786338191,
						-0.43429503957267
					],
					[
						0.0202689210362366,
						-0.3862092036028
					],
					[
						0.86914350543085,
						-0.82763667871504
					]
				]
			},
			{
				"biases": [
					0.905753224678938,
					-0.00765194620715,
					0.702397885076259,
					0.728897333611684
				],
				"weights": [
					[
						-0.57908010162226,
						0.77292753541544
					],
					[
						0.140766040804424,
						-0.04642672543875
					],
					[
						0.909154841802573,
						-0.97489611125316
					],
					[
						-0.43001115329891,
						0.106639108252487
					]
				]
			},
			{
				"biases": [
					0.903901842925719,
					-0.43227406652239,
					-0.00264868219943,
					-0.06028771449281
				],
				"weights": [
					[
						0.527050607055312,
						-0.16223980155189
					],
					[
						-0.8638897342019,
						0.910012427718084
					],
					[
						0.878831316943045,
						0.325229806469682
					],
					[
						0.549560563179512,
						0.889467098922916
					]
				]
			},
			{
				"biases": [
					0.203542921968263,
					0.914919211911854,
					0.559835189517928,
					0.553281199960672
				],
				"weights": [
					[
						0.80870881655931,
						-0.52542036233594
					],
					[
						0.472400526522151,
						-0.73359593028359
					],
					[
						-0.47218202724421,
						-0.44450416465703
					],
					[
						-0.62857123160103,
						-0.6472272368435
					]
				]
			},
			{
				"biases": [
					0.239083712896661,
					-0.44203393362176,
					0.720904608015527,
					-0.84276198443025
				],
				"weights": [
					[
						0.802868249679218,
						0.244584835657144
					],
					[
						-0.58550511607725,
						0.0591234939647337
					],
					[
						0.909925645863013,
						-0.23418986821858
					],
					[
						0.938713943258009,
						-0.40457306828131
					]
				]
			},
			{
				"biases": [
					-0.7596682863672,
					0.916839792861799,
					-0.86120290799185,
					-0.35281369299477
				],
				"weights": [
					[
						0.317243628443638,
						0.0336628511141496
					],
					[
						-0.82561840393937,
						0.364837618575017
					],
					[
						-0.45595560205859,
						0.338535615216143
					],
					[
						0.152848529282223,
						0.548945286204215
					]
				]
			},
			{
				"biases": [
					-0.82247883006356,
					0.580655242840425,
					0.907246665425384,
					-0.77812672817268
				],
				"weights": [
					[
						-0.51241174339003,
						0.202571559602441
					],
					[
						-0.91110561671552,
						-0.76654189874363
					],
					[
						0.472240343660543,
						0.590444800003014
					],
					[
						0.184582941078527,
						0.324498446869947
					]
				]
			},
			{
				"biases": [
					0.980045662582791,
					-0.51299434508807,
					-0.35138971493044,
					0.250436515052424
				],
				"weights": [
					[
						-0.10583822855954,
						-0.23680645914899
					],
					[
						-0.79207996442819,
						-0.4369366547389
					],
					[
						0.351325865113616,
						0.883827108601058
					],
					[
						-0.55667609008365,
						-0.84407082976691
					]
				]
			},
			{
				"biases": [
					0.515707345823693,
					0.810095927170084,
					0.83405051527862,
					-0.32486857320531
				],
				"weights": [
					[
						0.78503451870483,
						0.115727271911161
					],
					[
						-0.60391639778077,
						-0.56405699947666
					],
					[
						0.569588835191659,
						-0.79558359860817
					],
					[
						0.200151429691982,
						-0.48575537693362
					]
				]
			},
			{
				"biases": [
					0.566955283087104,
					0.0149769819016743,
					-0.79036706150288,
					-0.78734887393216
				],
				"weights": [
					[
						-0.16943956246446,
						0.301405337663339
					],
					[
						-0.909250283048,
						0.460429650058708
					],
					[
						0.359601051092342,
						0.921248268425409
					],
					[
						0.898364077369574,
						-0.55199634600855
					]
				]
			},
			{
				"biases": [
					0.164923441120765,
					-0.54155745094976,
					-0.66150661821573,
					0.966296689708758
				],
				"weights": [
					[
						-0.89089518044091,
						0.314556348153564
					],
					[
						0.410312486310709,
						-0.32848373335002
					],
					[
						0.997926098812006,
						0.0590119087717066
					],
					[
						0.31768468501888,
						0.736575781358815
					]
				]
			},
			{
				"biases": [
					0.936510419496175,
					-0.35250584227608,
					-0.63127079337918,
					-0.65816492348294
				],
				"weights": [
					[
						0.919752173355032,
						-0.10035650160601
					],
					[
						-0.49297231835848,
						-0.81880101111708
					],
					[
						0.00381162710610074,
						-0.30062312400055
					],
					[
						0.864607746411455,
						0.441559531997584
					]
				]
			},
			{
				"biases": [
					0.250145175512339,
					-0.31263481081893,
					0.0183853751766038,
					0.918519508959974
				],
				"weights": [
					[
						-0.58921950934119,
						0.480922222984873
					],
					[
						0.116945549273923,
						0.0459230972329749
					],
					[
						0.890978781544509,
						0.874513279359026
					],
					[
						-0.0931946259185,
						-0.8725025510116
					]
				]
			},
			{
				"biases": [
					-0.42805697201421,
					-0.3626989653059,
					-0.79295427629734,
					-0.35155878083622
				],
				"weights": [
					[
						0.243105341824171,
						-0.48423663578856
					],
					[
						-0.05072982382262,
						-0.92342210516775
					],
					[
						0.252853285214149,
						0.180764587682058
					],
					[
						0.251760481805448,
						0.616482998702324
					]
				]
			},
			{
				"biases": [
					-0.50705999847066,
					-0.09297411825472,
					-0.67645504466245,
					0.963208311288239
				],
				"weights": [
					[
						0.383536794923809,
						-0.89517914746987
					],
					[
						-0.40089198733387,
						0.951907735144634
					],
					[
						-0.11191183233947,
						-0.8118418528951
					],
					[
						0.206200844839658,
						0.383985466168791
					]
				]
			},
			{
				"biases": [
					-0.90433132952491,
					0.47854101076924,
					0.422399516423866,
					-0.8575054793058
				],
				"weights": [
					[
						0.970982274984788,
						-0.05644927260375
					],
					[
						-0.22945709435182,
						0.611630665898892
					],
					[
						-0.99630570490074,
						-0.34154140407077
					],
					[
						0.499568882750073,
						0.245606895833669
					]
				]
			},
			{
				"biases": [
					0.283417162426715,
					-0.30603813458092,
					-0.85062977463553,
					-0.02747129891889
				],
				"weights": [
					[
						-0.42323695872261,
						-0.93722281684515
					],
					[
						-0.11802995801064,
						-0.88875718138773
					],
					[
						-0.4537329321865,
						0.321373236008445
					],
					[
						-0.78406580344082,
						0.418465758565369
					]
				]
			},
			{
				"biases": [
					-0.72111924702655,
					0.678234065263183,
					-0.39088430998711,
					-0.02924777927711
				],
				"weights": [
					[
						0.399796383508256,
						-0.16373268957897
					],
					[
						0.248029517777221,
						-0.91097037370476
					],
					[
						-0.41500545666396,
						-0.55629530610337
					],
					[
						-0.36069978720639,
						-0.91178098058421
					]
				]
			},
			{
				"biases": [
					-0.75882896037033,
					0.995930278087201,
					0.824612521689779,
					0.591034895104215
				],
				"weights": [
					[
						-0.05276156499036,
						-0.58240439730207
					],
					[
						0.109958135427614,
						0.533262303739829
					],
					[
						-0.25442592858205,
						0.4586024827652
					],
					[
						0.349528600539541,
						0.178273628611928
					]
				]
			},
			{
				"biases": [
					-0.22832323617776,
					-0.93605939252499,
					-0.36188402247006,
					-0.13298493214915
				],
				"weights": [
					[
						-0.12220358888928,
						-0.07538884135482
					],
					[
						-0.01824473200048,
						-0.36968652145294
					],
					[
						0.905430217485138,
						0.570807696005084
					],
					[
						-0.43685775830857,
						0.376910416490989
					]
				]
			},
			{
				"biases": [
					0.550543549064257,
					0.299393695970282,
					-0.71062371989325,
					0.443698529883525
				],
				"weights": [
					[
						0.510436190181668,
						-0.76491744971961
					],
					[
						0.32963933367242,
						0.838528098295802
					],
					[
						0.908037199247206,
						0.773664652828615
					],
					[
						0.920838221433452,
						-0.70233114182777
					]
				]
			},
			{
				"biases": [
					-0.47830055431943,
					0.514048964341095,
					-0.39624771966249,
					0.476141329726347
				],
				"weights": [
					[
						0.280241467168069,
						-0.92560312248456
					],
					[
						-0.0542493255777,
						0.453612353923302
					],
					[
						-0.76752059137432,
						-0.48632725229785
					],
					[
						-0.01975362243869,
						-0.82002223543973
					]
				]
			},
			{
				"biases": [
					-0.76986161025438,
					0.0994552011293359,
					-1.00300367796201,
					0.26241992424881
				],
				"weights": [
					[
						-0.43063977483977,
						0.949307756286021
					],
					[
						-0.77303014396393,
						0.660433419089084
					],
					[
						-0.72540645667651,
						-0.8120106336139
					],
					[
						0.395068089417994,
						-0.24343781751713
					]
				]
			},
			{
				"biases": [
					-0.97469992990736,
					-0.87731899692243,
					-0.81247149559481,
					0.538352920499393
				],
				"weights": [
					[
						0.658622591185689,
						-0.52010543523363
					],
					[
						-0.9993205628105,
						0.970308610892052
					],
					[
						0.49783484486743,
						0.494504112377798
					],
					[
						-0.32545047224291,
						-0.52308806298612
					]
				]
			},
			{
				"biases": [
					0.190995490122151,
					-0.00647157513128,
					-0.30028804448645,
					0.297232379666173
				],
				"weights": [
					[
						0.394597941908402,
						-0.92618062155508
					],
					[
						0.137019086043084,
						0.566793580388053
					],
					[
						0.262758243334511,
						-0.05592030212863
					],
					[
						-0.23280439184424,
						0.800249962405748
					]
				]
			},
			{
				"biases": [
					-0.25990205927768,
					-0.94916396492866,
					-0.84255810656878,
					0.655795716826508
				],
				"weights": [
					[
						-0.6073608878098,
						-0.89347201211419
					],
					[
						0.519848065164843,
						-0.80296096296186
					],
					[
						-0.565765344499,
						-0.50783808676261
					],
					[
						-0.19322129271807,
						-0.38606081280247
					]
				]
			},
			{
				"biases": [
					0.544248635825501,
					0.631557814856922,
					-0.64248767621027,
					0.177436708714739
				],
				"weights": [
					[
						-0.05483157137054,
						-0.19715348340705
					],
					[
						-0.70202727199383,
						-0.33615446134016
					],
					[
						-0.23946319936762,
						0.612325114713102
					],
					[
						0.867589288708717,
						-0.24558915158692
					]
				]
			},
			{
				"biases": [
					-0.75260547455572,
					-0.57910223225043,
					-0.39592870488202,
					-0.59788505986453
				],
				"weights": [
					[
						-0.12919325684152,
						-0.45867002246087
					],
					[
						0.39728362481355,
						0.550134206026548
					],
					[
						0.0834033896266917,
						0.163365754337228
					],
					[
						0.0618649043767904,
						0.431962115421595
					]
				]
			},
			{
				"biases": [
					0.219533903148405,
					0.226010376963304,
					-0.24419564463284,
					-0.26233571085161
				],
				"weights": [
					[
						0.466772420790152,
						0.850531958420903
					],
					[
						-0.73631000298568,
						0.219413260534384
					],
					[
						0.0981862871102427,
						-0.06131588224079
					],
					[
						0.279476912238782,
						-0.81501240014323
					]
				]
			},
			{
				"biases": [
					-0.61477653080062,
					-0.96720845452162,
					0.0958492918002487,
					-0.78264961692682
				],
				"weights": [
					[
						-0.97189344589024,
						-0.55557474766836
					],
					[
						-0.53442593263102,
						-0.7168799740789
					],
					[
						-0.85250266934404,
						-0.42635389708626
					],
					[
						-0.43649386067085,
						-0.02869126399996
					]
				]
			},
			{
				"biases": [
					0.0465625353045045,
					0.434713753766125,
					0.549450670923694,
					0.460512213458278
				],
				"weights": [
					[
						-0.11499724947481,
						-0.4722291025155
					],
					[
						0.101564078924898,
						0.311288439527043
					],
					[
						0.412987555710341,
						-0.62585047299909
					],
					[
						0.324880575926197,
						-0.33341553787737
					]
				]
			},
			{
				"biases": [
					-0.32472613009196,
					0.98553935909027,
					0.405751033415368,
					-0.81041190279443
				],
				"weights": [
					[
						0.975005070675389,
						0.922076785990495
					],
					[
						-0.07992647870214,
						0.828781162915607
					],
					[
						-0.79562304775457,
						-0.10282391590882
					],
					[
						-0.3467582783682,
						0.115498862890097
					]
				]
			},
			{
				"biases": [
					0.389184050698541,
					0.471530751286717,
					0.318458189483881,
					-0.17197239352205
				],
				"weights": [
					[
						0.764350890419473,
						-0.87793180424189
					],
					[
						-0.91820701184171,
						-0.02287510851127
					],
					[
						0.981153764707103,
						-0.87335872823307
					],
					[
						0.643860880352948,
						0.779937575651806
					]
				]
			},
			{
				"biases": [
					-0.2704961687603,
					-0.91901210719588,
					0.951953031036584,
					-0.53887009639947
				],
				"weights": [
					[
						-0.28133741116527,
						-0.70305892949516
					],
					[
						-0.98513268860982,
						-0.5596499316752
					],
					[
						0.312659191626672,
						-0.49853740099803
					],
					[
						0.891478766435905,
						0.464418207298715
					]
				]
			},
			{
				"biases": [
					-0.79850824415153,
					0.672060444499783,
					0.757054206295521,
					-0.33345500459017
				],
				"weights": [
					[
						0.517475125142693,
						-0.86706999225639
					],
					[
						-0.11039281888584,
						-0.12805216428101
					],
					[
						-0.93602378459941,
						0.984599279700927
					],
					[
						0.0961667084290202,
						-0.67077255955036
					]
				]
			},
			{
				"biases": [
					-0.58783644680215,
					0.523361300257502,
					0.203540409567002,
					0.16974484651779
				],
				"weights": [
					[
						0.329053236683721,
						0.479603283774541
					],
					[
						0.48077651402707,
						0.7029708897219
					],
					[
						0.126569378647635,
						-0.20884700087346
					],
					[
						-0.87338150806421,
						-0.12629224721376
					]
				]
			},
			{
				"biases": [
					0.627993507855607,
					-0.25454650222527,
					-0.39614953580735,
					0.816697481345016
				],
				"weights": [
					[
						0.516853705352959,
						-0.69128127097515
					],
					[
						0.405478146666199,
						-0.97774683529394
					],
					[
						0.82829548593777,
						-0.47037527869494
					],
					[
						-0.10200180162375,
						-0.70366347151358
					]
				]
			},
			{
				"biases": [
					-0.35380371243591,
					0.799981710001233,
					-0.11744341870106,
					0.350322743985047
				],
				"weights": [
					[
						-0.90621275730053,
						0.670458462885728
					],
					[
						0.504104242588899,
						0.894108647794934
					],
					[
						0.277923649557158,
						-0.37072672442809
					],
					[
						0.878992183480165,
						0.221329676123091
					]
				]
			},
			{
				"biases": [
					-0.31694302841498,
					-0.75029202295813,
					-0.51101901375228,
					0.328443218385988
				],
				"weights": [
					[
						0.407860942684658,
						-0.53437128541486
					],
					[
						-0.85182647466755,
						0.368436894025682
					],
					[
						-0.16701313971187,
						-0.81104976136546
					],
					[
						-0.77677685826913,
						0.31419670167023
					]
				]
			},
			{
				"biases": [
					-0.07014965750602,
					0.0382290914457262,
					0.305415890518095,
					-0.62368913628487
				],
				"weights": [
					[
						-0.75104142358029,
						-0.55590802789472
					],
					[
						0.636411416641552,
						-0.96487710828174
					],
					[
						0.0860677550409574,
						0.646917876889061
					],
					[
						-0.60181373688988,
						-0.39628538946455
					]
				]
			},
			{
				"biases": [
					-0.58215983182814,
					0.95061498494883,
					-0.0530229919557,
					0.656319317181084
				],
				"weights": [
					[
						-0.63769347154364,
						0.178077287924908
					],
					[
						-0.0509168190654,
						0.851190258872469
					],
					[
						-0.67106196639328,
						0.863651684452129
					],
					[
						0.73275940339411,
						0.269832578515593
					]
				]
			},
			{
				"biases": [
					-0.2210217235664,
					-0.31920360421516,
					-0.8288620044054,
					0.828643039284227
				],
				"weights": [
					[
						-0.53376586683658,
						0.271591519687153
					],
					[
						-0.51957038430429,
						0.537465939774003
					],
					[
						-0.30601110278122,
						-0.70457932612993
					],
					[
						-0.15827419585691,
						0.440696577272551
					]
				]
			},
			{
				"biases": [
					-0.82245869779962,
					0.0770966315186597,
					-0.63466825507432,
					-0.05112864910932
				],
				"weights": [
					[
						0.242896640966359,
						-0.66208531796294
					],
					[
						0.478322531816665,
						0.198890314460146
					],
					[
						-0.99707338845945,
						-0.92460105373998
					],
					[
						0.537143669410621,
						0.730769094863495
					]
				]
			},
			{
				"biases": [
					0.601637870948237,
					-0.74299374433112,
					-0.78646063863348,
					-0.55485241297066
				],
				"weights": [
					[
						0.328880594936761,
						-0.48926170808467
					],
					[
						0.0390965961376097,
						-0.81484054088672
					],
					[
						-0.72704033609906,
						0.268286975503375
					],
					[
						0.833676071069171,
						0.720229984126798
					]
				]
			},
			{
				"biases": [
					-0.81697178375458,
					-0.53328403574748,
					-0.6672527448846,
					-0.77599343438889
				],
				"weights": [
					[
						-0.34937988701821,
						0.830425124756687
					],
					[
						0.63112023301528,
						-0.92515220165186
					],
					[
						0.415654157178732,
						0.819298712909921
					],
					[
						0.188900880777224,
						-0.28165191385856
					]
				]
			},
			{
				"biases": [
					-0.19372921227064,
					0.275342142709037,
					0.0871427744571351,
					0.606287718657969
				],
				"weights": [
					[
						-0.145862891941,
						-0.06637118338557
					],
					[
						-0.15814900620476,
						0.633740334428847
					],
					[
						0.724435519868329,
						0.304107772281017
					],
					[
						0.699903606534332,
						0.201596627029534
					]
				]
			},
			{
				"biases": [
					-0.05857613472726,
					0.272365533937451,
					0.489059169182488,
					0.743325626497303
				],
				"weights": [
					[
						0.636301407092587,
						-0.1628389769877
					],
					[
						-0.68317164472146,
						-0.05475332172314
					],
					[
						0.265743649490132,
						0.0154408319150226
					],
					[
						0.285480374597648,
						0.941118767051297
					]
				]
			},
			{
				"biases": [
					-0.27472202029117,
					-0.14656684795147,
					-1.0064779291942,
					-0.05054305598824
				],
				"weights": [
					[
						0.181097304398331,
						0.715423876538185
					],
					[
						-0.48789642283739,
						-0.40045671633503
					],
					[
						-0.30659879106334,
						-0.19986441948471
					],
					[
						-0.82803061353343,
						0.963367667027299
					]
				]
			},
			{
				"biases": [
					0.597458959478393,
					0.786997335578355,
					-0.81428954957291,
					-0.5686681267895
				],
				"weights": [
					[
						-0.51990911100805,
						-0.81176920924905
					],
					[
						0.90818548045844,
						-0.10051299979462
					],
					[
						-0.90484072248062,
						-0.89642922691033
					],
					[
						0.401001961823529,
						0.097929433626077
					]
				]
			},
			{
				"biases": [
					0.00777290612487163,
					0.730751622166427,
					0.15720032434841,
					0.258569301033093
				],
				"weights": [
					[
						0.222593285685989,
						0.91404574149171
					],
					[
						-0.63078397651282,
						-0.16605786750526
					],
					[
						-0.41987273849065,
						0.0372456969213472
					],
					[
						0.80733017923863,
						0.895873166860933
					]
				]
			},
			{
				"biases": [
					0.494423924350215,
					0.0451766215740279,
					0.845115811619631,
					0.71096174806564
				],
				"weights": [
					[
						-0.05322500863802,
						-0.17225935631353
					],
					[
						-0.43143457487752,
						-0.77555790651668
					],
					[
						-0.8449070216768,
						-0.55912311127017
					],
					[
						0.259826975102776,
						0.627721091563666
					]
				]
			},
			{
				"biases": [
					-0.79722470713254,
					0.547475726469534,
					0.159889295522346,
					-0.43395631546055
				],
				"weights": [
					[
						-0.12689244112104,
						0.282692035839061
					],
					[
						-0.57420853013641,
						0.672331873571326
					],
					[
						-0.36451866386193,
						-0.52497771120045
					],
					[
						0.112656137797137,
						-0.62776852480335
					]
				]
			},
			{
				"biases": [
					-0.81649467998257,
					0.476160418786748,
					-0.49703302410172,
					-0.88981441769186
				],
				"weights": [
					[
						-0.49700371710864,
						0.00732106050132561
					],
					[
						0.605599519267032,
						0.714082531698711
					],
					[
						-0.54371299111708,
						0.988906277168619
					],
					[
						-0.45845655206202,
						-0.57164531833559
					]
				]
			},
			{
				"biases": [
					0.384563273192578,
					-0.97727314041377,
					-0.73854185343151,
					0.63385315850771
				],
				"weights": [
					[
						-0.79477842067435,
						-0.31632401087054
					],
					[
						-0.62329098467488,
						0.863155892350775
					],
					[
						0.923707712412653,
						0.862467742888994
					],
					[
						0.590065183687999,
						0.80082046595171
					]
				]
			},
			{
				"biases": [
					-0.02555520638403,
					0.390475174127774,
					0.532467633249582,
					-0.937230851571
				],
				"weights": [
					[
						-0.66792372399567,
						0.321635040109027
					],
					[
						0.688165309239175,
						-0.65571461545402
					],
					[
						0.830521000948944,
						0.111219663346502
					],
					[
						0.79691615330754,
						0.611521131820637
					]
				]
			},
			{
				"biases": [
					-0.30716600385546,
					-0.05396767773417,
					-0.83754402707531,
					0.548395590306665
				],
				"weights": [
					[
						-0.74167179676501,
						-0.09700481768672
					],
					[
						-0.54688314111313,
						-0.32751817908704
					],
					[
						-0.93038686203561,
						-0.02193689860401
					],
					[
						0.463474310601265,
						-0.36103292691807
					]
				]
			},
			{
				"biases": [
					0.852134172681448,
					0.335075352477623,
					-0.84232982755654,
					0.682597507629989
				],
				"weights": [
					[
						0.346114375658651,
						-0.09551417570178
					],
					[
						0.28311250169549,
						-0.4115873034251
					],
					[
						-0.84784857120237,
						0.192188258294864
					],
					[
						-0.35859704205171,
						-0.03767618485248
					]
				]
			},
			{
				"biases": [
					0.347727340077404,
					-0.73990162739797,
					-0.10642695738905,
					-0.9327473978286
				],
				"weights": [
					[
						-0.34114168060312,
						-0.90479070276053
					],
					[
						0.0583688604788309,
						-0.65335664914082
					],
					[
						-0.74174114525144,
						0.941965576782165
					],
					[
						0.0384094400099069,
						-0.60434966214669
					]
				]
			},
			{
				"biases": [
					-0.49314508002856,
					0.516373042449755,
					0.17384520618203,
					-0.26142047016736
				],
				"weights": [
					[
						0.760337199035404,
						-0.88832255752727
					],
					[
						-0.54858848634165,
						0.22533986419587
					],
					[
						-0.60165591660003,
						0.303440260914935
					],
					[
						-0.10931082945189,
						0.403597127901351
					]
				]
			},
			{
				"biases": [
					0.169291719410038,
					0.978087996050717,
					-0.0171911562358,
					0.68490585368105
				],
				"weights": [
					[
						0.433034232378336,
						0.325386812074393
					],
					[
						-0.93861474515484,
						-0.54654756390128
					],
					[
						0.335675907965607,
						-0.51525007814164
					],
					[
						0.248127228601642,
						0.13368218310138
					]
				]
			}
		]
	},
	"embedding_input": {
		"input": 23,
		"is_biased": false,
		"layers": [
			{
				"a": 0,
				"b": [
					0,
					0,
					0,
					0,
					0,
					0,
					0,
					0,
					0,
					0,
					0,
					0,
					0,
					0,
					0,
					0,
					0,
					0,
					0,
					0,
					0,
					0,
					0,
					0,
					0,
					0,
					0,
					0,
					0,
					0,
					0,
					0,
					0,
					0,
					0,
					0,
					0,
					0,
					0,
					0,
					0,
					0,
					0,
					0,
					0,
					0,
					0,
					0,
					0,
					0,
					0,
					0,
					0,
					0,
					0,
					0,
					0,
					0,
					0,
					0,
					0,
					0,
					0,
					0,
					0,
					0,
					0,
					0,
					0,
					0,
					0,
					0,
					0,
					0,
					0,
					0,
					0,
					0,
					0,
					0,
					0,
					0,
					0,
					0,
					0,
					0,
					0,
					0,
					0,
					0,
					0,
					0,
					0,
					0,
					0,
					0,
					0,
					0,
					0,
					0
				],
				"i": 23,
				"o": 100,
				"w": [
					-0.38120767213884,
					0.232258947065227,
					-0.43971527526339,
					-0.41868594997432,
					-0.33435322221836,
					-0.00180265432951,
					-0.44920967950681,
					-0.0060050975918,
					0.388708863342212,
					0.275309539364321,
					-0.09038964109223,
					0.498087882729627,
					0.405672728124976,
					0.104629047096746,
					-0.04011164168457,
					0.482874438142965,
					0.396891768114211,
					-0.24009758854191,
					0.355580100653315,
					0.144463432591794,
					-0.2808343363218,
					-0.48942306297432,
					0.0380615458923824,
					0.30373372737011,
					-0.14335615650715,
					-0.08807871371085,
					-0.31240251966151,
					0.0710185233479759,
					0.181446475739878,
					-0.26485113942339,
					0.146939803042677,
					-0.48698105141684,
					0.482763866928002,
					-0.05897162129955,
					0.37818838145675,
					0.238972539005281,
					-0.30273994033061,
					0.166479907225997,
					0.0856942452749893,
					-0.08484437750246,
					0.439755911159638,
					-0.10062164746733,
					-0.38495129220744,
					-0.26576806117887,
					-0.14272220524803,
					0.0294664275177202,
					0.125092637884605,
					0.449981668016418,
					0.068806240470391,
					0.024822320203516,
					-0.04884374095956,
					-0.2089462615901,
					-0.08608105233835,
					-0.3762078617288,
					-0.01386523397279,
					-0.2300316651438,
					-0.43683650184955,
					0.371448733515615,
					0.0630023099348885,
					-0.399026661144,
					0.374806030079642,
					-0.22312200212313,
					0.17894318625721,
					0.325969340653374,
					0.0999275389958166,
					-0.01747224602777,
					0.0615753443869118,
					0.094449147574186,
					-0.03430703209459,
					0.427535956870809,
					-0.39208673612258,
					0.182857635247693,
					0.368482336807051,
					0.165542358920847,
					-0.22590735835138,
					0.324927560595412,
					-0.25791781123307,
					0.12632506150335,
					-0.32661528365534,
					-0.14353516560214,
					-0.3755863962014,
					0.117380577512785,
					0.0313546627164258,
					0.232548769066195,
					0.0195807315616333,
					-0.37486898765447,
					0.452480005534125,
					0.12306003504675,
					0.215178466278556,
					-0.1311147167755,
					0.0329323853164701,
					-0.44846910733999,
					0.0780118771840455,
					0.28569696624567,
					0.108994404965944,
					0.295324878236214,
					-0.10097016841589,
					0.206311413177759,
					0.240983283363637,
					-0.22923515791142,
					-0.45778245479803,
					0.140643681029525,
					-0.27112448852513,
					-0.26031663695026,
					0.0256569348127231,
					0.22747283613521,
					-0.49917549231033,
					0.0831015897660136,
					-0.11505260353056,
					-0.00070834089196,
					0.283782775190357,
					0.00157739583313821,
					0.436802412823479,
					0.436827517982939,
					-0.00719202279462,
					-0.23813190016855,
					0.289066380198507,
					-0.42710087430928,
					0.30132727307419,
					0.261037245797228,
					-0.23979061325975,
					0.485178380616084,
					0.479832936006272,
					0.219448077614674,
					0.34895112845181,
					0.399010505127058,
					-0.31614584611758,
					0.257150349696599,
					-0.22413904368877,
					0.188329582847396,
					0.119922228608488,
					-0.25861573204203,
					0.4737170585743,
					-0.05697175980222,
					-0.11881592876692,
					0.043913742154262,
					-0.40420016153666,
					-0.03981507572527,
					0.476673017750603,
					0.288898233869428,
					-0.46678318685979,
					0.114587177370162,
					-0.09439432985646,
					0.400510117817862,
					0.336522010029535,
					0.370577839858643,
					0.450898210719144,
					0.160961217921597,
					0.490906493051772,
					-0.43851379843489,
					-0.28916012217075,
					0.161415893919993,
					-0.4125975237502,
					-0.21211676090504,
					-0.49620636032958,
					-0.32754719306919,
					0.360900478256868,
					-0.23466620159242,
					0.354120236493815,
					-0.18710405494405,
					0.200410213533436,
					0.0801550950211994,
					0.274246026336412,
					0.339307194630616,
					-0.05202376400599,
					0.480648495186314,
					0.460554824817449,
					0.0568356306282098,
					-0.02427917714794,
					-0.13042519202777,
					-0.21004151092376,
					0.273096499593355,
					0.00327235438503687,
					0.347872805145422,
					-0.27664095039411,
					-0.38740296199659,
					-0.10973859782471,
					0.391958525212114,
					0.300748215397932,
					0.40387352192817,
					-0.2524315825578,
					-0.35877677766362,
					0.30519951427998,
					0.298568710975756,
					-0.2136200572005,
					0.36450886709797,
					0.0463649708173861,
					0.00760131372867889,
					-0.24702445119391,
					-0.22249295272233,
					-0.2707716819964,
					-0.1744114556168,
					0.167112037073437,
					0.0388477079451516,
					0.377492377757614,
					-0.30805397758042,
					0.067993116165506,
					-0.38431329121886,
					0.463504094144068,
					-0.4692383534384,
					0.426139246364045,
					-0.40660791142053,
					0.078512026036048,
					-0.21955558359213,
					-0.13404734320798,
					-0.00775782288454,
					0.277542025646858,
					-0.03498955962692,
					0.150497504717928,
					0.308750807607467,
					-0.23948265346017,
					0.318132200148341,
					0.0852085106237553,
					-0.49744188151039,
					0.178097073092641,
					0.201349000244859,
					0.123862514896476,
					0.445960675611704,
					0.0426395090072908,
					0.0368572512711708,
					-0.29106702145497,
					0.29205473965171,
					0.00936141800236191,
					-0.1993417885923,
					-0.16270017268519,
					-0.4370760900215,
					0.0280547696207226,
					0.300176626672664,
					0.251187640480078,
					0.447356638849622,
					-0.24581885166189,
					0.0981807922782707,
					0.458100827072642,
					-0.37499829529562,
					-0.39860460779579,
					-0.37028834691458,
					0.00415575861282813,
					-0.4681217954033,
					-0.23222269400978,
					0.00263681517420173,
					0.221175359294064,
					0.300626200815647,
					-0.00302570242392,
					-0.43354403614075,
					0.396239777550868,
					0.0151729442469938,
					-0.08216169758652,
					0.268821219577198,
					0.326746309729466,
					0.00536193129969675,
					-0.29523337455738,
					-0.44449036051863,
					0.29518429459217,
					-0.21351419436312,
					0.47664229841818,
					0.0287583674744464,
					-0.40199324563719,
					-0.28365896016123,
					0.147194335900778,
					-0.37008998196159,
					0.357313280658111,
					0.22473179838018,
					-0.14234820744679,
					0.0997333524353032,
					-0.45572546991266,
					0.174131349706932,
					-0.18496759477608,
					0.261027196118176,
					0.334091328738972,
					-0.49474734147467,
					-0.18695439708553,
					-0.03362904654162,
					0.38843837281578,
					0.237615350262313,
					0.379354826982579,
					0.468763374390157,
					-0.46433036749824,
					-0.22204966102407,
					0.419054228319773,
					-0.0978555133479,
					0.159032351008218,
					-0.15377693951873,
					-0.44050438194291,
					0.117811973332357,
					-0.46634350286346,
					-0.28943414512412,
					-0.17465259258126,
					-0.45167113771644,
					0.205470754177673,
					0.354431187455187,
					0.443524977179002,
					-0.35377342070085,
					0.295857265344336,
					0.370297044213301,
					-0.27152234355597,
					0.238047204948837,
					-0.149855641755,
					-0.21943745755075,
					0.0399100024320669,
					0.242673626573086,
					-0.37138482283925,
					-0.25867104616039,
					-0.31059204504916,
					0.21219523711193,
					-0.32965470201922,
					0.408809291125543,
					-0.31962388235654,
					0.0962339020186959,
					-0.36785524877291,
					-0.01206385790092,
					0.0609541470428048,
					-0.15254034513408,
					0.365454904967729,
					-0.37766821575674,
					-0.06336461024966,
					0.315422908091144,
					0.298661209832151,
					-0.24812659404084,
					0.0589906753049155,
					0.105514802797092,
					-0.30666939030171,
					-0.15371798024563,
					-0.07813827242865,
					-0.11127805223408,
					0.376544903031724,
					-0.04462645806314,
					-0.05980210339021,
					-0.45430557689576,
					-0.23256934334895,
					-0.282168430081,
					0.335615520632409,
					-0.24132437019339,
					-0.44745984013627,
					0.0104242547650544,
					0.297139496418684,
					-0.04259190834045,
					-0.36198372851619,
					-0.09026941112041,
					-0.25591092677282,
					-0.48289659139103,
					-0.32149696849393,
					-0.1241663460469,
					-0.05439638864661,
					-0.02915965148874,
					0.319969687759206,
					0.02994790683698,
					0.0910948581980197,
					0.390811325638779,
					0.0595935075974968,
					-0.29417530134494,
					0.227717788390207,
					0.176290100100091,
					0.178621509345417,
					-0.18613132320137,
					0.214250172114368,
					0.260035584994002,
					-0.13171809339429,
					-0.45137007898809,
					-0.36622785521442,
					-0.31241549199895,
					0.204927752528767,
					0.351892508069627,
					0.252767715084519,
					-0.42218470718958,
					-0.31920448060122,
					0.37349551138265,
					-0.17925315548414,
					0.421095842288225,
					-0.47384205471909,
					-0.2631702768854,
					-0.012194043299,
					-0.11400754086295,
					0.0263017792306575,
					-0.23584843273444,
					-0.20716953597234,
					-0.45719624401278,
					-0.36225713533351,
					-0.27338093919559,
					0.493196617431295,
					0.0977187261287406,
					0.0363106034763788,
					0.489936981979403,
					-0.4971059353074,
					-0.33005229346018,
					0.496440179721758,
					-0.05669527536815,
					0.499869388867333,
					0.225153716385699,
					0.093567920944026,
					-0.17572850658986,
					0.482016299521612,
					-0.36199593344846,
					-0.24955956388575,
					0.0278695769702288,
					-0.37831786650632,
					0.314913412365336,
					0.242391874566109,
					-0.30962302519035,
					0.0345313234474381,
					-0.46253540774562,
					0.291367930589232,
					0.208300504579434,
					-0.2275768680064,
					-0.20683499797496,
					-0.17105816455145,
					-0.38276373078677,
					0.0267409070862821,
					-0.20958962234729,
					0.0883503427418062,
					-0.47811533670826,
					0.267220158933165,
					-0.41272837237979,
					-0.41393204214807,
					0.190002863857002,
					-0.3831647401002,
					-0.04916614264722,
					-0.19683335587439,
					0.227833102736589,
					0.432821603584258,
					0.298030975446205,
					0.468098960611806,
					-0.1589271771055,
					-0.10634092284653,
					0.00138556260013712,
					0.442858533360508,
					-0.48028501531533,
					0.401706585701966,
					0.26863278668324,
					-0.39201345205612,
					-0.29281488551776,
					-0.27506731940747,
					0.464571203815557,
					-0.12866365889464,
					-0.37562073212487,
					-0.29221484647065,
					-0.09207757336866,
					0.141327194996434,
					-0.30612928703199,
					-0.20956973616025,
					-0.2370865994395,
					0.208705983179388,
					-0.2305042816618,
					0.243139431308335,
					-0.18311531541297,
					-0.12343011935451,
					0.339721340548757,
					0.353331646893779,
					0.017025393313802,
					-0.06713140915194,
					0.00304195972157795,
					0.125186227213424,
					-0.27408379189085,
					0.298148048438764,
					-0.04592513057735,
					0.491357542111765,
					-0.24573851021931,
					-0.31587425053762,
					-0.44508798789714,
					0.325941413452239,
					-0.09901652394446,
					-0.20622321646867,
					-0.37949964129186,
					-0.07593522834445,
					0.44926386448059,
					-0.28379345972691,
					0.158032677707886,
					-0.44597019221829,
					0.342951892173061,
					0.268140532031272,
					0.448335742282143,
					-0.35852061531474,
					0.294988038728107,
					0.312620447665002,
					0.478098135656941,
					-0.40049562310752,
					-0.46194253131335,
					-0.48225350380366,
					0.406787414618769,
					0.322709390256876,
					0.474227812027333,
					0.284140323140608,
					0.064659514926695,
					-0.38439142468733,
					-0.30533953923587,
					0.221985068948039,
					0.493317127153186,
					0.194425326209224,
					-0.03303128043057,
					-0.20087992767529,
					0.412197018999398,
					-0.2669373026527,
					0.304995387279136,
					-0.34280749403249,
					-0.25187037672635,
					0.143055997186377,
					0.24963154962082,
					-0.42964439092126,
					0.481682622375062,
					0.436068575503558,
					0.4375211868952,
					0.00336614007954716,
					-0.21968313455077,
					-0.06003692598021,
					0.0368322875520574,
					0.485625596972681,
					0.360919603539953,
					-0.41402504815111,
					0.178196603222823,
					0.466530527662818,
					-0.11929404768184,
					0.0308937975326822,
					0.350303243134341,
					0.0695424661384806,
					-0.37146067571739,
					0.215189264796414,
					-0.18547132710737,
					0.337895597051337,
					0.355366702456802,
					-0.03209065217408,
					-0.27222976853581,
					0.281119355011787,
					-0.03967868226723,
					-0.4929076971305,
					-0.34417906035776,
					0.376621414481726,
					0.0632134406087588,
					0.353362517908262,
					0.396177460317447,
					0.211150381047259,
					0.086268462567397,
					0.403126034584826,
					-0.0558162647722,
					0.244392827893647,
					0.118832862096677,
					-0.47734407396992,
					0.486393950084959,
					-0.17521272884656,
					0.140976896926018,
					-0.22497018180237,
					-0.42455405110342,
					0.0880105942137621,
					-0.39669265189205,
					0.290786634119143,
					0.0319894310716259,
					-0.3009747551892,
					0.122535339704172,
					0.160318918483812,
					0.287963822540905,
					0.307624442581644,
					0.0964062662831799,
					0.173422202103906,
					0.400068031327248,
					0.104572930380354,
					-0.29002182927546,
					0.110435103755389,
					0.300343941871152,
					0.4503281252028,
					-0.1772827547264,
					0.436311136085394,
					-0.07807074204688,
					0.232773499660037,
					0.441922646833178,
					-0.18852819956714,
					0.191878989752992,
					0.207247584118255,
					0.127860010703763,
					-0.26355410064805,
					-0.36962201241165,
					0.499750009000062,
					-0.09973208343786,
					0.0626020937308992,
					-0.01159487648013,
					-0.44774246224535,
					-0.04632157028333,
					0.0251646204378703,
					0.122477740258389,
					0.0338473476519612,
					-0.04238317606731,
					0.294466104274393,
					0.125573981691066,
					0.0200875386061478,
					0.32854068865593,
					0.383846553769188,
					-0.13909115949308,
					-0.41641058622951,
					0.217819346600729,
					-0.29300047094968,
					-0.0070420745222,
					0.258054410027363,
					0.170149053873511,
					0.0945011363860466,
					0.115944430806551,
					-0.30329667656693,
					0.288460279508825,
					-0.04413199219861,
					0.364421042050355,
					0.36422475602568,
					0.4207432506965,
					0.23124128150601,
					-0.19784217081375,
					-0.02939923147051,
					0.319296396900616,
					0.0631487169659701,
					0.227003036654383,
					-0.15008132746104,
					0.0767128125987647,
					-0.13484228860258,
					-0.1132643548655,
					-0.11762448784525,
					-0.19735684520932,
					-0.09537946542594,
					0.116447552237537,
					-0.47154924204683,
					-0.00578626096797,
					-0.4617658910911,
					0.281669566086726,
					0.0228384518097949,
					-0.11328908304234,
					-0.27374591731821,
					0.188955483910665,
					-0.36034142932134,
					-0.49919055226867,
					0.11147654481036,
					-0.15077071298307,
					-0.36086477188607,
					-0.2519774109911,
					-0.2808911345346,
					0.214758713175008,
					0.306965606791685,
					0.21375329358171,
					-0.33604103997253,
					-0.49380218565694,
					0.275439088833764,
					-0.24641240282502,
					0.444803219361041,
					0.306186467003131,
					-0.25420385175107,
					-0.11679917279638,
					0.414433397568478,
					-0.16985596091836,
					0.383141409456691,
					-0.40629936928062,
					0.279818019897731,
					-0.3955539943479,
					-0.43217929871747,
					0.455522099637997,
					-0.10261049114708,
					-0.10659600598696,
					-0.48580175983312,
					0.340381296211652,
					0.447750986112208,
					-0.15299895732556,
					-0.20303111621133,
					-0.38915632234083,
					-0.29177173371061,
					0.069504577621184,
					-0.01589825382791,
					-0.39189138221515,
					-0.47152652810555,
					0.38066485611658,
					0.0116679541303027,
					0.322142966180368,
					-0.18760314661742,
					-0.03281641178493,
					-0.09564908644127,
					0.216217177320067,
					0.0491128957995017,
					0.230585168634919,
					-0.20067292939964,
					0.267827694071664,
					0.318284946712123,
					0.168214950165368,
					0.484984924458017,
					0.0653408249853418,
					0.385961114737216,
					0.238484910889835,
					-0.30653230459056,
					0.404944467613029,
					0.333882501425567,
					-0.23216241116365,
					-0.49047407554939,
					0.304542806555381,
					0.186411825910602,
					-0.48019661961942,
					-0.39367469681835,
					-0.1250257752079,
					-0.40366954614618,
					0.281193826625879,
					0.490900758489992,
					0.298823813917108,
					-0.39306562021469,
					-0.105482880757,
					-0.08231560127271,
					-0.00503028009904,
					0.136807929279757,
					-0.11994077406444,
					0.163075174768485,
					0.0913441713685973,
					-0.24173976643299,
					-0.08627119690933,
					0.401904351739307,
					-0.10192469039348,
					-0.2739629492275,
					-0.05599933393094,
					-0.4289766794956,
					-0.47967513404193,
					0.0478502620800962,
					0.437620415593545,
					0.428910263767985,
					-0.48502768198241,
					0.0356368223832929,
					0.273721498439658,
					0.473204812297296,
					0.063780248318584,
					0.302207717487931,
					-0.20221472997332,
					-0.08061680000863,
					0.133756736970946,
					-0.0176558855164,
					-0.26369096062329,
					-0.1870622714568,
					-0.07521401958924,
					0.15239153811235,
					-0.36323016327503,
					0.438629345981836,
					0.265193009819247,
					-0.22996381656418,
					-0.42954915593803,
					0.0557232885366538,
					-0.24507140347311,
					0.0171541330330425,
					-0.29932703798935,
					0.303557131038692,
					0.0278221662953539,
					0.306466806829532,
					-0.22476088452103,
					0.35965720154653,
					0.0666715457414934,
					0.241165036033355,
					0.0355750185742211,
					0.229854289237044,
					0.249600998010385,
					0.438702446751099,
					-0.36544072697882,
					-0.41230934008053,
					0.411999012407606,
					-0.30974754187915,
					0.0835432134641555,
					-0.39038465205031,
					-0.45233574881785,
					-0.18666697853204,
					0.00445665915558048,
					0.0842263085616989,
					-0.37607892799692,
					0.128220677740605,
					0.275446316334751,
					-0.4975637470683,
					0.419187965363102,
					0.0540653353820489,
					0.397456853968217,
					0.269315637375677,
					0.148316774868026,
					-0.06211065931923,
					-0.00114022137074,
					0.0679598901369017,
					0.0789863929564469,
					0.394392653922831,
					-0.22481530423844,
					-0.38000597350639,
					-0.24143971729168,
					-0.19051967896459,
					0.0769647261752096,
					-0.41731737685549,
					0.208865194760296,
					0.249318012241807,
					0.0332826633980737,
					0.403064762118563,
					0.153179788018344,
					-0.05495014826358,
					-0.14688844651211,
					-0.4360327048337,
					-0.35270939185148,
					-0.22055568997415,
					0.295208866463446,
					-0.10956555935489,
					0.00129428245648255,
					0.0650343502849898,
					0.358713944207711,
					-0.46522058312196,
					0.25333203743837,
					0.232201927836229,
					-0.3078566404413,
					-0.35822515239155,
					0.232382927685013,
					-0.44859815364221,
					-0.13514925363204,
					0.492918735574007,
					0.25737668862263,
					0.167331796990541,
					-0.41467533661735,
					-0.1271467941186,
					0.102587897352759,
					-0.25028276082646,
					-0.22837738948338,
					-0.22062569271481,
					0.398360153430241,
					-0.38278398630077,
					0.00798447476614883,
					0.455658460266395,
					0.418984011596349,
					-0.31731770070825,
					0.0373590176566532,
					-0.46162670596973,
					-0.39170021609884,
					-0.41674326180945,
					-0.33929738093489,
					0.201577158491411,
					-0.27932051562442,
					0.48627022944322,
					-0.45368211412601,
					-0.46099570045415,
					0.178955168431442,
					-0.31578049276686,
					0.318267784382943,
					0.376083083009811,
					-0.05724930937171,
					0.49952387466702,
					0.343997994245172,
					-0.0346196943125,
					0.343932748541324,
					0.138708435064428,
					-0.35512728238387,
					-0.41816311341416,
					-0.33441701635052,
					-0.26181580333098,
					-0.30058216767373,
					0.433393915880765,
					0.410272554234597,
					0.163055583286018,
					0.245113580568671,
					0.0394166930197222,
					0.308566173484358,
					0.2488197908433,
					0.500027080633904,
					0.130276537652805,
					-0.3472898758558,
					0.00652776664828769,
					0.292775510581148,
					-0.32615659549064,
					-0.34158326439261,
					0.490525879586074,
					0.444530831730447,
					0.416148407999036,
					0.373474221881911,
					-0.16729819058129,
					-0.01205132942231,
					-0.19635292618054,
					-0.12509902740523,
					-0.30666715577738,
					-0.03757688290393,
					-0.23543284160931,
					0.20944181811948,
					0.247035086826598,
					-0.32360923111609,
					-0.20933817976126,
					0.179935615146098,
					0.135423004162966,
					-0.1170899715172,
					0.343784738196541,
					0.421593707943213,
					-0.01393523458878,
					-0.23273298768551,
					-0.06499601470259,
					-0.15901012357531,
					-0.01862995286309,
					0.429375091918482,
					-0.47230177002771,
					0.0360326220648783,
					-0.27958234514477,
					0.310624387802633,
					0.208597727547981,
					-0.49026956653492,
					-0.35524801500102,
					0.0602956228271889,
					-0.27181733138878,
					-0.29778335156803,
					-0.30850092723072,
					-0.02089782207666,
					0.389397868716535,
					-0.0942092173782,
					-0.29324270786453,
					-0.05321935580447,
					0.178916121703453,
					0.187731112429827,
					0.0562868057055967,
					0.349536075539501,
					0.302289741030301,
					0.110001636125541,
					0.449896491017679,
					-0.43708656020297,
					0.147985946151795,
					-0.32683125082733,
					0.272045683972304,
					0.393614974740996,
					-0.33434971738289,
					0.36009514174065,
					0.0530306021998734,
					0.0487497740484499,
					-0.47653177293012,
					0.329056597674541,
					0.161206617396846,
					-0.29243249146444,
					0.172565583183459,
					0.436837553440806,
					-0.45527052492283,
					0.412405620825045,
					0.311353731349856,
					-0.39138668887333,
					0.430099676599089,
					-0.0909294698303,
					-0.40585478824521,
					0.0162094839314562,
					-0.16456828903136,
					0.0587828694506015,
					0.11640741757589,
					-0.27261751218608,
					-0.00945293252433,
					-0.12809028600232,
					0.313787511340104,
					-0.00036201875887,
					-0.44573461528025,
					0.497347493515142,
					0.247690443245293,
					0.338406289930353,
					-0.30010081187264,
					0.299057566609292,
					-0.15830204646209,
					-0.41349271485158,
					-0.23135806174367,
					-0.13306380349137,
					0.397721669490071,
					-0.49083901348001,
					0.00291078323940819,
					0.36924871707054,
					-0.48911949746192,
					0.273665517601947,
					0.47043295759857,
					0.304382246737069,
					0.116600683499325,
					0.0612326328501167,
					0.0151514539078358,
					0.299584317011275,
					-0.45659138091903,
					0.0695357039309789,
					0.120648498563449,
					0.209176065135009,
					-0.09672090680202,
					-0.10111777779853,
					0.00400020414497905,
					-0.28236950053535,
					-0.0640968655744,
					0.131723758567046,
					0.00581676936293907,
					0.124174124244662,
					0.217158835958988,
					-0.19286928104757,
					0.06305208255007,
					0.45888704403659,
					0.0263146573226125,
					-0.00640322111981,
					0.15990969778645,
					0.388915612067874,
					0.0893920530997451,
					0.0815602119243606,
					0.167974535537354,
					-0.26848751916834,
					-0.07400559872323,
					0.242871500771732,
					-0.46468410611007,
					-0.42261283820569,
					-0.2670591771565,
					-0.08165441582937,
					0.010271273087284,
					0.172133674926506,
					-0.26668799104054,
					0.471279064906793,
					0.306974408865605,
					0.0607545869272094,
					0.024556387531012,
					0.357920154164556,
					0.389269241401896,
					0.0719229449395308,
					0.357232215491797,
					0.397292987365764,
					-0.21911365985075,
					0.358188673453902,
					0.0303717130813549,
					-0.22107187588002,
					-0.44718698735539,
					-0.04071956215805,
					0.286391495077647,
					0.322253218826032,
					0.0841513893496474,
					-0.28807867886458,
					-0.45732177114243,
					0.166508744984113,
					-0.47728010617106,
					0.212649811062905,
					0.232526810893456,
					-0.36993021910921,
					-0.27569327863841,
					-0.11892854769264,
					-0.26839295954546,
					-0.17543867892231,
					0.329122779745324,
					-0.08167069189635,
					-0.47414679423354,
					0.485179550383286,
					-0.19312394045251,
					0.218531348099815,
					0.264955136079737,
					0.109046048221114,
					0.0632413866538974,
					-0.2468357721099,
					-0.24780487398433,
					-0.46548287688049,
					0.204348360762983,
					-0.24833002578489,
					0.248072191669886,
					-0.19753272150369,
					0.381489892520055,
					-0.30044689194052,
					-0.46703793442334,
					-0.30903635677413,
					0.209729283486425,
					0.455781518914254,
					-0.1332350073383,
					0.454677282083305,
					0.281875903271144,
					-0.31973270193687,
					0.468703296078138,
					-0.28430502452062,
					0.477048939862201,
					-0.25662180455022,
					-0.19902049130296,
					0.0572301455872571,
					-0.3933642749143,
					-0.42283985188712,
					-0.01549512483539,
					-0.04205841589155,
					-0.07173805883492,
					0.0259798617281496,
					-0.4675301011163,
					0.485307875720532,
					0.463521031181093,
					0.0240547336370545,
					0.0507008397007834,
					0.0726241459751946,
					-0.37806688437523,
					0.32458541287739,
					0.0804642672314148,
					-0.12616958903041,
					0.281609772349111,
					0.098638301185505,
					0.143130461875389,
					-0.05302723112552,
					0.172587864068072,
					-0.22856439338244,
					0.183039873100581,
					-0.42861780883675,
					-0.40308300797187,
					0.0485975321910828,
					0.24264150935919,
					-0.03084849129923,
					0.0851994982170503,
					0.450644091715414,
					0.402788550735215,
					0.0269405828719078,
					-0.26073346245297,
					-0.25830259308302,
					0.426327490374585,
					0.428983922884749,
					-0.08549392770494,
					-0.25934300089429,
					0.225601882565513,
					-0.07881656731732,
					-0.35059860788009,
					0.0260713295358528,
					-0.3639004518631,
					0.145022666818655,
					0.067810391499565,
					-0.37980002643218,
					0.269728920271463,
					-0.45717324724267,
					-0.42195656030382,
					0.145094394623983,
					-0.21280761112768,
					-0.24450243074513,
					-0.03389464998778,
					0.39854133613577,
					0.215968019676,
					0.337076031396817,
					0.0388016966242543,
					0.0733126736062146,
					-0.41176132230758,
					-0.16460006702775,
					0.251133604854142,
					0.452678468906731,
					-0.08746485553461,
					-0.32121820467735,
					-0.32636518172921,
					-0.3255154464246,
					0.292670292038104,
					-0.41091291783386,
					-0.0446948465325,
					-0.49753935615955,
					0.214746110466808,
					0.327540138748019,
					0.0981115566681927,
					-0.140812191681,
					0.368542053468352,
					0.381005448307649,
					-0.43508567711159,
					-0.08767924545348,
					0.394894583586923,
					0.404510973089286,
					0.351858483736263,
					0.177764957792395,
					-0.29778794337608,
					0.132658758784219,
					-0.06890777464811,
					-0.26862763734407,
					-0.21220008674372,
					0.140895167223787,
					-0.14766894486558,
					-0.22224028733264,
					0.0388110118755641,
					0.0317396974422782,
					-0.48437984195166,
					0.140382467695268,
					0.217714346835809,
					0.474089071934697,
					-0.1632446934675,
					-0.21542498085169,
					0.0939074970895258,
					0.0331442815504134,
					0.383944533358936,
					0.34519627149699,
					0.325964497168398,
					-0.07578765777059,
					-0.11462538887421,
					-0.32080913424386,
					0.227123770172259,
					0.297503896862509,
					0.430295998459311,
					0.497658136526069,
					0.0528554077543648,
					0.164960215832129,
					-0.30197215334359,
					-0.12114386648634,
					-0.21838464680289,
					0.100712140171732,
					0.136896756842623,
					-0.34414357624738,
					0.103745891540042,
					-0.31057335953232,
					-0.16163729211886,
					0.156339941978695,
					0.0484261745212715,
					0.28089796301816,
					0.0967996901912033,
					0.300556387785687,
					0.150627019657252,
					-0.47634949929027,
					-0.31927128726821,
					-0.25545171091071,
					-0.01130390157235,
					-0.16314417091764,
					0.353997314654575,
					0.130282463136182,
					0.256280953490905,
					-0.17754265711741,
					-0.06863098390478,
					-0.04557264546919,
					0.0650343696590193,
					-0.48008632530051,
					-0.30019018949014,
					-0.25718025067588,
					-0.11909735891624,
					-0.20868837929881,
					-0.00771031605239,
					0.180464752993955,
					-0.47477690181647,
					-0.35121393944877,
					0.340576912357808,
					0.064663371225408,
					0.372185807029197,
					0.4827790870119,
					0.368713799171772,
					-0.02659713599532,
					0.0544485115533883,
					-0.15499218310735,
					0.414664592132611,
					-0.32080072411634,
					0.199637148466974,
					0.178002847690897,
					-0.40371763899497,
					-0.30401117487341,
					-0.48295150760148,
					0.295785241801177,
					0.425301338074049,
					0.342879255924258,
					0.390225853519353,
					0.103855432257969,
					-0.06132560384083,
					0.43085713242726,
					-0.43555694935128,
					0.324579666130231,
					0.17804182958842,
					-0.01362769498756,
					-0.23251462902135,
					-0.36021638838556,
					0.187672595019959,
					-0.40873548866251,
					0.0610907507582046,
					-0.28803510021527,
					0.325429120491747,
					0.449641773857457,
					-0.2907346317822,
					0.275915718444307,
					0.0441327597344431,
					0.41660029675006,
					0.241941340697323,
					-0.16988826592858,
					-0.29173262538211,
					-0.1706387842327,
					-0.10244301789964,
					0.157586995191621,
					0.375467144534869,
					-0.29957350989515,
					0.212419853361542,
					0.0095441600957753,
					0.157432537302292,
					-0.107094266399,
					0.266489065199595,
					-0.17152716379654,
					-0.2458989065854,
					0.410879426131335,
					0.112794963064453,
					0.358880083246812,
					0.452500499668122,
					0.0355224677078022,
					-0.27156775462792,
					0.169856981652423,
					0.434596219901561,
					-0.00089734253271,
					0.323003113493921,
					0.136706927127608,
					-0.04395946322943,
					0.0332541463648732,
					-0.03492151789052,
					-0.46470776242501,
					0.0651151881765351,
					-0.03739810323264,
					-0.09442457738439,
					-0.0561366734647,
					-0.1383942611927,
					0.323657952113992,
					-0.14025139744811,
					0.0759457943578276,
					-0.32824763932603,
					-0.23390375575456,
					-0.21698841033026,
					-0.04183347504355,
					-0.2574720761838,
					0.329343457331695,
					-0.05235278191736,
					0.0575689986614081,
					-0.02392344053538,
					-0.36851346827587,
					-0.04675198414703,
					-0.18019114882876,
					-0.13976101137932,
					0.0442182650351897,
					0.474950150057206,
					-0.23471352138343,
					-0.19461711951315,
					0.49225105540639,
					0.395334677660049,
					-0.21871237637779,
					0.184199174090023,
					-0.36164598324609,
					-0.34834262356945,
					0.431429011652127,
					-0.27310272584356,
					-0.26899129753025,
					-0.45471894037541,
					0.0704342212428975,
					-0.04752140475661,
					0.415537347268291,
					-0.36796698209202,
					0.432975990089294,
					-0.36431870395974,
					0.245156754204701,
					-0.07067888270424,
					-0.3945595418178,
					0.492282899404496,
					0.0532606502870796,
					-0.01954731438345,
					-0.45533502138888,
					-0.37896017097525,
					-0.21261409129613,
					0.139303191888906,
					-0.44352373633808,
					0.088032677469267,
					-0.33999282436818,
					0.106375789550602,
					-0.12064701788321,
					0.241016699810773,
					0.154247704045358,
					-0.22741408231696,
					-0.15955711405306,
					-0.06589278971229,
					0.251609306016796,
					-0.09851739297717,
					0.446612095040581,
					0.390629994588602,
					-0.35921758642044,
					0.348031402027641,
					-0.4866535587849,
					-0.27119603901107,
					-0.22432811455979,
					0.158687366191883,
					0.389549018499275,
					-0.18379867185832,
					-0.02210879975918,
					0.425567874247694,
					0.400374938987049,
					-0.4165562437676,
					-0.30045163842563,
					-0.48579275356122,
					0.497751735578909,
					0.209439868869048,
					0.179861042146736,
					0.402047729096787,
					0.286257294095415,
					0.405079364210772,
					0.0756041485178021,
					0.0415138517582805,
					0.149819849894424,
					0.0877326216386844,
					-0.17542581113239,
					0.37418523053863,
					0.425038862175032,
					-0.18273772355736,
					0.0868903012695162,
					-0.3918498816191,
					-0.32282313749331,
					0.164783264086974,
					-0.18183442155154,
					0.198235493494707,
					0.208507925114726,
					0.0348033531678827,
					-0.08700953905662,
					0.197315102303766,
					-0.20131173796986,
					0.168463133811982,
					-0.0056242694439,
					-0.38828267573312,
					-0.081554294855,
					0.464537473243603,
					0.137878237110061,
					0.471435272063583,
					-0.42530906359649,
					0.019650853774094,
					-0.32202655644686,
					-0.49057200013823,
					-0.09439781857669,
					0.0298288952695427,
					0.449582134433635,
					0.0549559504816236,
					0.00982322080601694,
					0.095323637419262,
					0.285750480287783,
					-0.18396863160988,
					0.453940653116714,
					0.153298401856766,
					-0.35929467198204,
					0.0114289893882282,
					0.112361981536493,
					-0.18610686970056,
					0.18326203465656,
					0.479084567680649,
					0.427370743934134,
					0.448906473476142,
					0.441091067568882,
					-0.30204848251664,
					-0.46721177642294,
					0.373476284201108,
					0.427939968353819,
					-0.22041823455797,
					0.390618450860053,
					0.236359387603807,
					-0.17310269351327,
					-0.27345701973116,
					0.275041820287726,
					-0.38387329694014,
					0.0896762021459554,
					0.0188416318498148,
					-0.47265326372939,
					-0.39553605629868,
					0.227613096225485,
					-0.42826242215917,
					0.227537429792861,
					0.169676872630597,
					-0.38134923370698,
					0.277598263827959,
					0.0938481597950052,
					0.177644858999917,
					0.229189345308277,
					0.0409997037931302,
					-0.25906160392384,
					-0.32484756718447,
					0.304150353188838,
					0.414274321704721,
					-0.4243772578486,
					-0.265232234555,
					-0.23979108593776,
					0.06960858782096,
					0.124894143259986,
					0.0872636835367534,
					0.389775315940149,
					-0.25898800158805,
					0.394720965723469,
					0.273670852283866,
					0.461200009156637,
					0.0125594129711874,
					-0.0519659567559,
					0.0942127594402149,
					-0.12514989110471,
					-0.3371814285382,
					-0.01628204458525,
					0.283026551902761,
					-0.32375784905718,
					0.452468085899965,
					-0.03085459064577,
					0.22645963825509,
					-0.38130486172452,
					0.455888773351999,
					-0.42581021936977,
					-0.08179938915101,
					-0.17411076471944,
					0.243443922340819,
					0.248514405104351,
					-0.42023197081556,
					0.453709946451047,
					0.300965837539666,
					-0.02639125428777,
					-0.35269861737342,
					-0.36748655631662,
					0.241566691661229,
					0.0415747724641503,
					0.323591152864978,
					0.134096330139328,
					-0.08222537576753,
					-0.05233911521786,
					0.250172608531555,
					0.239611587942674,
					0.23385899500149,
					0.14236369669034,
					-0.49767988580493,
					0.0138339110610463,
					0.131380607247712,
					0.0259740666453198,
					0.244655349200753,
					0.140865075549629,
					0.0975490153630897,
					-0.4212562624194,
					-0.29899408892435,
					-0.22792237292815,
					-0.08861105975697,
					-0.4686986358009,
					-0.19166854333354,
					0.232285532761399,
					0.488375941226246,
					0.40435106263606,
					0.0203701169194569,
					0.178056193557481,
					-0.16643686690258,
					-0.14981053537294,
					-0.11954557418225,
					0.135442971428495,
					-0.28551319219535,
					0.0164858041548197,
					-0.06460745377452,
					-0.16759369331586,
					-0.44028884571584,
					0.0202622475868347,
					-0.33710852849746,
					0.143885632106409,
					-0.14111409466632,
					0.0868565688150046,
					0.32778633372335,
					0.255044179779751,
					0.0842541053317888,
					-0.37632267143515,
					-0.38149441487731,
					0.402124660579993,
					-0.46070679359761,
					0.0909623327490075,
					0.234615096428667,
					0.148709920817341,
					-0.48870896183377,
					-0.39465543619023,
					-0.17578636386197,
					-0.28854106107802,
					-0.31203561057493,
					0.281942022066286,
					-0.23352207809823,
					0.0133067117130456,
					-0.19214834830197,
					-0.45277888805229,
					0.331919361080903,
					-0.18580558457519,
					-0.49439884757554,
					0.130358579495781,
					0.317547420529931,
					0.463022839692613,
					-0.08766107686946,
					-0.11150787534846,
					0.469270677115123,
					-0.29657513171751,
					0.234404407622489,
					-0.04314417962721,
					0.0141024829821794,
					-0.08894361276378,
					-0.18087926109464,
					0.00643647926991153,
					0.113147276523302,
					0.28582374073075,
					-0.1540470334055,
					0.137570532781853,
					-0.49476413408411,
					0.0481771995244976,
					0.0454306331082371,
					-0.02515868581823,
					-0.44165751283998,
					-0.40005983534901,
					-0.30307137694041,
					-0.38540237292493,
					0.125989726566345,
					0.20576673011513,
					0.242211806783541,
					-0.16137040473168,
					0.206905495517547,
					0.317621898464907,
					-0.25928420610545,
					-0.17899729867352,
					0.440782011781426,
					-0.28798350092585,
					0.142872401775956,
					-0.43121463492056,
					-0.32290873039021,
					0.368738679942372,
					-0.03689529247738,
					-0.49876905240941,
					-0.46249133444756,
					0.018898858579492,
					-0.41597039898792,
					-0.27089946414522,
					0.146659169526376,
					0.263755489553506,
					-0.04334563378594,
					0.15366835772942,
					-0.00258210035897,
					-0.00508216952089,
					0.0158446928156841,
					-0.20119304793106,
					-0.45192427418875,
					0.390288215532656,
					0.0287470248689072,
					0.318588178385556,
					-0.44989388260375,
					-0.48154176731325,
					-0.42766925972127,
					-0.15023059214892,
					-0.3755930623229,
					0.084590104994558,
					-0.38547966817387,
					-0.05625856612835,
					-0.06034811593904,
					0.0151591691917452,
					-0.13462886202199,
					0.0344326055639229,
					-0.1082098355889,
					0.0781968653495105,
					0.428243657286928,
					-0.07839112732768,
					-0.30093284904596,
					-0.01753617498093,
					0.348448269384022,
					0.259012701699306,
					-0.37142578088785,
					-0.40762369502762,
					0.0107649117874324,
					-0.00227485875691,
					-0.16397974128635,
					0.296120073358656,
					-0.07008059795288,
					0.154238674149665,
					-0.48037304472101,
					0.269093036527136,
					0.098846958846992,
					0.232974744121391,
					0.234162083841908,
					-0.287858914251,
					-0.21457213216022,
					-0.26876492139688,
					-0.38093464745351,
					-0.41462669424843,
					-0.35089952635073,
					-0.21137016938343,
					-0.33549213693124,
					0.228462144930443,
					-0.28531950437793,
					0.0428662018227366,
					0.0118662951621008,
					0.343232678640105,
					0.176957456930006,
					0.042416040853386,
					-0.45224958878233,
					-0.18744050524836,
					0.40409324775915,
					-0.38165925736105,
					-0.05791878857081,
					-0.16313500136793,
					0.295184874835465,
					0.168225452227916,
					-0.266116781854,
					0.495172115617356,
					-0.38649067859406,
					-0.02672827371967,
					-0.20925964242255,
					-0.02848465616046,
					0.474642811867705,
					0.118454591058298,
					0.379400467128669,
					0.255021403690781,
					-0.0187363889356,
					0.399529510395671,
					0.392055489547326,
					-0.02714989149637,
					0.482486928280538,
					0.142214431481125,
					-0.44843852296098,
					-0.2983000249301,
					-0.38936322913608,
					0.368886224110102,
					-0.14356113991675,
					-0.03883812805332,
					-0.25848156954891,
					-0.41442762252442,
					-0.24328960055904,
					0.100124128852441,
					0.460618015164444,
					-0.41279503680349,
					-0.04435284671804,
					0.462312760500941,
					-0.32597288140796,
					-0.41130178500855,
					0.256523123984221,
					0.0830639895335337,
					-0.36609024322385,
					0.250649915752757,
					-0.47624804325881,
					0.0179559668180518,
					0.161080479794502,
					0.290470472982318,
					0.437189002375884,
					0.326110839917281,
					-0.10419257819511,
					-0.11979051661334,
					-0.32601553642456,
					0.218476580497959,
					0.0565512636478231,
					-0.38447196726473,
					-0.42835371102272,
					0.497272545221754,
					0.319192279902139,
					-0.39787060281586,
					-0.19558032735663,
					0.356567309187139,
					-0.13765440201915,
					0.264678559455637,
					-0.43556458566039,
					0.208197882161352,
					0.207004201404927,
					-0.46795367097698,
					-0.1627408810099,
					0.474417353050356,
					0.187500613332457,
					0.278156256919782,
					0.161125294779602,
					-0.02538245573631,
					0.433577938437962,
					-0.48001647964722,
					-0.48850443443211,
					-0.03569478956762,
					0.0318738666545156,
					-0.15897026193834,
					-0.3654505377732,
					-0.24865514747518,
					-0.21956080374541,
					0.388304699237812,
					0.459903809220824,
					0.0354931149995559,
					-0.09438432445352,
					-0.19430093978671,
					-0.07544428622961,
					0.340846297478895,
					-0.07110718208331,
					-0.0697627929442,
					-0.00647060502717,
					-0.4352816702717,
					-0.31771160827591,
					0.451540334371758,
					0.0373123850602402,
					0.115516623573696,
					0.308836389113216,
					0.401674709017949,
					-0.03055049408808,
					0.394060560391957,
					-0.22445665240503,
					0.491854323919017,
					-0.44410208778825,
					0.0925858365845032,
					-0.4563258859571,
					0.223634542146345,
					0.404291797607194,
					-0.06313909643992,
					0.431855377655979,
					0.164965089159008,
					-0.4907662096382,
					-0.14949594181052,
					-0.07276668673565,
					0.442328520288063,
					-0.0961699881421,
					0.353707327335865,
					0.268017443687307,
					0.412077680482393,
					-0.3234211549283,
					-0.04645354945191,
					-0.29901074345904,
					-0.47457419179361,
					-0.3016230621183,
					-0.24689851492932,
					-0.30822683784667,
					-0.0537997889209,
					0.287485460075285,
					-0.12725230802352,
					0.038930708728751,
					-0.18841235115355,
					-0.39469660229223,
					-0.14579554381411,
					0.489843891769983,
					-0.01379572388398,
					0.425352714031027,
					-0.36002814900469,
					-0.10133730750567,
					-0.04796348380606,
					0.158653656131944,
					-0.33821114677027,
					-0.27253896984208,
					-0.18508308401677,
					-0.26700343990163,
					0.443408030577347,
					-0.02960394709567,
					-0.4846096035021,
					0.40713339552455,
					-0.29685168193755,
					0.190007849987749,
					0.0527005890978192,
					-0.3012394890188,
					-0.4583249849627,
					0.164393338425143,
					-0.09406717967038,
					0.205902196791394,
					-0.36173381173188,
					0.1107206259042,
					0.023296277059443,
					0.318275762271183,
					0.311214860148523,
					-0.04828825330027,
					0.242813204189778,
					-0.00497102637069,
					0.445034356538206,
					-0.34269220007819,
					0.442809289944685,
					-0.23217379751507,
					-0.04985923088235,
					-0.24533840457731,
					0.0173627082596225,
					0.273178767058059,
					0.139313598456567,
					-0.03778407567089,
					-0.00466170535794,
					-0.37310956688259,
					0.301059928466842,
					-0.39463103456505,
					0.00420286067142317,
					0.223975637832519,
					0.264184002934846,
					0.434744836428282,
					0.401973989775258,
					-0.09684907075309,
					-0.06588081602084,
					-0.0819326292718,
					0.344573324734718,
					-0.2673321599756,
					0.187535432626626,
					-0.47825449898536,
					-0.30532393275377,
					0.273102510810377,
					-0.11881860580843,
					0.119035374898797,
					-0.1184759778527,
					0.0129467951188339,
					0.253998549120256,
					-0.39871329249173,
					0.27155698733409,
					0.486792175437772,
					0.320507829995556,
					0.00470934515328258,
					-0.19590001173265,
					0.0929582526998485,
					0.143800453838832,
					0.0484845551170688,
					-0.25260276396007,
					-0.07803367199204,
					-0.25895098101629,
					-0.40912596903334,
					-0.05781821750365,
					-0.1828538897341,
					0.209474507961822,
					0.0771501840979967,
					-0.39997222698579,
					0.26728308159221,
					-0.1393947634481,
					0.0927249295286101,
					-0.33443447401277,
					0.164680111760531,
					-0.26083675611599,
					0.341211644231194,
					-0.00163870430717,
					0.310797386104391,
					0.162857197638276,
					0.348828955441495,
					-0.16094028849366,
					-0.47835671341029,
					0.463378075006606,
					0.460573731803651,
					-0.33137756016933,
					-0.43704946836433,
					0.285526904412364,
					-0.19927793769647,
					0.156281921197582,
					-0.21316478969773,
					-0.44030924012178,
					-0.40638381953632,
					0.22760297759065,
					-0.40933024657626,
					-0.37361029644365,
					0.0756102364286611,
					-0.28464281441715,
					-0.13249430986795,
					-0.34798635959229,
					0.0635214279908458,
					-0.07799695349204,
					-0.40983401097081,
					-0.33118873949038,
					0.376700667747851,
					-0.47290611573354,
					0.245413313177877,
					0.313404933161138,
					-0.4093370709089,
					0.364026380969712,
					0.166374473683383,
					-0.29763609978235,
					0.176435524226235,
					-0.12698594395545,
					0.0249834950837731,
					0.0504813188212992,
					0.463804887343464,
					-0.07842692079665,
					0.491943759843904,
					0.199592349479097,
					0.427129286431441,
					-0.08621040404557,
					0.30120839831552,
					0.271061855936513,
					0.211207391133475,
					0.316032605909494,
					-0.24493627246136,
					-0.22483281598823,
					0.387956503613091,
					-0.39049174850209,
					-0.3634795663845,
					-0.06116402654187,
					-0.25305245876653,
					0.0767126509617954,
					-0.30799619883884,
					0.379383787447045,
					-0.43714633256275,
					0.0973924343336805,
					-0.25323805559228,
					-0.21426180701258,
					0.397324725913672,
					0.428736707768347,
					-0.32581273385733,
					-0.18482496764958,
					-0.05559015379691,
					0.47128316933459,
					-0.24837459010588,
					-0.16469832805797,
					-0.15080410523454,
					0.0831037850885898,
					-0.24101796606354,
					-0.35072969783864,
					-0.24587613134201,
					-0.44268626674616,
					0.352656301630956,
					-0.45889421440958,
					-0.04864150560739,
					0.432929817610437,
					-0.1048706609989,
					-0.1163998754542,
					0.0964665208651242,
					-0.1214820019404,
					0.283793613387243,
					0.00420318738929826,
					-0.45878089725223,
					-0.05957611904782,
					0.0786736725367557,
					0.0914816415959968,
					-0.06769886377483,
					-0.45248146070471,
					0.0439658737788452,
					-0.01598939812609,
					0.414729896922118,
					-0.03989512248067,
					-0.25971363570063,
					0.405566878082791,
					-0.49478427589493,
					0.0132839765979638,
					0.442364626718193,
					0.475875668263276,
					0.151467992390757,
					-0.12564373679524,
					0.353492617806597,
					-0.13365228883982,
					-0.4724412241186,
					-0.24008044198236,
					0.0962060492653897,
					-0.01074764828083,
					0.475824181576664,
					-0.376318684434,
					0.0350064544414141,
					0.228961862017578,
					0.498169742312664,
					-0.20165368135264,
					0.247220237883888,
					-0.1535746787562,
					-0.00768532292152,
					0.349378028216971,
					0.458904677555446,
					-0.40705288707313,
					-0.24399530394057,
					0.0321328342204578,
					0.261451308445955,
					-0.30122377973756,
					0.330021775806114,
					-0.03561304341335,
					0.406810451463294,
					0.142270572959256,
					-0.12636063137576,
					0.240909996224405,
					0.394046765182034,
					0.224929649310639,
					-0.27003259972329,
					0.394369925646329,
					-0.36801047238647,
					-0.14695512466558,
					0.0238908663983491,
					0.214116576772375,
					-0.48208888286384,
					0.140353564706753,
					-0.37623975463313,
					-0.28699333821845,
					-0.25348284325148,
					-0.05620690106649,
					-0.15174447300267,
					-0.00636508332744,
					-0.0663705433145,
					0.410601978728277,
					-0.08865133675493,
					0.284269551433999,
					-0.05526124796224,
					0.496924748219354,
					-0.42516462492553,
					0.222676761220194,
					0.127523497479627,
					0.461065520342712,
					0.0966090254367298,
					-0.07298131971785,
					0.266140962635528,
					0.02333100219191,
					0.220059729498067,
					-0.09693665987652,
					-0.41164376005199,
					-0.37815045059626,
					-0.09422093398625,
					-0.28816954308208,
					-0.4420472937789,
					-0.46973800223261,
					-0.27784537545657,
					-0.31237064155902,
					-0.05966136012036,
					0.490213158614429,
					-0.29343071144117,
					-0.43482077432019,
					0.141676025912779,
					-0.01157335936458,
					-0.1650123112793,
					0.282978735089614,
					0.297867093426854,
					0.276234806053872,
					-0.40135475785732,
					0.489066509672787,
					-0.18844257838319,
					-0.06269542735742,
					0.0639981457619485,
					0.0799170513161169,
					-0.45802605109066,
					0.0404368429422665,
					0.23548046608839,
					-0.4755514941549,
					-0.42601956790982,
					0.235714987976623,
					0.226897485719761,
					0.290376097946887,
					0.475714829016604,
					0.0823431914760737,
					-0.33767617640106,
					-0.36495266876927,
					-0.37725920397081,
					0.00532392874165966,
					0.374762531855607,
					0.398514803974343,
					0.483402876254744,
					0.416988493212651,
					0.317755761514111,
					-0.4320963168086,
					0.31490525030421,
					-0.36271764173801,
					-0.29963184797755,
					-0.38423968482233,
					0.0671620602677494,
					-0.18137187410187,
					-0.41565767053762,
					0.434418691095609,
					-0.2488235567204,
					0.0520493477109369,
					0.264856043058883,
					0.214330369353495,
					0.388865117703393,
					-0.2438824347345,
					0.168715120340316,
					-0.24458974957938,
					0.3917552456822,
					-0.06612798426162,
					-0.13403874661864,
					-0.18096300572241,
					0.00998713023605746,
					0.0690171977095474,
					0.335470431876097,
					-0.28607213884074,
					0.0123442927458274,
					0.072368278577234,
					0.411594204503776,
					-0.18330909236689,
					0.179046595193952,
					-0.20713138524668,
					-0.1783705036425,
					-0.4430207988483,
					-0.09364321246547,
					0.00586246711284644,
					0.178695773876809,
					-0.03911565585353,
					0.407537923494879,
					-0.4026339980379,
					-0.38181248410018,
					-0.07822362758436,
					0.166821416591795,
					0.382858125039512,
					-0.2937502009785,
					0.264043687919529,
					0.0761737412639224,
					0.0979438486725596,
					-0.17307579880684,
					0.342446661268034,
					0.190898010654078,
					0.394345221569281,
					-0.41704840981527,
					0.0384562664562955,
					-0.15994535524978,
					0.376625518669436,
					0.143450154697709,
					-0.24648619826097,
					-0.28498180198405,
					-0.422777077017,
					-0.49847143138116,
					-0.39949318932089,
					0.420791782466293,
					0.47088865933683,
					0.40832219652729,
					0.499644420545605,
					0.105986252726019,
					-0.32218182729703,
					-0.10619077557772,
					-0.11710761270313,
					0.377641268678526,
					-0.25297222028827,
					-0.24234882052476,
					0.254490758492823,
					0.0105174524076985,
					0.460128898005098,
					-0.22820590081883,
					-0.30049857064796,
					0.371815006891391,
					0.181673918664383,
					-0.46148416800304,
					0.215675047350878,
					0.438013379245014,
					0.26150048505377,
					-0.07753838419796,
					0.485011605212495,
					-0.32935655318025,
					0.142810717988894,
					-0.2822298261288,
					-0.15242149602086,
					0.255372760759483,
					0.240299041301756,
					0.384727075478334,
					-0.30537203413915,
					0.0437117764573947,
					0.451741038699195,
					0.331976237702739,
					-0.20340365519452,
					-0.18597638265803,
					-0.40252866987292,
					0.432661337176341,
					0.421393733427739,
					0.284561760128803,
					0.395549731234798,
					-0.05327743923357,
					-0.49066913638353,
					0.0820680056190539,
					-0.34545318254953,
					-0.16433280455289,
					0.219301400868022,
					0.179546648128765,
					0.131272510292219,
					0.385734521522407,
					-0.01550676750089,
					0.283077468335356,
					0.165492263928239,
					0.195705449681975,
					-0.36867945662155,
					0.213310616427099,
					-0.29096287034491,
					-0.05152044479345,
					-0.49093609214191,
					0.171674591960782,
					0.113471558802923,
					0.369862680759267,
					-0.10327110706036,
					-0.12842424809912,
					0.264633950494203,
					0.341559772065261,
					-0.38744236437252,
					-0.14705241775021,
					-0.34906039452783,
					0.380569035286125,
					-0.38132432872965,
					-0.45667195008172,
					0.231615119637665,
					0.456820610921135,
					0.427258469569641,
					0.330476092522357,
					-0.05268800748436,
					-0.17768958834288,
					0.24124638745984,
					-0.06728201150399,
					0.347215360141377,
					-0.0591375112196,
					0.347015307192986,
					0.00793354366020194,
					-0.24377209915833,
					-0.39475132148692,
					0.0914402889474086,
					-0.21236705786044,
					0.219042207105659,
					0.0100282651149336,
					-0.35323173002062,
					-0.37314814040678,
					0.361296424725051,
					0.49595100376105,
					-0.2809163409793,
					0.265658053781776,
					0.232514497883949,
					0.451882978554051,
					0.408988606399789,
					-0.31496223448065,
					0.163437938491565,
					-0.32332459254801,
					-0.22099344446272,
					0.374833380145492,
					0.196976192706089,
					0.125975510038482,
					-0.39409286460806,
					0.107679323980042,
					0.350405252564151,
					0.0487074611305832,
					0.233600541275413,
					0.179504261039469,
					0.427265194241483,
					0.219258866839944,
					-0.04389334903956,
					-0.41559739562694,
					-0.34583709148534,
					0.432365287626739,
					-0.05420942619882,
					-0.50459560858953,
					-0.2490406370555,
					0.448929587481505,
					0.157763805296741,
					-0.07214695025466,
					-0.04999791361878,
					0.317983914638434,
					-0.10913515734378,
					0.433789971533339,
					-0.45216393978163,
					-0.05127988251955,
					0.288696332759667,
					-0.25980558442888,
					-0.14538022960344,
					-0.34286239178918,
					0.383832703677921,
					0.0288245891809366,
					-0.03813102696981,
					-0.44707070465434,
					-0.38441674310183,
					-0.01603211749599,
					-0.07831202253921,
					-0.29765470713588,
					-0.31914992644711,
					0.243849179643159,
					-0.18443614829871,
					-0.45013633927922,
					-0.3420035079862,
					-0.01380556281538,
					0.0452632425902522,
					0.24100389331267,
					0.369045587872702,
					0.312776427633829,
					-0.4368801152106,
					0.487638934255491,
					0.306611575945153,
					-0.42387455034133,
					0.183246055933179,
					-0.365381168817,
					-0.09007314528996,
					-0.46414142532021,
					0.43567099287704,
					0.233369760786992,
					0.133268186367345,
					0.325352856422578,
					-0.35494505193782,
					0.188579830308501,
					0.447141118656767,
					-0.24786780285108,
					-0.44301182620605,
					0.308502025151079,
					-0.20739703404211,
					0.479984458336355,
					-0.12804569644913,
					-0.35816137559715,
					-0.33737327242211,
					-0.20364183726707,
					-0.29524813804945
				]
			}
		]
	},
	"embedding_output": {
		"input": 23,
		"is_biased": false,
		"layers": [
			{
				"a": 0,
				"b": [
					0,
					0,
					0,
					0,
					0,
					0,
					0,
					0,
					0,
					0,
					0,
					0,
					0,
					0,
					0,
					0,
					0,
					0,
					0,
					0,
					0,
					0,
					0,
					0,
					0,
					0,
					0,
					0,
					0,
					0,
					0,
					0,
					0,
					0,
					0,
					0,
					0,
					0,
					0,
					0,
					0,
					0,
					0,
					0,
					0,
					0,
					0,
					0,
					0,
					0,
					0,
					0,
					0,
					0,
					0,
					0,
					0,
					0,
					0,
					0,
					0,
					0,
					0,
					0,
					0,
					0,
					0,
					0,
					0,
					0,
					0,
					0,
					0,
					0,
					0,
					0,
					0,
					0,
					0,
					0,
					0,
					0,
					0,
					0,
					0,
					0,
					0,
					0,
					0,
					0,
					0,
					0,
					0,
					0,
					0,
					0,
					0,
					0,
					0,
					0
				],
				"i": 23,
				"o": 100,
				"w": [
					-0.36477410867732,
					0.14218233601251,
					-0.44750681679855,
					0.397254381295883,
					0.46382831114719,
					-0.28308849337087,
					-0.48448944053414,
					-0.46255465228442,
					-0.25521373680151,
					0.306406001552742,
					-0.37282719533586,
					-0.3058491983089,
					0.363952171897089,
					0.134001135436635,
					0.238780396250985,
					0.219780574760207,
					-0.48926859365666,
					0.36433782612248,
					0.243624648813717,
					0.177515574540811,
					-0.20872822691155,
					0.4849839516678,
					0.413124515158443,
					0.1761312793774,
					-0.29315949975088,
					-0.2788243954606,
					0.0998140015734236,
					0.0694918308206232,
					-0.15052194175547,
					-0.47796712795882,
					-0.34257036429282,
					-0.37821397647052,
					-0.00327290682154,
					-0.36750118796866,
					-0.30075681233306,
					0.0569388913480548,
					-0.33224458326844,
					-0.05707627686594,
					-0.48130338064506,
					-0.40961664821065,
					0.22197952464454,
					0.46889466411336,
					0.418221433621497,
					-0.24153181206655,
					-0.41581598290655,
					0.468860204959145,
					-0.30795070052038,
					-0.21253252512611,
					0.0170663422587842,
					-0.39445623339269,
					0.181109552723464,
					-0.27814867749678,
					-0.01757907541598,
					-0.24721933783833,
					-0.40120818738659,
					0.328513659872117,
					-0.2389994051319,
					-0.12197922656591,
					0.199247163994801,
					-0.40393419021912,
					0.49229137869732,
					0.413783847811599,
					0.0154217156185511,
					0.140836760461215,
					0.379165632088254,
					0.0492524093516938,
					-0.20909152002841,
					0.211005364864654,
					0.164990628499482,
					0.208747235528738,
					0.473345424199082,
					-0.07452391097111,
					0.421022348673041,
					-0.34690471133049,
					-0.047577921022,
					-0.04059324135838,
					-0.07927207447887,
					0.34213406833828,
					0.219760406220224,
					-0.4309765362253,
					-0.06691624428469,
					0.199026496925939,
					0.219270501196843,
					-0.01333461792824,
					-0.47600348892528,
					0.0317853874070026,
					0.307453706019811,
					0.395743319627485,
					-0.11328223358785,
					-0.13061690162273,
					0.218492942869919,
