{
	"decoder": {
		"cell_count": 10,
		"cells": [
			{
				"biases": [
					-0.25993426771821,
					0.591925587027175,
					-0.35663687171771,
					-0.72766325203172
				],
				"weights": [
					[
						0.172478437657102,
						0.24058130284355
					],
					[
						0.298145987819577,
						-0.62658257264005
					],
					[
						0.614878119841811,
						0.700033318738013
					],
					[
						-0.30611345296406,
						-0.26393343502487
					]
				]
			},
			{
				"biases": [
					0.818614547362786,
					-0.83017898386198,
					-0.06535296502249,
					-0.27397983582132
				],
				"weights": [
					[
						-0.89836640733051,
						-0.46486317326533
					],
					[
						-0.54399250531386,
						-0.02203231182239
					],
					[
						0.250565276817243,
						-0.78981892040881
					],
					[
						0.658402023321889,
						-0.87296506149662
					]
				]
			},
			{
				"biases": [
					0.756916427541015,
					-0.86000913409507,
					0.867406804127701,
					-0.11079317260527
				],
				"weights": [
					[
						-0.88489503546437,
						0.376301527555433
					],
					[
						-0.36207940422121,
						-0.76474424117686
					],
					[
						-0.33224047866907,
						0.253807493743778
					],
					[
						0.214458983212549,
						0.231450744456904
					]
				]
			},
			{
				"biases": [
					0.0291232746311141,
					0.330106433620813,
					0.370552322123364,
					0.444522377561504
				],
				"weights": [
					[
						-0.12377845970604,
						0.876718712883978
					],
					[
						-0.73950332888716,
						-0.10094191807048
					],
					[
						-0.28215729115475,
						-0.07478345266356
					],
					[
						0.572752408797126,
						-0.70154192731368
					]
				]
			},
			{
				"biases": [
					-0.67358138544587,
					0.639594646304193,
					0.282500035286602,
					-0.02426388865411
				],
				"weights": [
					[
						-0.82895601302283,
						-0.95550032570305
					],
					[
						-0.91989471455356,
						0.312576328370682
					],
					[
						-0.59184117634699,
						0.745325982111587
					],
					[
						-0.92004032780941,
						-0.17859513274372
					]
				]
			},
			{
				"biases": [
					0.24776443933446,
					-0.84357094191394,
					0.13957915645134,
					0.0406234787138118
				],
				"weights": [
					[
						-0.70097877897414,
						-0.68902282990947
					],
					[
						0.11927002965044,
						-0.10201909945844
					],
					[
						-0.69991373708666,
						-0.96762445026427
					],
					[
						0.0145617765175683,
						-0.16919408638782
					]
				]
			},
			{
				"biases": [
					0.628404786824876,
					-0.2877962894162,
					0.0251489239376399,
					-0.96228273370131
				],
				"weights": [
					[
						0.0106412577514294,
						0.953033287224507
					],
					[
						0.111953468694237,
						-0.31120259630504
					],
					[
						-0.60819324857151,
						-0.21606077876353
					],
					[
						-0.44532673746331,
						-0.10362008196513
					]
				]
			},
			{
				"biases": [
					0.13380037403841,
					0.112489876415663,
					-0.3190733113695,
					0.256920642271363
				],
				"weights": [
					[
						0.0809475515948814,
						0.529617489090908
					],
					[
						0.461752844103124,
						-0.71163521129984
					],
					[
						-0.95895579492857,
						0.87471256887287
					],
					[
						-0.64793225610723,
						0.957493484337399
					]
				]
			},
			{
				"biases": [
					0.0834319935362227,
					-0.85775724516419,
					0.291271720641731,
					-0.2798434779258
				],
				"weights": [
					[
						0.529337094171067,
						0.922710627675315
					],
					[
						-0.12549978491557,
						0.189686773676917
					],
					[
						0.909490822869184,
						0.117000975988438
					],
					[
						-0.21594458330159,
						-0.9198502780032
					]
				]
			},
			{
				"biases": [
					-0.32784822234366,
					0.599582458837627,
					-0.60002552948575,
					-0.30298705795348
				],
				"weights": [
					[
						-0.38990156139504,
						-0.23393375211288
					],
					[
						0.426754133784936,
						-0.83421337245235
					],
					[
						-0.42284698723867,
						-0.32225005276998
					],
					[
						0.590891000042698,
						0.111642385849965
					]
				]
			}
		]
	},
	"embedding_input": {
		"input": 23,
		"is_biased": false,
		"layers": [
			{
				"a": 0,
				"b": [
					0,
					0,
					0,
					0,
					0,
					0,
					0,
					0,
					0,
					0
				],
				"i": 23,
				"o": 10,
				"w": [
					0.445640449483853,
					0.18434074408063,
					0.437851814977839,
					0.45906706871176,
					-0.42474052556021,
					-0.34651550744595,
					0.438891531313319,
					0.222694822727839,
					0.415940794012633,
					0.0518219824833864,
					-0.07727166172844,
					0.0393327804556963,
					-0.15102261679437,
					0.457374905755438,
					0.0495601689583707,
					-0.09284667360667,
					0.087689273964063,
					0.473634476127059,
					-0.1907183986113,
					0.0186625208545751,
					0.209845689172128,
					-0.07278072090386,
					-0.45370357396172,
					-0.40519811163682,
					0.340544082567416,
					-0.12690319102199,
					-0.30595904533572,
					0.294363852233499,
					0.368925807528321,
					-0.17535754332052,
					-0.09556419477061,
					-0.33928534750172,
					0.409514162870413,
					-0.24442380970979,
					-0.47292193224712,
					0.327101763179585,
					0.492973081556793,
					0.423868670483129,
					-0.23826902438368,
					-0.26455060079948,
					-0.47081896664261,
					-0.08315856189858,
					-0.15840125918455,
					-0.37158251046525,
					-0.18529058259352,
					0.159216881779575,
					0.498502108240677,
					-0.34430106191762,
					-0.0031949755416,
					0.41029338599333,
					-0.26630953438197,
					-0.26287475011991,
					-0.05924091891022,
					-0.41497950258351,
					0.0973335547211779,
					-0.18398704616275,
					0.367453423568871,
					0.191544401701909,
					0.17351052389183,
					-0.43200077846569,
					0.458466647561632,
					-0.33525522562539,
					0.316714233463616,
					-0.42557915685907,
					-0.11811864880077,
					-0.05168873762629,
					0.0984968720174445,
					0.237370090685982,
					0.315730915549936,
					0.0926568990110199,
					0.310083116316095,
					0.272504613720446,
					0.201675246111009,
					0.497499759092087,
					0.323062318174572,
					0.483776014495355,
					0.29799584561443,
					0.132202307835523,
					-0.44351438588587,
					0.466007774103734,
					0.0586267761507098,
					-0.42854564039472,
					0.346099524237497,
					0.402810932139755,
					0.130594256002596,
					0.00751704476163506,
					-0.14845831649701,
					0.311661113211614,
					0.368258219334087,
					-0.21847983674604,
					0.40232220501603,
					-0.38078156458312,
					0.393028661187127,
					0.0776590759585989,
					-0.18744053729877,
					0.345278307352466,
					-0.10728081938022,
					0.135960411734828,
					-0.12433876257733,
					0.444890505999913,
					-0.02035206250201,
					0.200880741493122,
					-0.06977888374794,
					0.171987283740097,
					-0.17429153040378,
					-0.10314567943153,
					0.234493376669645,
					0.494905238619543,
					0.0960309605335768,
					0.16459489147632,
					-0.33753923227217,
					0.0778972453995322,
					0.22974915043616,
					-0.11171885897087,
					-0.27893896009242,
					0.47956561640035,
					-0.15251477273333,
					0.0937650981461144,
					0.0479725845248715,
					-0.01859652425624,
					-0.45427808551436,
					-0.31131407940653,
					0.383402841011785,
					-0.14188781534135,
					0.455835646768914,
					0.0838829508250388,
					-0.48504289858231,
					-0.33268213049601,
					0.00344188522608613,
					-0.19224601762446,
					-0.47360876019433,
					-0.25400683928008,
					-0.42890645656079,
					0.183530025526726,
					-0.33727360954006,
					0.359869547723012,
					0.282535635515885,
					-0.36770306244588,
					0.165697634194774,
					-0.16709999839195,
					0.321486768302538,
					0.450101119027032,
					-0.09542008866501,
					-0.48640726151195,
					0.117149323386617,
					0.00984180516644972,
					0.200334058568159,
					-0.25031278016316,
					0.0582903369884851,
					-0.44015112858774,
					0.431015140265933,
					-0.42721853784924,
					-0.1416544015931,
					-0.40206206005212,
					-0.03979894785038,
					-0.43832857602423,
					0.366759427067983,
					-0.38359357274502,
					-0.29645359661646,
					-0.10619368779419,
					0.322427145024166,
					-0.13639888313626,
					0.0861385131681955,
					-0.39465299194543,
					0.252705955258315,
					0.472899619071938,
					0.0645766860963412,
					-0.12606407632397,
					0.0569480190931438,
					0.0141002116907958,
					-0.11957166717079,
					-0.28919435715657,
					0.24416001745016,
					-0.35214222149935,
					-0.22756640551789,
					-0.00599202672883,
					0.361380102842395,
					0.169042130950002,
					-0.07328517180182,
					-0.40726478671442,
					-0.19563646318422,
					0.107066556535158,
					-0.2308286526626,
					0.412613874753439,
					-0.28846740506122,
					0.000725448832370468,
					0.300167911059521,
					0.156336565147209,
					-0.2178133303796,
					0.20304651695231,
					-0.42851071821678,
					-0.04956201990167,
					-0.38158832423433,
					0.470199438819427,
					0.184009653447991,
					-0.07200211687772,
					-0.15329985029539,
					-0.46645201893195,
					-0.19381703033328,
					-0.22939950129938,
					0.400978748987628,
					-0.04476550932831,
					-0.08549849218092,
					0.152932820237182,
					0.449280410051532,
					0.115413195030469,
					-0.08296330190457,
					0.430002233411912,
					-0.3200887279904,
					-0.13080891127991,
					0.354343452209551,
					0.0589298060112011,
					0.184014219794014,
					0.43124912055082,
					-0.23571528583292,
					0.13304347434229,
					0.25387406375512,
					-0.44484673313865,
					0.211083795812528,
					-0.20658181281965,
					0.102788666389279,
					-0.01787310904857,
					0.12642189899463,
					0.250099746890434,
					-0.12321502919129,
					0.0108341454948117,
					-0.13011860996669,
					-0.34953125745358,
					0.430946829585644,
					-0.45298769668466
				]
			}
		]
	},
	"embedding_output": {
		"input": 23,
		"is_biased": false,
		"layers": [
			{
				"a": 0,
				"b": [
					0,
					0,
					0,
					0,
					0,
					0,
					0,
					0,
					0,
					0
				],
				"i": 23,
				"o": 10,
				"w": [
					0.0438702244777013,
					0.458096167911511,
					0.344655503795296,
					0.457473465581579,
					-0.19824014981231,
					-0.265056234047,
					-0.24313642249598,
					0.223957945095576,
					-0.47268236216513,
					-0.31881297727123,
					0.188403307455007,
					0.228816268745856,
					0.331988232737556,
					0.297939145050023,
					-0.35449356877828,
					-0.07929393317325,
					-0.27375060408802,
					0.186407057537143,
					0.155286943518213,
					-0.20162527116805,
					-0.19412770725145,
					-0.25415624239572,
					0.185084345604921,
					-0.12177721316062,
					0.0240704791657076,
					-0.37853460112352,
					-0.43759431073464,
					-0.04659383009048,
					0.46756471558647,
					0.0390939923959791,
					0.107702166874416,
					0.356809334914612,
					0.420831591620442,
					-0.27502440411983,
					0.171294240265557,
					-0.19419306199362,
					-0.33495017598475,
					0.18741288338539,
					-0.05526201244126,
					-0.39523087509932,
					0.159814734861902,
					0.125096204257028,
					0.475854403369178,
					0.291118456760764,
					0.0880221333132594,
					0.0147664012897709,
					0.388132625127159,
					0.467943808254984,
					0.00998400304906888,
					0.379836777574446,
					0.320482046578575,
					-0.23726317156268,
					0.0278811416725497,
					-0.45594278625271,
					-0.16242040203605,
					-0.26198032907364,
					-0.2688864141954,
					0.496150721909827,
					-0.15935696545084,
					0.241541915812033,
					-0.28063078896209,
					-0.1910756403533,
					-0.26857665019055,
					-0.49564827362087,
					-0.23534536360821,
					-0.17694505958468,
					-0.03851158298461,
					0.0154175084410798,
					0.450106564007883,
					-0.37873874092382,
					0.482129499489745,
					-0.30646995907561,
					0.00486976837160313,
					0.245748442175752,
					-0.16086381081439,
					0.123895594414648,
					-0.3210624714355,
					-0.4141949849348,
					-0.44677718880121,
					0.257414537696853,
					0.464654701491575,
					0.0387221827993723,
					-0.03769139137388,
					0.131925940034287,
					-0.31876088728697,
					0.0481828982231381,
					-0.18087663089519,
					-0.21254750904006,
					-0.31082692200126,
					0.2757194280093,
					0.0466507303640575,
					0.132510889924762,
					-0.24524097280119,
					-0.39403866215655,
					-0.26606309535089,
					0.436706285087997,
					-0.26571465810037,
					-0.41159385908472,
					-0.15747714363127,
					0.428468964857612,
					-0.22103905598769,
					-0.32723886426634,
					-0.44541636517225,
					0.34935574479316,
					0.346936650324163,
					-0.44018454923911,
					-0.29185492173827,
					-0.42566505170841,
					0.172447343879214,
					0.375459471190248,
					-0.35541683366701,
					0.0227677635208995,
					-0.38879264903978,
					0.0580017470820017,
					-0.14692352946252,
					0.334010865446184,
					-0.29402372849493,
					0.121080778266673,
					0.407746288843226,
					-0.21745155689482,
					0.228069951851958,
					0.094651048995649,
					-0.17452458999552,
					0.249456556138614,
					-0.45116675028657,
					0.369845647174067,
					-0.37917387104121,
					0.173058394558887,
					0.0976380150086338,
					-0.30484754614653,
					0.291215669838647,
					0.473867567414749,
					0.243097951577185,
					0.0825851587799766,
					-0.04401731505899,
					0.270365807259861,
					0.151068677950822,
					-0.21284977201495,
					-0.0753339943737,
					0.0426275736369566,
					-0.2931661406912,
					0.185855083047928,
					-0.48203295792823,
					-0.00672859633327,
					-0.14360977757402,
					-0.31193496512358,
					-0.15492552686919,
					-0.32242533692255,
					-0.36064500908124,
					-0.2531403330329,
					-0.25517754520392,
					-0.15619251865364,
					-0.45733337613969,
					0.215145961781113,
					0.461922502419871,
					-0.3859901663877,
					0.401503830262856,
					0.253173602098977,
					-0.25702762802844,
					0.0390976356610245,
					-0.46090153735015,
					-0.43721236981245,
					-0.15973673606821,
					-0.31707761629019,
					-0.3200288344628,
					-0.43084399288513,
					0.171173424062858,
					-0.44571798344866,
					-0.33811632669575,
					-0.19384845440522,
					-0.18287552642036,
					-0.20493328735489,
					-0.22557047056515,
					0.10902716156742,
					-0.36091950875627,
					-0.11205088681407,
					-0.2509704677442,
					-0.35607609175738,
					-0.49830581038051,
					0.363736094635668,
					0.0715412580128563,
					-0.08019851543473,
					-0.0089751038172,
					0.0213809280361321,
					0.0143139510537548,
					0.170271564399198,
					-0.45855117186054,
					0.00932463185843924,
					0.166924940865115,
					-0.12728564745334,
					-0.39612405176222,
					-0.1461965479222,
					-0.13531783178845,
					-0.14276815508783,
					0.363335702657274,
					-0.06768096168563,
					-0.18579140819895,
					-0.2838290578474,
					0.467258744936798,
					0.034595595335293,
					0.431791659822134,
					0.146964453986873,
					-0.39475788191938,
					0.214514144879112,
					-0.06053852562174,
					0.224372618848815,
					0.332354318142316,
					0.0921393066577637,
					0.149370729869766,
					0.444268437805888,
					0.281668913032824,
					0.299863570039502,
					0.302098466380346,
					-0.40668776862352,
					0.350662469901487,
					0.461454969708748,
					0.413991432993829,
					-0.14006288741433,
					-0.33639682389247,
					0.0522756344766648,
					0.00417315346741975,
					-0.42012551798309,
					0.139805704944884,
					-0.46919335097686,
					-0.19514285302789,
					-0.25542983169183,
					-0.46720402041492,
					-0.45772253542992,
					0.210184858780725,
					0.483678870818659
				]
			}
		]
	},
	"encoder": {
		"cell_count": 10,
		"cells": [
			{
				"biases": [
					-0.93354814521022,
					0.477163016896079,
					-0.97824594518678,
					0.578198215207434
				],
				"weights": [
					[
						0.597036594946141,
						0.380658658230284
					],
					[
						0.318205702913814,
						0.620346678736084
					],
					[
						-0.38698568755627,
						-0.57684713453251
					],
					[
						-0.78970097385382,
						-0.90817502684046
					]
				]
			},
			{
				"biases": [
					-0.5802211021943,
					0.420582290247779,
					0.0337561662273926,
					0.202744989270103
				],
				"weights": [
					[
						-0.0438265726048,
						0.78599802510257
					],
					[
						0.452973812739665,
						0.484675529371369
					],
					[
						-0.48946248701337,
						0.0597736922111356
					],
					[
						0.787370461616069,
						-0.65529417602831
					]
				]
			},
			{
				"biases": [
					0.453484343494012,
					-0.27734267117623,
					-0.26009935713985,
					0.918871917522352
				],
				"weights": [
					[
						-0.51267763756777,
						0.935022506532597
					],
					[
						0.266553807810719,
						-0.46402658000489
					],
					[
						-0.63366073860805,
						-0.26839109954123
					],
					[
						-0.79946575553602,
						0.716476659928297
					]
				]
			},
			{
				"biases": [
					0.833838877755948,
					0.0975672949733828,
					0.932250384238845,
					-0.24163407526061
				],
				"weights": [
					[
						-0.7413261580664,
						-0.98447606792962
					],
					[
						-0.35320689882231,
						0.128929029041815
					],
					[
						-0.41971528464425,
						0.448494583285382
					],
					[
						-0.79970051260175,
						-0.67025503254435
					]
				]
			},
			{
				"biases": [
					-0.71296642745377,
					0.39157359875819,
					0.731908682273092,
					-0.71174695887566
				],
				"weights": [
					[
						-0.65068234875014,
						-0.23192492002721
					],
					[
						0.612388095564512,
						0.424908294378448
					],
					[
						0.823864505480949,
						0.871076518497223
					],
					[
						-0.06484869144897,
						-0.46499720465093
					]
				]
			},
			{
				"biases": [
					0.69719193701153,
					0.368847585012066,
					-0.53275505737695,
					0.444713357452057
				],
				"weights": [
					[
						0.591414115853086,
						-0.50750846286943
					],
					[
						0.216637507025865,
						0.142360482561989
					],
					[
						-0.5800118014345,
						-0.61233017129227
					],
					[
						0.772647900235744,
						-0.29403968160681
					]
				]
			},
			{
				"biases": [
					-0.13971806501788,
					-0.79517214957586,
					0.478791428480539,
					0.633261625070376
				],
				"weights": [
					[
						0.39681648291809,
						-0.21363206039355
					],
					[
						0.348111122577613,
						-0.55390210160328
					],
					[
						0.00681656359780658,
						-0.54374042444884
					],
					[
						0.721369800947799,
						0.445965666708062
					]
				]
			},
			{
				"biases": [
					-0.28349812839553,
					-0.88045019164519,
					0.888485627258987,
					0.840008706609408
				],
				"weights": [
					[
						-0.0757213286559,
						0.326987594616922
					],
					[
						0.78977728079847,
						0.82639111630343
					],
					[
						-0.68280191193027,
						0.536414243781487
					],
					[
						0.262330637873015,
						0.0938883922927869
					]
				]
			},
			{
				"biases": [
					0.473573502826516,
					0.463167857943702,
					0.452900899663229,
					-0.49789331930183
				],
				"weights": [
					[
						0.909158931571676,
						0.267029266273108
					],
					[
						-0.18293113463383,
						0.310167258134923
					],
					[
						-0.08376904662949,
						-0.3414563357982
					],
					[
						-0.46721200566676,
						-0.44182910006821
					]
				]
			},
			{
				"biases": [
					0.300898941190719,
					0.0941936821936122,
					0.339389386825241,
					0.617480965618234
				],
				"weights": [
					[
						0.695662034301364,
						0.837372073509413
					],
					[
						0.515539994688409,
						0.689751487278041
					],
					[
						-0.61004862642115,
						-0.95080221714997
					],
					[
						-0.19740562027592,
						-0.60374014775789
					]
				]
			}
		]
	},
	"keys": {
		"!": 6,
		",": 3,
		".": 2,
		":": 4,
		";": 5,
		"?": 7,
		"\\eos": 1,
		"\\sos": 0,
		"aku": 12,
		"apakah": 8,
		"belum": 13,
		"bontang": 22,
		"di": 21,
		"dimana": 18,
		"kamu": 9,
		"mandi": 11,
		"manusia": 17,
		"namaku": 16,
		"namamu": 15,
		"rumahku": 20,
		"rumahmu": 19,
		"siapa": 14,
		"sudah": 10
	},
	"vec2word": {
		"input": 10,
		"is_biased": false,
		"layers": [
			{
				"a": 1,
				"b": [
					0,
					0,
					0,
					0,
					0,
					0,
					0,
					0,
					0,
					0,
					0,
					0,
					0,
					0,
					0,
					0,
					0,
					0,
					0,
					0,
					0,
					0,
					0
				],
				"i": 10,
				"o": 23,
				"w": [
					-0.41241365628873,
					0.236095477290182,
					-0.41209733754659,
					0.104028440787078,
					0.259645277328608,
					-0.2623382904146,
					-0.12195935940577,
					0.355584816598802,
					-0.40139639283219,
					0.0128067407782803,
					-0.39730409667452,
					-0.11757827872861,
					0.0139420999009303,
					0.336927614496743,
					-0.11985760738535,
					0.181527773142495,
					-0.22122902734273,
					-0.12697446683414,
					-0.04229675865023,
					-0.44475578299476,
					-0.34792954832664,
					0.17848121001215,
					0.33195489578749,
					0.336859602401323,
					-0.35527182408341,
					-0.32047423876196,
					0.138373251041464,
					-0.29050559299442,
					-0.42527487042202,
					-0.31051647957514,
					0.0961697383481547,
					0.359057036501671,
					0.233908849492296,
					0.307498872127491,
					0.0769190274099555,
					0.0665725504889428,
					-0.0122661617703,
					0.0338796057231555,
					0.496788606028646,
					0.477581670840633,
					-0.08502651171343,
					-0.07603821815612,
					-0.45609960445953,
					0.421480061020047,
					0.128735133912017,
					0.0755887856268117,
					-0.25764124598478,
					-0.15362767519236,
					-0.07048592145138,
					-0.13637695400563,
					-0.25452273275475,
					-0.20465253711877,
					-0.25790152425941,
					-0.14456827649715,
					-0.08556074348679,
					-0.12008279798391,
					-0.44459832362562,
					0.393444336101564,
					-0.194297526532,
					0.114214840309305,
					-0.41943313254401,
					-0.24752014135164,
					-0.33807796773149,
					0.157647031218636,
					0.108200235838677,
					-0.28130743183353,
					0.0479936636812859,
					-0.343795142938,
					-0.44701329021698,
					-0.0840657554862,
					-0.14668060100795,
					0.257374151324585,
					0.0425900385565541,
					-0.34835435776212,
					0.436321581701173,
					0.141764308303815,
					0.0716518310311665,
					0.140238497413911,
					0.377596477076164,
					-0.33189309567186,
					0.241965240741545,
					-0.0080582607229,
					0.251414032482563,
					0.248600272685506,
					-0.19921097079972,
					-0.10300778062835,
					0.396944132068896,
					-0.09199137012985,
					0.448017883324558,
					0.211502004150493,
					0.377617396071419,
					0.2439053800356,
					-0.21355143794844,
					0.0900771293066066,
					0.457036941011502,
					-0.31093410441193,
					0.327505952714505,
					-0.13698464917624,
					-0.40446318184009,
					-0.41916304977289,
					-0.37922253525735,
					-0.49654376482872,
					-0.29297192959488,
					-0.42517492807423,
					0.26328193760139,
					0.18260512513931,
					-0.00489071192334,
					0.458435282100439,
					0.105997940448435,
					0.32258073061552,
					-0.2455225557223,
					0.221240414079536,
					-0.37962458711265,
					0.372660075708594,
					0.329942233098135,
					-0.34107419404119,
					-0.00448322896094,
					-0.12239102117493,
					-0.41186527235422,
					-0.33258244603836,
					-0.47380269978674,
					-0.11612984872074,
					-0.09149168044005,
					-0.32480772909844,
					0.459200022208033,
					0.337476584685427,
					-0.17528350330908,
					0.042930532154516,
					-0.01668170365112,
					-0.31527361494703,
					0.303434697630116,
					-0.13153121438995,
					0.404001857589129,
					-0.16767897654775,
					-0.25027626688429,
					0.0697105919193725,
					-0.18143216724088,
					0.327937934323987,
					-0.09149182268927,
					0.487813707737967,
					-0.48820956863556,
					0.252509857316944,
					-0.33067719781584,
					-0.30579038835187,
					-0.42977747449518,
					0.417760577906674,
					0.06613832560975,
					0.460192057168019,
					-0.36058197258779,
					0.307763153566879,
					0.362508982067483,
					0.352610956858636,
					0.395212792526393,
					-0.48627088507762,
					-0.05604535366514,
					-0.19218703294565,
					0.429401119323107,
					-0.12509800576238,
					0.143096968885071,
					0.400136190182495,
					-0.22284666512514,
					-0.00824418126595,
					0.463085476336478,
					0.118552331307141,
					-0.04857630229272,
					0.233065972584804,
					0.174747358079671,
					-0.31923963881345,
					-0.06681502106345,
					0.0502492741211855,
					0.235428349251256,
					0.128754174345607,
					0.439259032648575,
					0.25176327084664,
					-0.22900534483892,
					-0.39379227757893,
					-0.43993659116036,
					0.384234568372047,
					0.0105982491155783,
					-0.45312650267389,
					0.300876235644908,
					-0.24180947000929,
					0.319140982995241,
					-0.05045052831247,
					-0.09368737917576,
					-0.23274268757033,
					-0.0148528530691,
					0.430201706981249,
					0.139990673036107,
					0.427199360433597,
					-0.36882176530433,
					0.459938610214084,
					-0.25649313051624,
					-0.23681813204558,
					0.101817842506842,
					0.254823450964279,
					0.0499405151845737,
					-0.11560626564367,
					0.0452041962193027,
					-0.39255414789028,
					-0.47316646997583,
					-0.33465655529324,
					-0.01197901220212,
					-0.25569291668966,
					0.46022449729249,
					0.256007799735037,
					0.214020332778248,
					-0.1939198642425,
					0.395730486326707,
					0.497196316654886,
					0.239397189882838,
					0.0173409020398668,
					0.00802219752097721,
					0.383901354535451,
					0.325844792687957,
					0.364894924973823,
					0.286169761182738,
					0.0298153884787069,
					0.0736239432662701,
					0.481987791862527,
					0.333115213805873,
					0.420591013316027,
					-0.48662632620795,
					0.0756324484884954,
					-0.20418006722818,
					-0.34488700709061,
					0.012060464552998,
					-0.16666027389347,
					-0.23959236598899,
					0.126865957927249
				]
			}
		]
	},
	"vec_count": 10
}