{
	"decoder": {
		"cell_count": 100,
		"cells": [
			{
				"biases": [
					0.877047506762728,
					0.47504190181919,
					0.935346368175476,
					0.75907500107967
				],
				"weights": [
					[
						-0.83477264733896,
						1
					],
					[
						-0.62916432002035,
						0.408299550472528
					],
					[
						0.20155316025751,
						-0.8466427050457
					],
					[
						0.307591339520282,
						0.792972585297127
					]
				]
			},
			{
				"biases": [
					-0.02000940514944,
					-0.3814595137719,
					-0.96470051469403,
					0.960996246866006
				],
				"weights": [
					[
						0.759634977025948,
						0.861113372538844
					],
					[
						0.130215773309822,
						0.843988182535123
					],
					[
						-0.5283027978128,
						-0.268143747981
					],
					[
						0,
						0.793218309845854
					]
				]
			},
			{
				"biases": [
					0.710594997986701,
					0.445684730894787,
					-0.79493127025359,
					0.520378274216517
				],
				"weights": [
					[
						-0.6511467815819,
						-0.06651978927507
					],
					[
						0.545245829780666,
						0.619541105886848
					],
					[
						-0.70410918805318,
						-0.92869048867988
					],
					[
						-0.45507592403928,
						0.498094447628576
					]
				]
			},
			{
				"biases": [
					-0.92371863780053,
					0.318781939097797,
					-0.01953909546453,
					-0.22944880207641
				],
				"weights": [
					[
						-0.0364114103411,
						0.0269440947422968
					],
					[
						0.481147754455036,
						0.195863689685152
					],
					[
						-0.05926302980479,
						0.895916206371491
					],
					[
						-0.20392502600805,
						0.9252856481227
					]
				]
			},
			{
				"biases": [
					0.800494514733937,
					-0.44324368510641,
					-0.82881941022438,
					-0.9759538588574
				],
				"weights": [
					[
						0.879120388681546,
						-0.44557399934113
					],
					[
						-0.4798093837732,
						-0.69721215640108
					],
					[
						-0.18617666073011,
						0.519245109293725
					],
					[
						-0.82628518702078,
						0.256521692604304
					]
				]
			},
			{
				"biases": [
					0.709225735738931,
					-0.08365053780853,
					0.470456081723221,
					-0.81435206562982
				],
				"weights": [
					[
						0.0754694601496169,
						0.094088043370976
					],
					[
						-0.88417296795345,
						-0.5668053001294
					],
					[
						-0.16789539486429,
						0.85429027928349
					],
					[
						0.88211204022562,
						0.798421531899023
					]
				]
			},
			{
				"biases": [
					0.675597476988524,
					-0.05135384473908,
					0.84624745748688,
					-0.2023221563349
				],
				"weights": [
					[
						-0.60813257225177,
						-0.25404591730671
					],
					[
						-0.92606008605666,
						0.831054433377749
					],
					[
						0.524931336713699,
						0.794455343295979
					],
					[
						0.221640703865936,
						-0.44890684999645
					]
				]
			},
			{
				"biases": [
					0.492565057483237,
					-0.6786252958898,
					-0.89835755810846,
					0.548669358700104
				],
				"weights": [
					[
						-0.80036804831631,
						-0.03681861262229
					],
					[
						0.761940129993985,
						0.181169016349406
					],
					[
						0.25178076060033,
						-0.81301963099477
					],
					[
						-0.77255623217829,
						-0.30922696653841
					]
				]
			},
			{
				"biases": [
					0.788694303536588,
					-0.74919554315748,
					0.748351438170746,
					-0.58241304573052
				],
				"weights": [
					[
						0.57193315098294,
						0.438009875422992
					],
					[
						0.730069682957574,
						-0.60225220583027
					],
					[
						-0.59018541883315,
						-0.6931886021663
					],
					[
						0.530323269750782,
						0.673357021145677
					]
				]
			},
			{
				"biases": [
					0.184727802146763,
					-0.97714508060311,
					0.21498469002668,
					0.888389434924707
				],
				"weights": [
					[
						-0.34479270843901,
						-0.4788987035139
					],
					[
						0.599208148873997,
						-0.06770722002827
					],
					[
						-0.59558485866082,
						0.682163250077471
					],
					[
						0.382284672488705,
						-0.04252674641748
					]
				]
			},
			{
				"biases": [
					0.686649052758233,
					-0.68471753683305,
					0.489404064455105,
					0.560349233809187
				],
				"weights": [
					[
						0.671101343806924,
						0.495073406938102
					],
					[
						-0.85322890074052,
						0.865309946433255
					],
					[
						-0.1646222676686,
						0.649268159051101
					],
					[
						0.893977301548708,
						0.0572534899399142
					]
				]
			},
			{
				"biases": [
					-0.64002731498074,
					0.195028498647886,
					-0.00913590484679,
					-0.83245246379409
				],
				"weights": [
					[
						-0.81940113833484,
						-0.28544174189083
					],
					[
						-0.69983876625499,
						-0.7614019572615
					],
					[
						0.791119875799159,
						0.240880220290487
					],
					[
						-0.06827323505488,
						-0.67275286442822
					]
				]
			},
			{
				"biases": [
					-0.05377118759005,
					-0.5931952585217,
					0.433173675478022,
					-0.92988561949245
				],
				"weights": [
					[
						-0.24915751642162,
						0.008358367419391
					],
					[
						0.254211788144045,
						-0.73032022753873
					],
					[
						0.877554391992162,
						0.790828037928382
					],
					[
						0.0945636802512963,
						0.88316951323254
					]
				]
			},
			{
				"biases": [
					0.124563181585823,
					0.746636137591601,
					-0.81985397651016,
					-0.03954853247011
				],
				"weights": [
					[
						0.389648508218517,
						-0.77829847238864
					],
					[
						0.0607260098126534,
						-0.58947650758916
					],
					[
						0.217139597124981,
						0.724987307837992
					],
					[
						0.426669087363074,
						-0.03677729111903
					]
				]
			},
			{
				"biases": [
					0.536294083267302,
					-0.76082609269398,
					-0.9173439024355,
					-0.26286756903922
				],
				"weights": [
					[
						-0.07089733962924,
						-0.25609348770713
					],
					[
						0.374555121165848,
						0.107648880149921
					],
					[
						-0.55527020444512,
						0.0552912847180796
					],
					[
						-0.50126713620037,
						-0.22689800005136
					]
				]
			},
			{
				"biases": [
					0.655122563456736,
					-0.3866003789129,
					0.976282605463042,
					-0.55992232455095
				],
				"weights": [
					[
						0.648685068013344,
						-0.78640318409657
					],
					[
						-0.13610860369018,
						0.774971641844403
					],
					[
						0.320068694275986,
						0.681716580945014
					],
					[
						-0.42796483900229,
						-0.90418579590381
					]
				]
			},
			{
				"biases": [
					-0.14407637041598,
					-0.44675809076392,
					-0.35630952826792,
					-0.18603858235702
				],
				"weights": [
					[
						-0.58512202540341,
						-0.53760557296008
					],
					[
						0.998346942238772,
						0.0603501016889745
					],
					[
						0.279842481039849,
						-0.3393594712878
					],
					[
						-0.54028433673347,
						0.336022409152859
					]
				]
			},
			{
				"biases": [
					-0.7266372538881,
					0.866404095927191,
					0.212501797200491,
					-0.95486257611417
				],
				"weights": [
					[
						0.41556151597939,
						0.490071237312975
					],
					[
						0.191686848900447,
						0.842141605936028
					],
					[
						0.241494274700556,
						0.287909740885448
					],
					[
						0.920393873475741,
						0.42674775080321
					]
				]
			},
			{
				"biases": [
					0.796658880787124,
					-0.65868095458772,
					0.235154648543241,
					0.904633983886212
				],
				"weights": [
					[
						-0.30072542526496,
						0.807853369288476
					],
					[
						-0.62220257372219,
						-0.06925962624184
					],
					[
						-0.8780894895451,
						0.506739329052629
					],
					[
						0.268705298646446,
						0.908823705103951
					]
				]
			},
			{
				"biases": [
					0.0806251204939235,
					-0.98002384297233,
					-0.26955161218504,
					0.489558363987864
				],
				"weights": [
					[
						-0.29033880641289,
						-0.73106699998027
					],
					[
						-0.90210393900386,
						0.721605933008403
					],
					[
						-0.6296772171115,
						0.972447872551812
					],
					[
						-0.29667296816735,
						0.923671571695106
					]
				]
			},
			{
				"biases": [
					0.853144993573274,
					0.857160071714906,
					-0.35909645203318,
					-0.15415720184945
				],
				"weights": [
					[
						0.0172472284355033,
						-0.71766913075364
					],
					[
						-0.65181906755255,
						0.21363999370365
					],
					[
						-0.16630604878382,
						-0.48561301854968
					],
					[
						0.699159870991297,
						0.0862702378648323
					]
				]
			},
			{
				"biases": [
					-0.53070503306973,
					-0.34279901128873,
					-0.19047351461633,
					-0.61969085318673
				],
				"weights": [
					[
						0.931504623917793,
						0.346421236881883
					],
					[
						-0.58917634868515,
						-0.41513224838439
					],
					[
						0.458994530468757,
						0.471325921014719
					],
					[
						-0.88101882039947,
						0.204364588510371
					]
				]
			},
			{
				"biases": [
					-0.20436533496671,
					0.325547223379756,
					0.349092861163738,
					-0.122104163828
				],
				"weights": [
					[
						-0.34923859749188,
						-0.6052869925377
					],
					[
						0.522396994898741,
						0.108288495000303
					],
					[
						0.0469776686664944,
						-0.82213944477102
					],
					[
						-0.60173386657189,
						0.215641778815822
					]
				]
			},
			{
				"biases": [
					0.88080482340417,
					0.0994663944720131,
					0.946667381497848,
					0.638292091076245
				],
				"weights": [
					[
						-0.44201024603672,
						0.814620512281632
					],
					[
						0.953157815079827,
						0.824758796398764
					],
					[
						0.280794350982762,
						-0.5783348597979
					],
					[
						-0.576182368484,
						-0.31427874129215
					]
				]
			},
			{
				"biases": [
					-0.74253635465647,
					0.826803267335715,
					-0.62213473174029,
					-0.36250911080443
				],
				"weights": [
					[
						-0.51191759214122,
						-0.27993005728826
					],
					[
						0.340519231533457,
						-0.09593968791988
					],
					[
						-0.63640576727539,
						-0.25841368612656
					],
					[
						0.708392415124118,
						0.9795941703306
					]
				]
			},
			{
				"biases": [
					0.0783497786599711,
					0.313355323885262,
					-0.31092283865222,
					-0.93758458669224
				],
				"weights": [
					[
						-0.10384756111867,
						0.250771052283509
					],
					[
						0.718811584997184,
						0.907456647984392
					],
					[
						-0.25002222807176,
						0.128862782927794
					],
					[
						-0.69454212018359,
						-0.90117216308745
					]
				]
			},
			{
				"biases": [
					-0.0758802257339,
					-0.94319763185335,
					0.616349931833673,
					0.255183492380849
				],
				"weights": [
					[
						-0.82011102502323,
						-0.79139771755728
					],
					[
						-0.91774303633029,
						-0.37287239805165
					],
					[
						0.0586947076941194,
						0.914792328042786
					],
					[
						-0.1561612482287,
						-0.60659510108899
					]
				]
			},
			{
				"biases": [
					-0.4384069944728,
					-0.9687974307173,
					0.655601897245221,
					-0.09667982605791
				],
				"weights": [
					[
						-0.37922400946159,
						0.180179110310794
					],
					[
						0.946483268310394,
						0.662137321861674
					],
					[
						-0.69887721758541,
						-0.58454258298898
					],
					[
						0.00563350338229299,
						-0.15305341971844
					]
				]
			},
			{
				"biases": [
					0.811316553388433,
					0.173828841600359,
					0.814472489124288,
					0.565154002684072
				],
				"weights": [
					[
						0.454287202225983,
						-0.46534143994689
					],
					[
						-0.45765697321415,
						0.981905699399378
					],
					[
						-0.83309315087427,
						0.849404443339015
					],
					[
						-0.7247885421245,
						0.67922250606646
					]
				]
			},
			{
				"biases": [
					0.487092372184178,
					0.355904907767976,
					-0.82097046963335,
					0.0536445968606378
				],
				"weights": [
					[
						0.913364967446715,
						-0.92518085611477
					],
					[
						-0.5468165229118,
						0.677233106208656
					],
					[
						-0.94312582022235,
						0.981251475684453
					],
					[
						-0.81194205729386,
						0.781952267044823
					]
				]
			},
			{
				"biases": [
					0.797220889694104,
					0.196210748294772,
					0.532156494543634,
					0.451821459056639
				],
				"weights": [
					[
						0.728139344646966,
						-0.34813235220991
					],
					[
						-0.23533565237696,
						0.479741643747924
					],
					[
						-0.59523141615645,
						-0.78423973014648
					],
					[
						-0.92966898172046,
						-0.98926098910406
					]
				]
			},
			{
				"biases": [
					-0.62685125298958,
					-0.79698927223539,
					0.783107255420569,
					0.385468704713489
				],
				"weights": [
					[
						-0.49294973292312,
						-0.696474524434
					],
					[
						0.141093816691591,
						-0.69059417671177
					],
					[
						-0.94697303421259,
						-0.75927274793738
					],
					[
						-0.40831100883992,
						-0.34611148098335
					]
				]
			},
			{
				"biases": [
					0.988699781837074,
					0.139212589250276,
					-0.6758280667142,
					0.909213098437577
				],
				"weights": [
					[
						-0.51075873158393,
						-0.76447046369681
					],
					[
						0.88025228414005,
						0.246939169374211
					],
					[
						-0.37044803657259,
						-0.79785760905241
					],
					[
						0.080036718391477,
						0.777493101824881
					]
				]
			},
			{
				"biases": [
					-0.54200031939285,
					-0.81534406130871,
					-0.3201228984736,
					0.440436169296567
				],
				"weights": [
					[
						-0.62364529140078,
						0.975207257251499
					],
					[
						-0.94539734193029,
						-0.0699937112511
					],
					[
						-0.55345054195774,
						0.179298129848238
					],
					[
						-0.80972089904949,
						-0.42812483353547
					]
				]
			},
			{
				"biases": [
					-0.04570228962523,
					0.891106997203237,
					0.604220691865708,
					0.382168322917989
				],
				"weights": [
					[
						0.281904314300444,
						-0.67005372387845
					],
					[
						0.958201455449323,
						0.0824501128273145
					],
					[
						-0.3455465260261,
						0.853666257745547
					],
					[
						0.520074462200125,
						-0.11973489099016
					]
				]
			},
			{
				"biases": [
					-0.51072530623813,
					-0.33806950744301,
					-0.27340507359807,
					-0.34538806953639
				],
				"weights": [
					[
						0.19134661619111,
						-0.77701936245618
					],
					[
						0.796924999090158,
						-0.92744809900636
					],
					[
						0.752200402208109,
						0.082988572987355
					],
					[
						-0.55456145075444,
						-0.41676335503302
					]
				]
			},
			{
				"biases": [
					0.192750532132047,
					-0.6937043775755,
					0.615371781788195,
					-0.2464366832077
				],
				"weights": [
					[
						0.166351542660815,
						0.767421031136758
					],
					[
						-0.62391893103755,
						0.6760881382476
					],
					[
						0.222990493517846,
						0.848505807253026
					],
					[
						-0.51282382281324,
						-0.16593006373469
					]
				]
			},
			{
				"biases": [
					-0.56455220065333,
					0.00946506144361127,
					-0.25323402249579,
					-0.22243427103101
				],
				"weights": [
					[
						-0.6734129770017,
						-0.55801007278779
					],
					[
						-0.48029962920295,
						0.185186592525825
					],
					[
						0.00680663338043316,
						0.121952994435092
					],
					[
						-0.16968662259034,
						0.638471525543686
					]
				]
			},
			{
				"biases": [
					0.874576869266963,
					0.449214310251348,
					0.596998023753387,
					0.693927295383522
				],
				"weights": [
					[
						-0.58055124381471,
						-0.4179066038125
					],
					[
						-0.91188904932829,
						-0.82253715559662
					],
					[
						0.763955547123372,
						0.2504200537836
					],
					[
						0.392060207677323,
						-0.01971551306137
					]
				]
			},
			{
				"biases": [
					-0.01483831610847,
					0.0840283636599033,
					0.384563321773204,
					-0.58026990250728
				],
				"weights": [
					[
						0.258689117378106,
						0.969124839590965
					],
					[
						-0.69277253414564,
						-0.77569149778261
					],
					[
						0.307987089623432,
						-0.84667734277974
					],
					[
						0.210049727229998,
						0.323236539554339
					]
				]
			},
			{
				"biases": [
					-0.14588128797508,
					-0.76307422909659,
					0.0911919222264176,
					0.356669579380441
				],
				"weights": [
					[
						0.144096171335637,
						0.677147858266407
					],
					[
						-0.43041943709164,
						-0.91839379895458
					],
					[
						0.231223255626259,
						-0.12388940090483
					],
					[
						-0.64573262177299,
						0.427283808329523
					]
				]
			},
			{
				"biases": [
					0.190461612618691,
					0.356202076544609,
					0.131512600482698,
					-0.43028931773668
				],
				"weights": [
					[
						-0.73689799181899,
						-0.86964839789665
					],
					[
						0.766275495759134,
						-0.19637797340921
					],
					[
						0.452113728976589,
						0.223422156811969
					],
					[
						-0.20825833035069,
						-0.7460405657063
					]
				]
			},
			{
				"biases": [
					-0.63960043825139,
					-0.42935929714185,
					-0.42961408806824,
					0.091094708822305
				],
				"weights": [
					[
						-0.88072193301381,
						-0.29887967131283
					],
					[
						-0.35843119094673,
						0.883837160125014
					],
					[
						0.636818741414682,
						0.898654141990278
					],
					[
						0.528771528826628,
						0.824233327237824
					]
				]
			},
			{
				"biases": [
					-0.27912028057575,
					-0.82366867319258,
					0.572976444292677,
					-0.97921415657776
				],
				"weights": [
					[
						0.923653451018165,
						0.76602480086733
					],
					[
						-0.35863267585495,
						0.995528901451538
					],
					[
						-0.00165107427636,
						-0.78358444496428
					],
					[
						0.389071608830287,
						-0.27832856475348
					]
				]
			},
			{
				"biases": [
					0.86429059168711,
					0.385095890439358,
					-0.71188780179665,
					-0.67430840671417
				],
				"weights": [
					[
						0.701927881328012,
						-0.45892171063772
					],
					[
						0.975426567093372,
						-0.25614275476461
					],
					[
						0.820067389909122,
						0.333961282524625
					],
					[
						-0.56693203070377,
						0.637479837834841
					]
				]
			},
			{
				"biases": [
					0.748839868274526,
					0.797454888700512,
					0.309614413711364,
					-0.04868491468125
				],
				"weights": [
					[
						0.610252797350776,
						-0.88291234175885
					],
					[
						-0.82753743763745,
						0.275793881175512
					],
					[
						0.576943569758126,
						-0.77911937292999
					],
					[
						0.848857008310259,
						-0.5762056557307
					]
				]
			},
			{
				"biases": [
					0.899707475238892,
					-0.0788186690586,
					0.605300042413653,
					-0.76620286213226
				],
				"weights": [
					[
						0.124140927597478,
						0.778951855345641
					],
					[
						0.942116816360956,
						-0.47208158385417
					],
					[
						0.00915856347153043,
						0.187822420408568
					],
					[
						-0.67572113606439,
						0.150512207955835
					]
				]
			},
			{
				"biases": [
					0.410127436323346,
					-0.3471463661175,
					0.428198100539444,
					0.843658444880687
				],
				"weights": [
					[
						-0.70657031979597,
						0.235313896724303
					],
					[
						0.417701438089466,
						-0.19319471273057
					],
					[
						0.860382609962312,
						-0.60978286728717
					],
					[
						-0.06802229402619,
						0.709928473189107
					]
				]
			},
			{
				"biases": [
					-0.27291564104047,
					-0.45793022538922,
					0.532175461090708,
					0.889118856393699
				],
				"weights": [
					[
						-0.4291060880509,
						0.0240966127109275
					],
					[
						0.285139404929833,
						-0.18013032803815
					],
					[
						-0.54499452878923,
						0.613125848279368
					],
					[
						0.369668439868706,
						0.831655376470305
					]
				]
			},
			{
				"biases": [
					-0.70761095495246,
					-0.14850502920946,
					-0.50475338489609,
					-0.50135028185943
				],
				"weights": [
					[
						0.794283776800182,
						-0.25754785944655
					],
					[
						0.767747718339715,
						0.868012962802471
					],
					[
						0.438156948525733,
						-0.55606105684114
					],
					[
						0.189542564272843,
						-0.37715150955027
					]
				]
			},
			{
				"biases": [
					-0.61351664965828,
					-0.57825915464323,
					-0.82652045778464,
					0.325857153173612
				],
				"weights": [
					[
						0.894220832777131,
						0.864580318470175
					],
					[
						-0.15054612616648,
						-0.47045388726583
					],
					[
						-0.12155482722396,
						-0.48221320619335
					],
					[
						-0.83246572590611,
						0.534426787398208
					]
				]
			},
			{
				"biases": [
					0.564344718759281,
					-0.02578708170093,
					1.0243588610783,
					0.922480206982861
				],
				"weights": [
					[
						0.174533909800357,
						-0.75630753516892
					],
					[
						0.0909650184666298,
						0.58739744068826
					],
					[
						-0.65047692820159,
						-0.40273655631314
					],
					[
						-0.67850699982184,
						-0.45983351719926
					]
				]
			},
			{
				"biases": [
					-0.50763622272437,
					-0.71480179702542,
					0.620016730991437,
					-0.49509201025905
				],
				"weights": [
					[
						-0.13811878848983,
						0.114514582185422
					],
					[
						0.462338915952425,
						-0.06168416035648
					],
					[
						-0.02712190412545,
						-0.42283760192067
					],
					[
						0.0982568347747494,
						-0.18946641886411
					]
				]
			},
			{
				"biases": [
					-0.87228469553585,
					0.149365805876923,
					0.883242557320715,
					0.36551435152313
				],
				"weights": [
					[
						0.669841054074223,
						-0.50105179696327
					],
					[
						0.138838535195589,
						-0.7227784407204
					],
					[
						0.903295356427118,
						-0.19439598691957
					],
					[
						0.681541174055999,
						-0.85973761550908
					]
				]
			},
			{
				"biases": [
					-0.40532589996029,
					-0.22306193053781,
					0.816935736776103,
					-0.70685241355809
				],
				"weights": [
					[
						-0.39967542204135,
						0.613402269091401
					],
					[
						-0.69149232831309,
						0.511308822205294
					],
					[
						0.209065178396868,
						-0.93878203189969
					],
					[
						0.995449796095512,
						0.574249436936661
					]
				]
			},
			{
				"biases": [
					0.299333225511091,
					0.948615068772661,
					0.835884166132991,
					-0.54856644638117
				],
				"weights": [
					[
						-0.77417417406642,
						-0.18217317461367
					],
					[
						-0.3839354978001,
						-0.64187617936739
					],
					[
						-0.30536967032028,
						0.984168600002785
					],
					[
						-0.89833955266949,
						0.16251899709089
					]
				]
			},
			{
				"biases": [
					0.981866910121381,
					0.837931805420598,
					0.967213021305632,
					0.654132539391371
				],
				"weights": [
					[
						0.0112539196738745,
						-0.60278449365977
					],
					[
						-0.01845060224328,
						0.305846166298444
					],
					[
						-0.33824933911016,
						-0.06574147427972
					],
					[
						-0.58917040042005,
						0.563346824009032
					]
				]
			},
			{
				"biases": [
					-0.84103814711094,
					0.81465897371622,
					0.660952331515284,
					-0.28717644401041
				],
				"weights": [
					[
						-0.04638565627822,
						-0.80326082327162
					],
					[
						0.979373537568739,
						0.764847806639711
					],
					[
						-0.30857115814007,
						-0.09961330512888
					],
					[
						0.68588663966604,
						-0.53153628462498
					]
				]
			},
			{
				"biases": [
					0.334776175411873,
					-0.82745655170395,
					-0.93345502975693,
					1.0266457099549
				],
				"weights": [
					[
						0.603178638232573,
						-0.9853083768517
					],
					[
						-0.00033142167004,
						-0.43998351594168
					],
					[
						0.628346797578875,
						-0.43556174382854
					],
					[
						-0.97923942034201,
						-0.12219463346744
					]
				]
			},
			{
				"biases": [
					-0.95693743094655,
					0.827050504856905,
					-0.98441579702951,
					-0.03427048660305
				],
				"weights": [
					[
						0.480700849653465,
						0.802885158980819
					],
					[
						0.616375672217964,
						0.187889785005198
					],
					[
						0.462380911485599,
						-0.30224332382319
					],
					[
						0.623846430995379,
						0.217637392058629
					]
				]
			},
			{
				"biases": [
					0.190327514968497,
					0.83852424707467,
					0.808876801930995,
					1.05652954747579
				],
				"weights": [
					[
						0.46012596593812,
						-0.65579056981379
					],
					[
						0.926519805040138,
						0.03754229001895
					],
					[
						0.885070329372064,
						-0.39906390490479
					],
					[
						0.631327397113234,
						-0.72940099536924
					]
				]
			},
			{
				"biases": [
					-0.96499994478258,
					0.556494984551878,
					-0.04640074672008,
					0.331423808498338
				],
				"weights": [
					[
						-0.55553336854187,
						0.752622035101419
					],
					[
						-0.90719647038816,
						-0.6552970109308
					],
					[
						0.996693250868839,
						-0.28573434710835
					],
					[
						0.749174078719206,
						0.551650210520756
					]
				]
			},
			{
				"biases": [
					-0.82176080281143,
					-0.03901934329948,
					0.0153437973857964,
					0.585276070059038
				],
				"weights": [
					[
						-0.78934276605738,
						0.584256144708491
					],
					[
						-0.41329016699203,
						0.688568594562062
					],
					[
						-0.92140661197684,
						0.718816740368694
					],
					[
						-0.64480482537541,
						-0.48439971795734
					]
				]
			},
			{
				"biases": [
					0.801311113624552,
					0.555007785127925,
					-0.86718336022587,
					1.02574942214691
				],
				"weights": [
					[
						-0.77420419535734,
						-0.16251418106305
					],
					[
						0.651612479109349,
						-0.73083317406185
					],
					[
						0.353403048478252,
						-0.54094952253469
					],
					[
						0.60168937607203,
						-0.48355987661684
					]
				]
			},
			{
				"biases": [
					0.847646449149019,
					-0.90070381315499,
					-0.78703822893803,
					0.183877937317342
				],
				"weights": [
					[
						0.463441150830834,
						-0.52169844101447
					],
					[
						0.0723104629448465,
						0.509100949712315
					],
					[
						0.0880778958651223,
						0.395328208803724
					],
					[
						-0.46171645513573,
						0.522476293890174
					]
				]
			},
			{
				"biases": [
					0.143436367478962,
					0.140582800804724,
					-0.40131735841032,
					-0.06383450075891
				],
				"weights": [
					[
						-0.33586299011476,
						-0.88453535211644
					],
					[
						0.770360344449252,
						-0.79593642684848
					],
					[
						0.197934688632896,
						0.0325174818781665
					],
					[
						0.0553151161803893,
						-0.99371691271637
					]
				]
			},
			{
				"biases": [
					-0.94938219128024,
					-0.97540997525172,
					0.13939185430804,
					-0.30440448121647
				],
				"weights": [
					[
						-0.64167774752695,
						0.726763638516578
					],
					[
						0.574574719388273,
						0.362359284881379
					],
					[
						-0.14535005213292,
						0.802688075567894
					],
					[
						-0.73461817795326,
						-0.88269316848461
					]
				]
			},
			{
				"biases": [
					0.0599054988673162,
					0.753480525998162,
					-0.91013399934909,
					0.951258099705678
				],
				"weights": [
					[
						-0.52215099874179,
						0.56089421251332
					],
					[
						0.983028078077522,
						-0.75134075091961
					],
					[
						0.201333984526888,
						-0.09455541798512
					],
					[
						0.811159519863763,
						0.860407451850216
					]
				]
			},
			{
				"biases": [
					0.495815219896816,
					-0.19096147788026,
					0.245043677087212,
					0.540521197261893
				],
				"weights": [
					[
						-0.8599455735454,
						0.624635660433368
					],
					[
						-0.26928279768707,
						0.485852708654133
					],
					[
						-0.83016969639796,
						0.357283330421493
					],
					[
						0.917977056486321,
						-0.76623175459151
					]
				]
			},
			{
				"biases": [
					-0.38913029395251,
					-0.1389565679736,
					0.225212527992437,
					0.686082939790342
				],
				"weights": [
					[
						-0.52031278159475,
						-0.74100720131217
					],
					[
						0.14404297244901,
						-0.71399276322315
					],
					[
						0.282071984819518,
						0.33497118937958
					],
					[
						-0.56954659593289,
						0.592727459930773
					]
				]
			},
			{
				"biases": [
					0.556641968359329,
					-0.05464470223561,
					0.872715763640582,
					-0.58592816558777
				],
				"weights": [
					[
						0.220096330499501,
						0.832294120673997
					],
					[
						-0.59827014712033,
						0.142683201010779
					],
					[
						-0.72513814267245,
						-0.73433476884405
					],
					[
						-0.04641649364327,
						-0.05927194319627
					]
				]
			},
			{
				"biases": [
					-0.15567981941976,
					0.863696524660813,
					-0.68604941819081,
					-0.76644577341246
				],
				"weights": [
					[
						0.817833925640219,
						0.131481176096865
					],
					[
						-0.44287869659108,
						0.280694794828989
					],
					[
						0.926353878060678,
						-0.70358861885698
					],
					[
						0.760509416561195,
						0.35703752300771
					]
				]
			},
			{
				"biases": [
					0.241643150404054,
					0.796758769656213,
					-0.23428158865096,
					-0.15056435612938
				],
				"weights": [
					[
						-0.88604792468547,
						-0.38636069060078
					],
					[
						0.598640901115313,
						0.972645667709213
					],
					[
						-0.63404502252161,
						-0.14635485116687
					],
					[
						-0.64960438240138,
						-0.68733669400225
					]
				]
			},
			{
				"biases": [
					-0.64965139113079,
					-0.75758814811354,
					-0.80525435725422,
					0.0757288696410658
				],
				"weights": [
					[
						-0.91253872939685,
						0.856560754996477
					],
					[
						0.958189224586936,
						0.0526331222664063
					],
					[
						-0.02076947380563,
						0.272388433405667
					],
					[
						-0.16504060660058,
						-0.68732554509623
					]
				]
			},
			{
				"biases": [
					0.359773684062003,
					0.282397292555411,
					-0.23636737250476,
					-0.52276027032601
				],
				"weights": [
					[
						-0.27916924151444,
						-0.63026845930641
					],
					[
						0.0626323969171662,
						-0.4450168566052
					],
					[
						-0.05438200325827,
						0.557107797146355
					],
					[
						0.846543484063224,
						0.393967091165052
					]
				]
			},
			{
				"biases": [
					-0.6128934057879,
					0.522883999201906,
					-0.07816523597176,
					0.911619351430781
				],
				"weights": [
					[
						0.843487676815909,
						0.704866454872744
					],
					[
						-0.66969711705031,
						-0.87311443355056
					],
					[
						-0.37397149482797,
						0.00129492371727748
					],
					[
						0.26637605574981,
						-0.52295607027083
					]
				]
			},
			{
				"biases": [
					-0.06254338617886,
					-0.97331108082458,
					-0.23478024933699,
					0.422131448655509
				],
				"weights": [
					[
						-0.1176726111228,
						0.129055681850475
					],
					[
						0.186827455708008,
						0.932938221946708
					],
					[
						-0.12173499262309,
						0.497825149288663
					],
					[
						-0.55352483719599,
						-0.57414281292551
					]
				]
			},
			{
				"biases": [
					0.992610781701199,
					-0.05062741245471,
					-0.55617742796344,
					-0.44708144465358
				],
				"weights": [
					[
						0.855315924838782,
						0.254807697113634
					],
					[
						0.959147515523747,
						-0.33050912853354
					],
					[
						-0.30032945313348,
						0.465118418270813
					],
					[
						-0.50487334723932,
						-0.39436697043431
					]
				]
			},
			{
				"biases": [
					-0.88847378726277,
					-0.71103631682935,
					-0.64002821291248,
					0.502072546404478
				],
				"weights": [
					[
						-0.74307483050264,
						-0.28972056882756
					],
					[
						0.640043797488028,
						0.546733694163322
					],
					[
						0.623926183193155,
						0.209404677846736
					],
					[
						-0.6588188688449,
						0.845856540463347
					]
				]
			},
			{
				"biases": [
					1.00131762585544,
					-0.10669184948174,
					-1.01900279533185,
					0.946518527027002
				],
				"weights": [
					[
						0.0988490187465755,
						0.887837764601186
					],
					[
						0.464904415564754,
						-0.57320832626849
					],
					[
						-0.21648468158852,
						-0.95989712183791
					],
					[
						0.940340040468573,
						0.879135744184747
					]
				]
			},
			{
				"biases": [
					0.239236810341694,
					0.99200425886776,
					0.19419243668123,
					0.35548018763923
				],
				"weights": [
					[
						0.510765703034203,
						-0.02117763261769
					],
					[
						-0.32108094211776,
						0.862488894035685
					],
					[
						-0.6816783349733,
						0.788336800776745
					],
					[
						-0.53154074888297,
						-0.635467341005
					]
				]
			},
			{
				"biases": [
					-0.44733713491042,
					0.759347605278637,
					0.465931641188871,
					-0.8608406405899
				],
				"weights": [
					[
						-0.99875599745792,
						0.330969435477124
					],
					[
						-0.39211657464083,
						-0.97786585165105
					],
					[
						-0.27953502204604,
						0.120579031918837
					],
					[
						-0.39222310881702,
						-0.80255684440374
					]
				]
			},
			{
				"biases": [
					0.67143570651781,
					0.191587270678987,
					0.864913272295295,
					0.525256663881782
				],
				"weights": [
					[
						0.330566167002854,
						-0.98767737213746
					],
					[
						0.399894173368567,
						-0.01703650862
					],
					[
						0.743872119975426,
						0.928565216193852
					],
					[
						-0.39279338115027,
						-0.08133243004469
					]
				]
			},
			{
				"biases": [
					-0.21607542755794,
					0.207093423712635,
					0.819192026580057,
					0.189825820437864
				],
				"weights": [
					[
						0.974520628672598,
						0.655308352488135
					],
					[
						0.473951651143568,
						-0.30435139959421
					],
					[
						0.0482469383934921,
						-0.93419585858257
					],
					[
						-0.16049705959724,
						-0.63098064902029
					]
				]
			},
			{
				"biases": [
					0.595646394237195,
					-0.07569523775332,
					-0.91125349008292,
					0.77762095139759
				],
				"weights": [
					[
						-0.06828314912871,
						-0.9060931413602
					],
					[
						0.0647541659190278,
						0.451669114047512
					],
					[
						0.14080126726584,
						-0.72048153962245
					],
					[
						-0.09804887710093,
						-0.61100750212589
					]
				]
			},
			{
				"biases": [
					0.960644884658747,
					0.284217666398725,
					-0.13455189930582,
					-0.18473970109269
				],
				"weights": [
					[
						-0.85150350750467,
						-0.1717723090308
					],
					[
						0.622502859974917,
						-0.34769644873397
					],
					[
						-0.8840727433379,
						0.107959968763788
					],
					[
						0.958542549049054,
						0.790289631016799
					]
				]
			},
			{
				"biases": [
					0.961912936862386,
					0.982846258261661,
					0.728087025760302,
					0.932291488467268
				],
				"weights": [
					[
						0.0603012024530867,
						-0.55298443562635
					],
					[
						-0.24169277436842,
						0.113628921851982
					],
					[
						0.274770641745261,
						-0.23991061877336
					],
					[
						-0.66018887858858,
						0.445546097613946
					]
				]
			},
			{
				"biases": [
					0.979203513648829,
					-0.7794608749319,
					0.987214268447297,
					0.984603249891158
				],
				"weights": [
					[
						-0.17094219863014,
						0.207381721038373
					],
					[
						-0.32251205671745,
						-0.4153309258225
					],
					[
						0.702853572429815,
						0.979541707443011
					],
					[
						0.368896250900523,
						0.134604382912456
					]
				]
			},
			{
				"biases": [
					-0.62434418285114,
					0.733993679226536,
					0.492563784815316,
					0.824650405749962
				],
				"weights": [
					[
						-0.18884104157053,
						0.671593307151337
					],
					[
						0.825016104636178,
						-0.03546934667485
					],
					[
						0.35637172132683,
						0.489838205185656
					],
					[
						0.257670486907241,
						0.991367951123078
					]
				]
			},
			{
				"biases": [
					0.269290926343738,
					0.00825516045579444,
					-0.630366502679,
					0.967999406110494
				],
				"weights": [
					[
						0.16141431192067,
						0.457761584329192
					],
					[
						-0.30782685865675,
						0.256561523739176
					],
					[
						0.0400437079393436,
						0.3554789502469
					],
					[
						-1.00386861064325,
						-0.3600919583096
					]
				]
			},
			{
				"biases": [
					-0.58889715424946,
					0.440972711438301,
					-0.50198238208966,
					0.82622485302388
				],
				"weights": [
					[
						0.839156735716882,
						-0.23133612934422
					],
					[
						0.366120959486313,
						0.234749840140432
					],
					[
						-0.40929529313785,
						0.55631525034677
					],
					[
						-0.1142225051781,
						-0.27791396889497
					]
				]
			},
			{
				"biases": [
					-0.01518705063733,
					0.648021797180599,
					0.767339876151787,
					0.107503463827617
				],
				"weights": [
					[
						0.369283237164184,
						0.312164044282615
					],
					[
						0.810248729275525,
						0.377420264359728
					],
					[
						0.405387334213561,
						0.253389194643559
					],
					[
						0.188199729889292,
						0.0528444904047602
					]
				]
			},
			{
				"biases": [
					0.482738427059303,
					-0.46574729243631,
					0.745845730685473,
					0.374672560311161
				],
				"weights": [
					[
						0.463031414283692,
						-0.75184689224092
					],
					[
						-0.85239623814845,
						0.00297585955978648
					],
					[
						0.346772890065259,
						-0.47690352543318
					],
					[
						0.14686928272333,
						-0.37020144206629
					]
				]
			},
			{
				"biases": [
					-0.13445574240647,
					-0.85443190486981,
					0.0356250560969376,
					1.01674397396265
				],
				"weights": [
					[
						-0.30700664357572,
						-0.89186831130811
					],
					[
						-0.59291350883994,
						-0.3559881631577
					],
					[
						0.762838046606215,
						0.509877987627909
					],
					[
						0.242170522002686,
						-0.89837102949957
					]
				]
			},
			{
				"biases": [
					-0.81597472442194,
					-0.44452451568384,
					-0.11840262325696,
					0.874590529896791
				],
				"weights": [
					[
						0.350339377171418,
						-0.24679249280531
					],
					[
						0.179573500900999,
						-0.74215509057545
					],
					[
						0.18271993081694,
						0.647911809749292
					],
					[
						0.961169149679189,
						-0.80614693247367
					]
				]
			},
			{
				"biases": [
					0.199533367017297,
					0.42049012156027,
					0.183114547596047,
					-0.90870502244922
				],
				"weights": [
					[
						-0.44268700791752,
						-0.78168611760712
					],
					[
						-0.8675514677673,
						-0.57229495114175
					],
					[
						0.0984145358611536,
						0.215694105290299
					],
					[
						0.807959329983411,
						0.429574219294633
					]
				]
			},
			{
				"biases": [
					-0.65755868402331,
					0.435773961890209,
					0.156423893818139,
					-0.27686038802501
				],
				"weights": [
					[
						0.578657828439019,
						0.702640463478321
					],
					[
						0.885215609359465,
						0.973903754193258
					],
					[
						0.648078046634179,
						-0.42363141551426
					],
					[
						0.0610814091246984,
						0.201583839283789
					]
				]
			},
			{
				"biases": [
					0.0901589655594506,
					0.156459005905211,
					0.788751607677341,
					0.493340671527394
				],
				"weights": [
					[
						-0.71459131746979,
						0.681485791969025
					],
					[
						-0.51362667158899,
						0.272347094815365
					],
					[
						0.182504844616394,
						0.566998341840389
					],
					[
						0.498677693013097,
						0.687057939565552
					]
				]
			},
			{
				"biases": [
					0.564219154093278,
					0.997886469243155,
					-0.8005166357632,
					-0.30653007516687
				],
				"weights": [
					[
						-0.12657177188888,
						-0.21330023962479
					],
					[
						-0.28141345657466,
						0.467014047621925
					],
					[
						0.922477987046755,
						0.030823006606013
					],
					[
						0.586570268103755,
						-0.96045242067505
					]
				]
			},
			{
				"biases": [
					0.598839943206056,
					0.550992610989546,
					-0.53947112433527,
					-0.86717760700232
				],
				"weights": [
					[
						-0.16888450511758,
						0.785376545039918
					],
					[
						0.244749328994535,
						0.723522625001646
					],
					[
						0.256539529910882,
						-0.79586186288395
					],
					[
						-0.39922263692701,
						-0.71987515674076
					]
				]
			}
		]
	},
	"embedding_input": {
		"input": 23,
		"is_biased": false,
		"layers": [
			{
				"a": 0,
				"b": [
					0,
					0,
					0,
					0,
					0,
					0,
					0,
					0,
					0,
					0,
					0,
					0,
					0,
					0,
					0,
					0,
					0,
					0,
					0,
					0,
					0,
					0,
					0,
					0,
					0,
					0,
					0,
					0,
					0,
					0,
					0,
					0,
					0,
					0,
					0,
					0,
					0,
					0,
					0,
					0,
					0,
					0,
					0,
					0,
					0,
					0,
					0,
					0,
					0,
					0,
					0,
					0,
					0,
					0,
					0,
					0,
					0,
					0,
					0,
					0,
					0,
					0,
					0,
					0,
					0,
					0,
					0,
					0,
					0,
					0,
					0,
					0,
					0,
					0,
					0,
					0,
					0,
					0,
					0,
					0,
					0,
					0,
					0,
					0,
					0,
					0,
					0,
					0,
					0,
					0,
					0,
					0,
					0,
					0,
					0,
					0,
					0,
					0,
					0,
					0
				],
				"i": 23,
				"o": 100,
				"w": [
					0.0791880714778861,
					-0.10437744231539,
					-0.31655631612874,
					0.113050166452821,
					0.376268372618753,
					-0.36304623396028,
					0.146900480309465,
					0.0374199939376482,
					-0.26921871475089,
					0.369364374950554,
					0.436285556983252,
					0.109875447678065,
					-0.14463086414386,
					-0.31056350547549,
					-0.16784077582885,
					0.187959006412155,
					0.467457502110442,
					-0.1570055412243,
					-0.12863202200813,
					0.116230586215592,
					0.109870072805653,
					0.309418194525881,
					0.369934972291835,
					-0.22457607952307,
					0.0584404578446718,
					-0.04494241694962,
					0.341864782701961,
					-0.24365653803576,
					-0.00966725843847,
					0.0189142197829886,
					-0.44179131192063,
					-0.29312256536923,
					0.18969239522884,
					0.45075041118462,
					-0.20594885670258,
					0.0730187218554794,
					-0.19476170762237,
					0.188582287524965,
					-0.22631673124754,
					-0.37599221060311,
					0.35498951947775,
					-0.41045738914692,
					-0.4399102998698,
					0.387758351212159,
					0.321340126452486,
					0.360215775679954,
					-0.03927913881884,
					0.287216287520757,
					0.345232285564188,
					-0.07386645341383,
					-0.02271809254269,
					0.0565685639245903,
					0.0347406903029698,
					-0.11548811523371,
					0.436911687246703,
					-0.37516590159978,
					-0.10778343339335,
					-0.21860961970227,
					-0.19316289768223,
					-0.3907522546093,
					-0.00371335365615,
					-0.25830127835238,
					0.303975926130511,
					0.307885647528414,
					0.04851544327029,
					-0.30291825596821,
					-0.44039817631251,
					0.292886099420292,
					0.17388129032529,
					0.0111267399566704,
					0.379108210595898,
					0.144930026514524,
					-0.28760095694361,
					0.178870204193124,
					-0.04556797435227,
					0.284194463608183,
					0.0258452045082961,
					-0.18386608627844,
					-0.03727382875199,
					-0.25166977646496,
					-0.14072253292642,
					0.215054861248502,
					0.264624725802518,
					0.0491861715083773,
					-0.19388879471513,
					0.454360205360325,
					0.251845911199868,
					-0.49789258248419,
					-0.4090654481909,
					-0.17496329077416,
					-0.07915204350733,
					-0.34913787213781,
					0.0545313072575582,
					0.248603089177014,
					0.0945385445896327,
					-0.38819229914763,
					-0.39987216448034,
					0.173174430856949,
					0.441296903276956,
					0.0574943829299482,
					0.192084807604573,
					-0.49322614222645,
					-0.06354561623876,
					0.110142006397777,
					-0.11464179746747,
					0.167163874198714,
					0.499021000960664,
					-0.42060378064415,
					-0.48034484181765,
					-0.34717841737684,
					-0.04015217056427,
					0.0869907928976216,
					0.042305486127921,
					-0.10073642742975,
					0.00691670349092677,
					-0.38997803294383,
					-0.43294001165719,
					-0.42534981648078,
					0.358150148204151,
					-0.45015015445478,
					-0.20449743462998,
					0.444437583390444,
					0.479822579494339,
					0.316955693334586,
					0.453283553637454,
					-0.4234388692094,
					-0.32330874047521,
					-0.49444567886657,
					0.319261503345415,
					-0.06026013372113,
					-0.3851243143395,
					0.196510686922431,
					-0.11272005027365,
					-0.41935577296653,
					-0.29622059144198,
					0.100765471240469,
					-0.4996601529972,
					0.491262212884178,
					0.212831115832049,
					-0.35260831487059,
					0.213576821107739,
					-0.25936620546471,
					-0.2762048993572,
					0.204454936194212,
					0.10889772595009,
					-0.08357478365242,
					0.228619068159245,
					0.199418551746604,
					-0.44258819456948,
					-0.1772533638532,
					0.35231218180757,
					-0.12514524049242,
					0.0384631666555633,
					-0.49324490546794,
					0.30277368402499,
					0.00104691979132987,
					-0.20788614358246,
					-0.04709668898335,
					0.280113342766564,
					-0.22449627060537,
					-0.13769921454057,
					0.339445323309359,
					0.286160701241303,
					-0.19353133429018,
					-0.47719488635747,
					0.0957745158357033,
					-0.28057860421195,
					0.237218287270094,
					-0.43650528947539,
					0.293911422768049,
					0.379306433993979,
					-0.1735284018441,
					-0.3120743003296,
					-0.20551547169875,
					-0.2318916388022,
					0.178622130537357,
					0.246723186043322,
					0.0342273568184328,
					0.121023708100215,
					-0.22272111951391,
					-0.02680204470658,
					0.109872033568328,
					-0.35104220760463,
					0.475139990864692,
					0.377354971009476,
					0.236226032096658,
					-0.08808252497476,
					-0.14978327412952,
					0.490408131191893,
					-0.46097191012158,
					0.163607647730001,
					0.479102522737613,
					-0.30101919434913,
					-0.35534383138157,
					0.337033792993905,
					0.187745199992808,
					-0.32657649065557,
					-0.19483402388317,
					0.320509274516363,
					0.170655100907417,
					-0.2076865111891,
					0.0645043709142972,
					-0.24703334889236,
					-0.49229047674457,
					-0.07677259405287,
					-0.17782881514956,
					0.0758366137620119,
					-0.43123127581715,
					0.259588138289061,
					-0.00682566237274,
					-0.05153000871705,
					-0.00557336385997,
					0.0309256076905349,
					0.18013154124662,
					0.406947599263301,
					-0.33169537945383,
					-0.46174979608841,
					-0.32566359380787,
					-0.28943367390438,
					-0.44366712067009,
					0.446400273303226,
					0.165264565859337,
					-0.14637155807953,
					-0.45143749612491,
					0.365015468259322,
					-0.159364918598,
					0.161451667989876,
					-0.16525565179739,
					-0.315948046605,
					0.139241908093684,
					0.0337604420540626,
					-0.12060668712576,
					-0.18422126354301,
					-0.10568516833889,
					-0.24196349173639,
					-0.13046167425206,
					-0.21120381965514,
					0.049425550551205,
					-0.2887129397948,
					-0.2853311186427,
					0.450198235144539,
					0.00733157519767054,
					0.488934009340961,
					0.168169186913663,
					-0.07154382261867,
					0.383279802276419,
					0.222590907150016,
					-0.05261088815139,
					0.384498387279869,
					-0.22873971692292,
					-0.44924260237083,
					-0.07511887648606,
					-0.21325451289613,
					0.447902010211408,
					0.152944093767849,
					-0.37306843031526,
					-0.09814425280521,
					0.281230038404546,
					0.283509973288749,
					-0.24833640541065,
					0.199268668139129,
					0.378392017850729,
					-0.39165032283095,
					0.373544852566655,
					0.37867717696323,
					-0.25989478260946,
					0.200057377385928,
					0.441686268606938,
					0.115867587065198,
					-0.37897953996234,
					0.214540459228407,
					-0.34105422228157,
					-0.0209660648064,
					-0.39850608499207,
					0.129087237329044,
					-0.38347287325455,
					0.194934124696465,
					0.187491232608517,
					-0.19673383775155,
					0.262479301786778,
					-0.39680936990391,
					-0.00617330218145,
					0.439545734207693,
					-0.26942171159953,
					0.309343488180271,
					0.0175438419814784,
					0.200683887418923,
					-0.07236708910824,
					0.398071399032719,
					-0.07081916948902,
					0.430253444465852,
					-0.18240916713757,
					0.115499728825214,
					0.354236716141268,
					-0.09793132764051,
					0.225705567132916,
					-0.23605318426233,
					0.0792469395664656,
					-0.28456747739073,
					-0.18013347042154,
					0.0358932378783371,
					0.310691976698642,
					0.370755096546269,
					0.0624530637844718,
					0.0995370349569895,
					-0.47271443407432,
					0.0566470168578234,
					0.0684343299479055,
					0.163747732773518,
					0.0877987326068681,
					-0.28223899513531,
					0.454412942765943,
					0.153611654997355,
					-0.02301542103966,
					0.270262010017921,
					0.359717764827167,
					0.417324962771597,
					-0.20440576320663,
					0.331958368082934,
					-0.02181513642698,
					0.200000917207267,
					0.029554894778457,
					-0.10745317149796,
					-0.15670990605151,
					0.10388546606195,
					0.0788237717225447,
					0.214951979366307,
					0.274568217041072,
					-0.48253434526823,
					0.133500431398844,
					-0.35847680950513,
					0.387098794302015,
					-0.20021036836979,
					-0.32989365919766,
					0.493847617301977,
					0.0726271194377264,
					0.491297428390867,
					0.300288505622029,
					0.0641631533899637,
					0.329088707608681,
					-0.22451528458495,
					0.0423841156943101,
					0.036716255675641,
					0.388504615397741,
					-0.31055231011653,
					-0.02399912835184,
					0.369415419069223,
					0.408241011573686,
					-0.37787409528909,
					-0.05712351816942,
					0.253129460728394,
					-0.22236169956415,
					0.0537579745238879,
					-0.30115567980138,
					0.469916870715592,
					-0.0168861473009,
					-0.37245374911543,
					-0.12045844157832,
					0.227928317214321,
					0.198427060758387,
					0.337330062298417,
					-0.47040650507168,
					-0.41677177057899,
					-0.42305565306562,
					0.143937047082201,
					-0.05695631655388,
					-0.23834803776286,
					-0.04261597162321,
					-0.4356741129546,
					0.353656536126079,
					-0.23423481575908,
					-0.10385165086158,
					-0.06742602520185,
					0.399184046465649,
					0.387855702073422,
					-0.02108332765347,
					0.337387525038068,
					-0.32725727660805,
					0.021838556945744,
					0.40377600246771,
					0.0289232371261196,
					-0.02683339629044,
					0.381877950988045,
					-0.46532861760993,
					-0.4655318196899,
					0.495849535747461,
					-0.20688271838186,
					0.285355638589823,
					0.102631770811791,
					0.219310854748828,
					-0.19845755725704,
					0.0691910353613391,
					0.346416193945077,
					-0.24571889381445,
					0.100488848177192,
					0.492681358459946,
					-0.08779422499422,
					0.021328341115017,
					0.133588477886309,
					-0.35684076244152,
					-0.14638804108692,
					-0.48754040771643,
					-0.13945339668445,
					0.210814809382291,
					-0.27216646344837,
					0.413059702631299,
					0.471052864310499,
					0.236912465003692,
					0.178896150093951,
					-0.2434985156935,
					0.0458717262121069,
					-0.29486065171172,
					0.32656746138007,
					0.058768398925631,
					0.128638743619646,
					0.43781254441355,
					0.253221539198792,
					0.451928042149705,
					-0.30732747670233,
					-0.29364803051304,
					0.404615263581463,
					-0.01120292997813,
					-0.45930082622616,
					-0.31071027241185,
					-0.21693012722385,
					0.0154072051523248,
					0.395369328722463,
					-0.23870202680493,
					0.101117471639392,
					0.455822152158393,
					0.209231544241251,
					0.0309257360449412,
					0.361475874878223,
					0.248900663029511,
					0.0914967724049,
					0.351729121138991,
					-0.49107948536768,
					-0.2957727903152,
					0.0818925976534062,
					-0.48294989521013,
					0.253464033400488,
					0.0794795510231099,
					0.227884121917884,
					0.0312483942731371,
					0.243797908973747,
					0.0868006175438861,
					-0.36440510462706,
					0.408540282496145,
					0.00719319562525934,
					-0.46316520423936,
					0.360703507972168,
					-0.16362577106912,
					-0.04888555179178,
					-0.37700217584534,
					0.391343324213989,
					0.0969846013622756,
					0.088214755321343,
					-0.30498088604701,
					-0.48788063715704,
					0.180773976476715,
					0.198226276602049,
					0.348152316666324,
					0.169944104046079,
					0.480163225700755,
					0.231334912132833,
					0.0785203404977863,
					-0.18469018429013,
					0.170582209720843,
					0.0140014552433958,
					0.332092039626929,
					0.0807665343840581,
					-0.34255397762758,
					0.0705191274992777,
					-0.48916747366754,
					-0.31996328232638,
					-0.14248186071284,
					0.132019069897795,
					-0.43461340471847,
					0.228642787433969,
					0.417687407725483,
					-0.2422335924774,
					0.224065755432048,
					0.142190027411864,
					-0.27636977938983,
					-0.23552775626429,
					0.32374543906081,
					-0.02960414063319,
					0.0635912611226748,
					0.0916764036736988,
					-0.0369973698146,
					-0.10679172729507,
					0.19720434796925,
					0.399140300432894,
					0.263367060771388,
					-0.15309541513042,
					0.0826026747497666,
					0.0794984758848848,
					-0.33401119737213,
					0.304625721649034,
					-0.09897317123103,
					0.483447290163478,
					-0.02394974565136,
					-0.3793322957792,
					-0.08207105686787,
					-0.11072640535132,
					-0.41132533875208,
					-0.34152560876194,
					-0.23947704047876,
					-0.4794223239442,
					-0.12851847176308,
					0.245045251056919,
					0.366523918592525,
					0.489974468782247,
					0.32780604069109,
					-0.36751630776508,
					-0.06623481974329,
					-0.48901001977637,
					0.419798513383527,
					0.327558428640116,
					0.292186361261597,
					0.0540613290998631,
					0.345720743496427,
					-0.49937944332474,
					0.247577061076475,
					-0.39052461187065,
					-0.32191491639829,
					-0.37953256231448,
					0.277158698163967,
					0.0187983430704721,
					-0.01091793037671,
					-0.0108135281518,
					-0.44039693301905,
					-0.05724936218339,
					-0.0217980200068,
					-0.48970151405283,
					-0.09392425414201,
					0.180552445930858,
					0.347578881760899,
					0.199570010622197,
					0.41682905378013,
					-0.44110096198793,
					-0.44105076429589,
					0.276324195383283,
					-0.24118409554419,
					0.404307781672464,
					0.255466273404872,
					-0.026472160395,
					-0.06601208834037,
					0.141958517244301,
					-0.30093935724345,
					-0.06353280341276,
					-0.03713487486628,
					-0.36353136550445,
					0.166287478294565,
					0.26310322627058,
					0.3452839070545,
					0.375578090645876,
					0.138068071225862,
					0.02301818007719,
					0.321993274258172,
					0.306123837086996,
					0.270902479231958,
					-0.40055756371679,
					-0.46447903526898,
					-0.38813920583226,
					-0.17001068643967,
					-0.15459669789212,
					0.148751204402203,
					0.236271719344285,
					0.435730931986587,
					0.255254459712929,
					-0.19570932965352,
					0.2837612053793,
					-0.18001042988141,
					0.310150678398955,
					-0.34881805513851,
					0.141729926566161,
					-0.48729447861341,
					-0.40673815545321,
					-0.46019523296624,
					-0.30384094719961,
					0.386287638824126,
					0.0815619439286523,
					-0.22751437286513,
					0.0481258384899074,
					0.293470890966447,
					0.119673971936489,
					-0.30306909051166,
					0.172149836564896,
					0.209949569358006,
					-0.22497858763764,
					0.256474171887733,
					0.0893835866117755,
					-0.2266620881776,
					0.346275413066678,
					-0.18557706481397,
					0.380304291985,
					-0.25494558071095,
					0.154951395429781,
					-0.05074989336482,
					-0.34303609916244,
					-0.49492156395428,
					0.00125426453290323,
					-0.15135550458488,
					-0.46456505403591,
					-0.26761166874059,
					-0.28181041575615,
					-0.38153471126297,
					-0.1065382115756,
					-0.17185037731141,
					-0.14183332620027,
					0.455442183109584,
					-0.2179239990298,
					-0.26041898157083,
					-0.4446686639783,
					-0.11756924699893,
					0.346529294563532,
					0.228461963483603,
					-0.25069312602481,
					0.139292892892624,
					-0.35571255932083,
					-0.36107726969105,
					-0.41594964680117,
					0.00337152249545691,
					0.278082955476558,
					0.30927863242386,
					0.0718378769096807,
					-0.05808248444797,
					-0.31461646969201,
					-0.44458353478872,
					-0.30663244556504,
					-0.0663894614155,
					0.253547910858354,
					-0.2773886297359,
					-0.09092176111381,
					-0.25752715630498,
					0.253240819662484,
					-0.32877244049541,
					0.371458656656795,
					-0.48479676078499,
					-0.24563854104518,
					0.477570443187556,
					-0.25937081531878,
					0.0191157304125881,
					0.221685343292469,
					0.0440872395693397,
					0.172777850909489,
					0.230318699306482,
					-0.15603098776873,
					0.410573610476919,
					0.417162057450457,
					0.459653606451102,
					0.346853210262978,
					-0.22418402547436,
					0.369097747515384,
					0.332630764463974,
					-0.43474328948471,
					-0.19149256747795,
					-0.50281047872458,
					-0.24153309440968,
					0.229735667041891,
					-0.03409441625521,
					-0.2676010977774,
					-0.47200792282017,
					-0.23242616633663,
					0.296909016212737,
					-0.28393658390276,
					-0.40068428999367,
					-0.43480064151013,
					0.488566773373386,
					0.229879258920706,
					0.0153812062475375,
					-0.33951069697812,
					0.124764983391684,
					0.224776171063769,
					-0.29862505100303,
					0.13186865226581,
					-0.14939570143182,
					0.149313504590183,
					-0.22193206793977,
					0.373548815383955,
					0.247525090329502,
					0.316623426023424,
					-0.03001211227492,
					0.224795580600088,
					0.0944818327969669,
					-0.05630680556558,
					-0.47995136046933,
					0.232010046661571,
					0.315223586723647,
					0.43459565592577,
					0.0513954958512183,
					0.437115871788028,
					-0.36624811574261,
					-0.33903249081196,
					0.0353145339606575,
					0.0913155119938036,
					0.398665675624312,
					-0.22501727390768,
					-0.30707103325518,
					0.349806703146314,
					0.415353064851712,
					0.00460278283696391,
					-0.1240057797028,
					0.236533369397204,
					-0.02432840541509,
					-0.11012646877289,
					0.188260193495168,
					0.485307163086835,
					-0.04899369734707,
					-0.03627426619517,
					-0.26263940246106,
					-0.0484193598454,
					-0.02541941510828,
					-0.09902357408645,
					0.475710708647516,
					0.236725404090026,
					0.326536669603951,
					-0.46149611095286,
					-0.08952990545272,
					-0.45687669528179,
					0.346604940551554,
					-0.15084196630656,
					0.0435984249531631,
					0.302234198432405,
					0.0899961779522717,
					-0.24017575195223,
					-0.44110438859023,
					0.116029241186672,
					-0.44970528055447,
					0.093912597547249,
					-0.0621215512851,
					-0.39497285055129,
					0.477933017144936,
					-0.39871020167328,
					-0.46723853215715,
					-0.47070366887929,
					0.0317308160860266,
					0.0908496328788393,
					-0.08298721268093,
					-0.37146298608908,
					-0.10860016650146,
					0.132100221754504,
					-0.36415572962713,
					0.384960968404358,
					0.0536270991826238,
					0.262223142770953,
					0.101671529147736,
					-0.39156928911383,
					-0.39698989765196,
					-0.06044032875872,
					0.145443499610305,
					0.446916984701908,
					-0.41982787945568,
					0.0677306632573372,
					0.0493416617022729,
					-0.4144378622534,
					-0.11641831314823,
					-0.22007418787326,
					-0.31538204485958,
					-0.044618377617,
					0.38917815255293,
					-0.38552871638115,
					-0.35092001324303,
					0.336016745370519,
					-0.44769055777699,
					-0.49123559761247,
					0.0850708102611742,
					-0.23294935193262,
					0.234437832700742,
					0.455964561005129,
					0.15194279232664,
					0.307975530037239,
					-0.15050560991779,
					0.121044732459839,
					0.0704478000943247,
					-0.12593731044546,
					-0.42224486665608,
					0.0940371353253563,
					-0.23517297011858,
					-0.45591801554288,
					-0.06011886259924,
					0.108372708333348,
					0.174337645809976,
					-0.23066538089757,
					0.226663688144189,
					0.0268619483341208,
					-0.33644274882801,
					0.119381631560214,
					0.309544997456861,
					0.363196622655262,
					-0.43231388453183,
					0.379364738151294,
					0.0927811268236118,
					0.377295342640975,
					-0.04076122449038,
					0.0078827025461409,
					-0.14880902458279,
					-0.27091864258288,
					-0.32825503915549,
					0.158911168076261,
					-0.14414819229353,
					0.473968544735003,
					0.0353036669327302,
					-0.27210718867825,
					0.260067834015304,
					-0.05590876909595,
					-0.26611939225808,
					0.361804508479848,
					-0.05969253894593,
					-0.01991843632166,
					-0.14048559119803,
					0.126003684008317,
					-0.31156663987533,
					0.0761254052095411,
					0.481649465753003,
					0.100491230077881,
					0.121395038310054,
					-0.42714040066634,
					0.432523243870678,
					0.0376122552519487,
					-0.33773558965044,
					0.458157398057731,
					-0.2827297499074,
					0.176655348374194,
					0.0543378550232428,
					0.213317704564497,
					0.329577424379341,
					0.176966803343241,
					0.0785234491097772,
					0.0101125218853408,
					0.236781740109947,
					0.360880797964128,
					-0.4382903922896,
					-0.03905309991618,
					0.418782583037903,
					0.423536774300844,
					0.0544656089959481,
					0.327588146872769,
					0.0842433980398635,
					0.424397885022219,
					0.0524019804620812,
					0.388170885861424,
					-0.14967981644836,
					-0.32181102996713,
					0.186864842827448,
					0.204853235333283,
					0.374552697303278,
					-0.33511885406261,
					0.402895131688048,
					-0.27757008886549,
					-0.00501444390945,
					-0.24228927610735,
					0.386914716596403,
					-0.32600324431422,
					0.254103301087881,
					0.278341232391993,
					0.298706834043949,
					-0.01410526082431,
					-0.39702267965313,
					0.48223554084748,
					-0.2947266224285,
					0.0249917373856693,
					0.106510689513482,
					-0.47685955296438,
					0.44595360929453,
					-0.28186591553807,
					-0.10083430524561,
					-0.05922957630272,
					0.237117826685493,
					-0.3271803496291,
					-0.28598504672219,
					0.321210925827294,
					0.0234099721411632,
					-0.01119406326431,
					0.341843447470793,
					0.461093686692002,
					0.25070718261242,
					0.0592847268426902,
					0.432212161347691,
					-0.31642434521514,
					0.461127633251113,
					0.36715808361864,
					0.385906959523877,
					0.432145565836423,
					-0.31619103276629,
					-0.43637817988704,
					0.0777445618198191,
					0.404540704483252,
					-0.14517262340081,
					0.282500378172672,
					0.222485152288024,
					-0.19453436377575,
					-0.31251023502996,
					-0.21295199587518,
					0.278704279643492,
					0.0480631882574495,
					0.159054768189298,
					-0.13955627086226,
					-0.49732445667622,
					0.327513871959736,
					-0.12261873505776,
					0.14274103487642,
					-0.38113700347486,
					-0.38145456889745,
					0.151117027615865,
					-0.36306836241647,
					0.343114633109843,
					-0.03556191726726,
					-0.07668201357369,
					0.0996091979681017,
					-0.20126013607915,
					0.398326674496237,
					0.289493564372539,
					-0.4885237444992,
					0.453986234438122,
					-0.45873339920641,
					-0.27568201533434,
					-0.12556593801249,
					-0.2864424624138,
					0.158964131251937,
					0.157027433653901,
					-0.18019091280188,
					-0.02111416407778,
					-0.22295757269499,
					0.452601703745916,
					-0.30840109982075,
					-0.29480877148697,
					0.164231760946625,
					-0.33905787009552,
					-0.2305561688837,
					0.453025478537554,
					0.204174802915228,
					0.39210266683643,
					-0.05377097099771,
					-0.24074463369645,
					0.237426864671536,
					0.326442627770755,
					0.26527617772745,
					-0.37791161672877,
					-0.17101048879159,
					-0.24698900936909,
					0.178516235616279,
					0.249702171416403,
					-0.11575192295357,
					0.268291075101472,
					0.0746376467875418,
					0.169458418727281,
					-0.12716857330761,
					-0.40305958577826,
					-0.28559921816841,
					-0.08254670638963,
					-0.39313490155883,
					0.0158901384293275,
					0.462330043085991,
					0.168799006669119,
					-0.42909565798685,
					0.269838007214723,
					-0.44854258962489,
					0.127682576663903,
					-0.44898023699445,
					0.355234335070462,
					0.106045855383553,
					0.0592024753026698,
					0.0761728021895796,
					-0.38569338573304,
					0.220846689387441,
					-0.48058947682897,
					0.199816931455527,
					-0.4097271140375,
					-0.03433126305099,
					-0.49326142173217,
					0.089199939067345,
					0.261647618437919,
					-0.05626359117199,
					-0.31720799342874,
					0.287707956239984,
					-0.47507503572637,
					-0.1578744472898,
					0.406982467315435,
					0.460105227621411,
					0.374424634170806,
					0.212511620841067,
					0.306102181642463,
					0.475852470058218,
					0.47278498393501,
					0.0526803821728707,
					-0.43909395970843,
					0.218128868624445,
					0.454434805715743,
					0.237901756861584,
					-0.28149276644277,
					0.201562551860767,
					-0.21518980783538,
					-0.12116799380803,
					0.415852560446929,
					0.31205240186865,
					0.424068922074407,
					0.496244929882918,
					-0.4888158360457,
					0.117049845151737,
					0.478532215126662,
					-0.47577223585637,
					0.461649482753353,
					0.120845871936139,
					-0.23468824949043,
					0.428017697112418,
					0.374968286832903,
					-0.06894587625317,
					-0.49508571352604,
					0.237756282093312,
					-0.33178030830207,
					-0.07988621048656,
					-0.02402241681482,
					-0.01279345871547,
					-0.2754486451422,
					0.183250992410636,
					0.466785566808161,
					0.178337361347331,
					0.444498077917585,
					0.481709704719174,
					-0.40079062979793,
					0.266741101588519,
					0.396890123522114,
					0.48627193471177,
					0.249841257516074,
					0.389389054691414,
					0.294042643801338,
					-0.15611643455216,
					-0.28829681576095,
					-0.03266950671891,
					0.296793362297829,
					0.0887491005381739,
					0.172466434428525,
					0.223549581880666,
					0.384658366876376,
					0.267905400189165,
					-0.19001188253841,
					-0.1966969746172,
					-0.4818386205677,
					-0.23168045743888,
					0.27094856955321,
					-0.25111569265341,
					0.28569441566472,
					0.112283460221749,
					-0.08649533800013,
					0.0987336815709838,
					0.28891944411627,
					-0.09970832215408,
					-0.34270386070245,
					0.140657401265168,
					0.0156284658384019,
					-0.32594646782914,
					0.118853257974336,
					0.458565285743979,
					-0.42938349109694,
					0.403076693534148,
					-0.31918352964881,
					0.291983993492314,
					0.133369082476147,
					-0.00388878526108,
					-0.17592733575438,
					0.335600857593669,
					0.292402174038164,
					0.137205397214895,
					0.4331371796308,
					-0.24930417407437,
					0.468439273471217,
					0.32587648427505,
					0.278560964022243,
					0.354468338877356,
					-0.11689147806644,
					0.498986449783214,
					-0.454119431704,
					0.00947967354529355,
					0.485630158847646,
					0.195424069718174,
					-0.28968471119349,
					-0.06193629511856,
					-0.49461442747568,
					0.123978734232625,
					-0.08535362770296,
					0.0722563143240256,
					0.483685205783678,
					0.422977116312937,
					0.288625519481456,
					-0.28861761263783,
					0.443400693461222,
					-0.44285831010922,
					-0.04575302750245,
					-0.23484294760033,
					0.456136531752932,
					-0.16046653532275,
					0.384297711292218,
					-0.11023622517264,
					0.217072363541455,
					0.334831977584251,
					-0.47182438105693,
					0.492439752571541,
					0.303696543175542,
					0.318418182261165,
					0.0995447063537879,
					0.146664542606269,
					0.468212550289618,
					0.150092461928651,
					-0.26477686512618,
					-0.41616795545104,
					-0.36721285638151,
					0.246733486843783,
					-0.2079411081084,
					-0.26423564341291,
					-0.36184612132577,
					-0.2363668025289,
					0.165492574574394,
					-0.1642327033593,
					0.441595171619319,
					-0.37523156951127,
					-0.47004176069338,
					0.437406693142439,
					0.299965442774881,
					0.00192962922211559,
					0.223345696407227,
					-0.08504643830182,
					0.140459880228966,
					0.256740754757651,
					0.0528041302259651,
					0.426360115119772,
					0.104450894948959,
					0.0700323246133014,
					-0.41640455351782,
					-0.24548363876526,
					-0.12911051387042,
					0.220498107420758,
					-0.19905208745493,
					0.426853743520233,
					-0.26186594489382,
					-0.00463593901356,
					-0.45065569824718,
					-0.46025793021599,
					0.345005756313015,
					0.46944950538893,
					-0.29968522422675,
					0.328683824200452,
					0.459009407659545,
					0.245564762325808,
					0.272526536741021,
					-0.04029232754925,
					0.423285405241111,
					0.481513039296597,
					-0.33326374836354,
					-0.15927739305957,
					0.275598760254667,
					-0.43722476098046,
					-0.24944528637893,
					-0.00693361341995,
					-0.42125781127598,
					-0.19162016956052,
					0.479731529535099,
					0.28199299316493,
					0.457318472392349,
					0.38955483632638,
					0.28461809758533,
					-0.35360964294821,
					0.212293873483754,
					0.46451733071161,
					0.143760290793647,
					-0.34190652557592,
					-0.17487122389657,
					0.243103606606771,
					-0.31811861127954,
					0.26107681836279,
					-0.21645442845523,
					-0.38375248995817,
					-0.40700875246942,
					-0.13935158166814,
					0.248444041837748,
					-0.39533570374627,
					-0.24850357647027,
					0.075358189536907,
					0.203149272283346,
					0.479326890549532,
					0.208144446256036,
					-0.42981558657528,
					0.435120447858967,
					-0.3084963781487,
					-0.23579739093146,
					0.405007620875472,
					0.271278125689204,
					0.0228246664332418,
					0.137894750753231,
					-0.14373065861693,
					-0.0139239730108,
					-0.45083706499185,
					0.0262970294690958,
					-0.29818807163787,
					-0.43042226033244,
					0.050042822865226,
					-0.00576631985149,
					0.378507597335486,
					-0.07159211450678,
					-0.14377022487625,
					-0.3513818995275,
					0.270894093494507,
					0.13477950355613,
					0.253891563004659,
					0.139896264899326,
					0.413977383449564,
					0.115220800257417,
					-0.44771777449169,
					0.457726620110091,
					0.294738829530801,
					0.152249834074679,
					-0.13682783861974,
					-0.31398634004062,
					0.380977058856415,
					-0.26316731349204,
					-0.44048268441751,
					0.314236758094502,
					0.401335743474064,
					-0.35935736470368,
					0.486473813550707,
					-0.38829430548328,
					-0.23699457003038,
					0.447594657249186,
					0.194339430741283,
					0.12963328874244,
					0.46257820111539,
					0.219190722030096,
					-0.1401938689082,
					0.411870169562755,
					-0.29623517312119,
					-0.21140188192716,
					-0.09471704303036,
					0.398213372769335,
					0.0141726970719907,
					0.422556838890523,
					-0.05169183289145,
					-0.21575486402094,
					0.297608173488279,
					0.100536475418535,
					-0.13324812924671,
					0.171871421619785,
					0.0525353625717344,
					0.211372993632119,
					0.105311106149198,
					0.491201278333391,
					-0.20407449341077,
					0.220910609781635,
					-0.14313936134649,
					0.0960609114320594,
					0.0698676506791027,
					0.478542770157625,
					0.14560705476516,
					0.0422582971622326,
					0.0984143987386175,
					-0.30033298230357,
					0.480021290393676,
					0.279370060065759,
					-0.42129336647466,
					0.132655069041399,
					-0.12510134209385,
					-0.03560070347483,
					-0.1983488661279,
					-0.15051419665553,
					-0.03775609621528,
					-0.08107521442625,
					-0.17206183830183,
					-0.06825738751086,
					0.0294135588197845,
					-0.2035967882905,
					0.294697572055325,
					0.37852997776626,
					-0.36785720393068,
					-0.49790699974676,
					-0.10917922012565,
					0.420001522529364,
					0.14655068093008,
					-0.41383630598913,
					0.192064137018753,
					-0.09527191427612,
					0.343329560090134,
					0.43877365097134,
					-0.42332366714932,
					0.321106567855693,
					-0.47112420480179,
					0.0431383099697197,
					0.0715311995328077,
					0.218652834936814,
					-0.26727053194243,
					0.314840175726359,
					0.101484744672922,
					0.0433965426310773,
					0.222159875215222,
					0.21492463713323,
					0.361321005846055,
					0.346468652422847,
					0.321877803862495,
					0.420262554264516,
					-0.30464150794001,
					0.0857437509392566,
					-0.34446044366369,
					0.174812803855801,
					-0.36435771237134,
					-0.20493490013025,
					0.422953559344785,
					-0.37572174712949,
					-0.11367925910542,
					-0.44169151887763,
					0.299994116847426,
					0.186996455165429,
					-0.3868014062145,
					0.262660035063623,
					0.0698627600330933,
					0.495340290276398,
					0.435538914596404,
					0.301345389131541,
					0.0180488834784863,
					-0.44733446137622,
					-0.3030891215273,
					-0.07736745011496,
					-0.18893076390864,
					0.111029719930705,
					-0.22243587840373,
					0.291605474645091,
					-0.22531545430577,
					-0.49654277095338,
					-0.05562206570887,
					-0.30001240145335,
					0.212828228107766,
					0.194070060598668,
					0.174620804583128,
					-0.00740336200916,
					0.0525990855101895,
					-0.1269962261921,
					-0.09529887502652,
					-0.4633632029423,
					0.264774592195951,
					0.431557870964688,
					-0.45794538523758,
					0.146958148873603,
					0.296025073763495,
					0.486319593656071,
					0.192802741281347,
					-0.28400854993472,
					0.119081006389559,
					0.0769920624237003,
					-0.0390448883134,
					0.0877828520206431,
					-0.05992628342353,
					0.234271718819831,
					0.380240983228755,
					0.259890329081511,
					0.0904778608489279,
					0.362074721053989,
					0.00780868840754112,
					0.111558055255362,
					-0.31345647251501,
					-0.35880871147028,
					0.459316994065901,
					0.470533589631628,
					0.0776342758425768,
					-0.27322937732566,
					0.495533744350444,
					-0.37928138539224,
					0.0550709076344107,
					-0.01362208779904,
					-0.06774180760555,
					-0.07482919481732,
					0.077756477281066,
					0.0331817133095808,
					-0.21185802500525,
					-0.01350454129398,
					0.16285536509057,
					-0.30458747315288,
					0.437115127915235,
					0.172419773940778,
					0.456947380695986,
					-0.32658140589056,
					-0.11710235428506,
					-0.4462173121316,
					0.272345971524196,
					0.0233899095502681,
					0.401874775675191,
					0.214054306420886,
					-0.48783719345722,
					0.160058022338246,
					-0.2266530835322,
					0.472668673319918,
					-0.34488565556814,
					0.390537340824865,
					0.025446538228646,
					0.140188613205989,
					-0.34445219820377,
					0.00017339857115483,
					-0.33609998487691,
					0.0156346665822699,
					-0.47001913744627,
					-0.45592631600843,
					-0.11084001534818,
					-0.19108773113485,
					-0.37803890218403,
					0.189955125619578,
					-0.43516495227025,
					-0.40483711534112,
					-0.36666502991822,
					0.314326554830738,
					0.361580101829591,
					0.202567696442843,
					0.0849798578305955,
					0.428793776675471,
					0.497777911961849,
					-0.44999029978227,
					-0.32558301674212,
					0.321187901731565,
					-0.33046139331024,
					0.0658602462616499,
					-0.19482878153761,
					0.227763205556409,
					0.246179522290736,
					0.260479348753637,
					-0.08094239397887,
					0.167628770960004,
					0.289633194095941,
					0.412642669915552,
					-0.40323777029463,
					0.090623170339595,
					-0.39824245849456,
					0.171384371348683,
					-0.1627134922959,
					-0.13913949077983,
					-0.04139855799987,
					0.254063255416488,
					0.0109078511920402,
					-0.28412142258756,
					0.0495880178411665,
					0.323438158540874,
					0.163397354071581,
					-0.25279609549993,
					-0.03919534576525,
					-0.04415089812724,
					-0.18909003897606,
					-0.41122877848172,
					-0.25560827330447,
					-0.45775928644749,
					-0.25175332053391,
					0.392645675594264,
					-0.07482131178538,
					0.249945198312008,
					-0.47448015488302,
					-0.19009530258262,
					-0.28849955341974,
					0.198409378088221,
					0.146141906795375,
					0.00523383307465475,
					0.173062524400454,
					0.217046460266216,
					-0.12588296270977,
					-0.2567917047793,
					-0.37720205895667,
					-0.28511011087817,
					0.453464175928887,
					-0.11380870597716,
					0.167030377243453,
					-0.41131690185399,
					-0.16242425139509,
					0.111563828323804,
					-0.37592773297186,
					0.484887439784712,
					0.34200448345945,
					-0.27526078772108,
					0.025614307721875,
					0.414825909875927,
					-0.28029050148766,
					0.0239624032578158,
					0.431550841261492,
					0.141268720097656,
					0.305215177872064,
					0.396299014121657,
					0.0462779525455315,
					0.122804508577785,
					-0.28067308510573,
					-0.16164818719779,
					-0.3864836037453,
					0.397630455104595,
					-0.40289553353165,
					-0.31971895620491,
					0.391269057504756,
					0.0873902170116849,
					0.347772526838157,
					-0.26685168295781,
					-0.0918902347982,
					-0.05120151257499,
					0.47841967011807,
					-0.11418096324649,
					0.0821677478529491,
					-0.46107431643358,
					-0.18394115318552,
					0.442277352158615,
					-0.28798328506344,
					-0.42331918637994,
					-0.38030625500816,
					-0.25232852770187,
					0.247500088200454,
					-0.31518908989525,
					0.230289534106377,
					0.408757383550731,
					-0.04180722525756,
					-0.24110462007958,
					0.385486408955967,
					-0.46764515390145,
					-0.29085068613259,
					-0.14642483957487,
					0.282932758229263,
					-0.10252321703092,
					-0.38252368866743,
					-0.03001180562111,
					-0.15856576080964,
					0.295193764236424,
					0.213710401870972,
					0.196018059565364,
					-0.35080338978169,
					-0.05511282016746,
					-0.46945300873668,
					-0.28525237436376,
					-0.26532860774673,
					0.240031415460795,
					0.17323944437449,
					0.175942337447957,
					-0.26783458335256,
					-0.19719970565706,
					0.485249840699858,
					0.350389562954571,
					0.470433679009872,
					0.337022609728374,
					0.256639062360519,
					-0.35796641570598,
					-0.01157405774064,
					-0.28912281948973,
					-0.33167192145229,
					0.0660558513908968,
					-0.29635343145724,
					0.128554734696661,
					0.331700496757092,
					-0.46474925541132,
					-0.11226637522936,
					0.182084391043381,
					0.377710243657564,
					0.406799333592628,
					-0.34210937782995,
					0.246950870427547,
					-0.39654470129772,
					0.0359218303414812,
					0.427210555674607,
					0.25995601665719,
					0.372017081743315,
					-0.32154972974138,
					-0.39174638598481,
					-0.23824122147957,
					0.3644936766107,
					-0.48893872933519,
					0.0818639120465472,
					-0.44009679669492,
					0.169096700373005,
					0.0723588335623456,
					0.381900761135624,
					-0.00364382189099,
					0.171862571673458,
					0.124990006605435,
					0.167421196909144,
					-0.31097053895366,
					0.00810317282476025,
					-0.46120880576133,
					0.205663571991108,
					-0.4106964037433,
					0.10093063867349,
					-0.29518058549888,
					0.210178522482144,
					-0.30606778513983,
					-0.33745293505852,
					0.260242413072032,
					0.48000373353609,
					0.0990925563951147,
					-0.40562763079519,
					0.199488129588718,
					-0.40492766135928,
					0.0594280879868309,
					-0.39159116054116,
					-0.15203647645813,
					-0.03019617587205,
					0.345800965529044,
					0.261416105162752,
					0.249498309766953,
					0.450547039517757,
					0.100755760330031,
					-0.41189097491957,
					0.151178283488618,
					-0.38606806296955,
					-0.48476178651492,
					-0.29615084860316,
					0.248977516786482,
					-0.05071868642675,
					-0.1892453378846,
					-0.47514713931185,
					0.436667484616358,
					-0.12333557498194,
					-0.20753112804419,
					-0.46054801609104,
					0.371808919788922,
					0.143562647478847,
					0.126811170723114,
					-0.37931284254592,
					0.120695949002988,
					0.446889144885237,
					-0.42381821911357,
					-0.47467962034744,
					-0.31317990460169,
					-0.49805351914287,
					0.181673733328287,
					0.0336051484808445,
					-0.26913059304821,
					0.465136078331903,
					0.072979191108864,
					0.157994314586774,
					-0.28159281399711,
					-0.22363683343019,
					-0.46939163996284,
					-0.25479893736644,
					-0.14892663540084,
					-0.03340182333277,
					0.062291076736247,
					0.113714778052401,
					-0.10696306669649,
					0.0549049889133615,
					0.444488349675725,
					0.142473957450434,
					-0.15616762043103,
					-0.05730782739546,
					-0.12878727220858,
					0.0356102719431539,
					0.360737957138209,
					-0.42371821175291,
					0.04180542345689,
					-0.30450205868355,
					-0.17304504309581,
					-0.29981918989346,
					-0.03803909776357,
					-0.00190941570061,
					-0.30767680775844,
					0.260763200561789,
					-0.39320841746457,
					0.102188023995078,
					-0.15722770642073,
					-0.21815988104128,
					0.256901441762507,
					-0.42597582499332,
					0.0297521805869961,
					0.203230709485805,
					0.423936976838106,
					-0.19822349366963,
					0.494680416884423,
					-0.08885744968119,
					0.148237936869475,
					0.310928657451005,
					-0.1347722014039,
					-0.05000597472746,
					-0.01210259886564,
					-0.02894493100908,
					-0.26170864777673,
					0.388242904609336,
					0.191724965293779,
					0.0479519255348671,
					-0.1061573683173,
					-0.14251981273928,
					0.0509543635742383,
					-0.26791330415684,
					-0.0186552758534,
					0.383475646387234,
					-0.15261689019568,
					-0.38153524865614,
					-0.33592143292874,
					0.00397513933734417,
					0.286828588497682,
					0.281603653800917,
					0.156615694123381,
					0.0367966337473775,
					0.495657503726413,
					-0.18205588880667,
					-0.22300663364288,
					0.0826985742342294,
					0.430896317552758,
					0.109480673994623,
					0.354719265018816,
					-0.23145488754536,
					-0.05224168716082,
					0.143113505076546,
					-0.04702967423486,
					-0.12446824356481,
					0.488604190853601,
					0.145661169558711,
					0.0348296638295875,
					0.257462434606581,
					0.0728921967901444,
					0.0476259756175971,
					-0.21465254776122,
					-0.49133136693836,
					-0.06527056788306,
					-0.43611011937231,
					-0.21596536962785,
					-0.02213522630284,
					-0.37412929557301,
					0.139167162344432,
					0.319383667594827,
					-0.03492384503677,
					-0.28152087035924,
					-0.0559296519052,
					0.440867938427119,
					0.339227523311273,
					0.169084388967785,
					0.237593710316033,
					-0.48558659291759,
					0.067103490727851,
					-0.15908619686328,
					0.299196074551197,
					-0.00115737778982,
					0.00914135214986567,
					0.00582789013992135,
					-0.23584657711707,
					-0.17389561750905,
					-0.18602327688618,
					0.291633792605281,
					0.210015915097634,
					0.271394121393934,
					0.299726347924705,
					0.00535663599225733,
					-0.30535655492163,
					0.26390147388913,
					-0.28335703503079,
					0.313025778973798,
					0.241049978352025,
					-0.37217838684863,
					0.381923863586267,
					-0.08947119346087,
					0.332119460743539,
					-0.19385861796243,
					-0.04673306873254,
					0.140881712204176,
					0.446488438935632,
					-0.01083650990689,
					0.444466716144039,
					0.100023086103182,
					0.285997752410796,
					-0.20276740094843,
					-0.1340033922325,
					-0.06824608639433,
					-0.390591643374,
					-0.13147914552501,
					0.497155309475516,
					-0.47427614181403,
					0.312210553229031,
					0.353722569102284,
					0.450579116377342,
					-0.25111938097544,
					-0.0232568323831,
					0.3724230160531,
					0.192721306656935,
					-0.10276449266399,
					0.339124327777395,
					0.379281626229802,
					0.167191903559023,
					-0.17815138304877,
					0.162398623503494,
					-0.03848151114696,
					0.0296208758690214,
					0.463130774645166,
					0.118459418583415,
					-0.23574070918621,
					0.492681012339651,
					-0.26779762022805,
					0.0697945851776961,
					0.458840181760084,
					-0.43110018836382,
					0.413470243672539,
					0.0873844561636024,
					-0.16879101400543,
					0.366379488875337,
					0.00743737898022773,
					-0.29848894094254,
					0.030608453496507,
					-0.46567652372892,
					-0.4901896382707,
					0.268478385570236,
					-0.46061947447401,
					0.478691258045127,
					-0.48660452741186,
					0.265215366520149,
					0.337589847104459,
					-0.09913101350669,
					0.182770646527579,
					0.119007137511258,
					-0.04316075105753,
					-0.17564997651185,
					-0.30855288250755,
					-0.04494231401362,
					0.375504334932739,
					0.258151628145928,
					-0.04000191441119,
					-0.20873250239175,
					-0.10793984243332,
					0.0564190968821253,
					-0.11956231475114,
					0.257895978585341,
					-0.14749465442686,
					-0.3420105322724,
					-0.355022712991,
					0.141917792766181,
					0.485658023734918,
					-0.25476834977989,
					0.179012691305365,
					0.171277286092986,
					-0.45896902601644,
					0.161033681998399,
					-0.46057720165935,
					-0.3240950346697,
					0.476937816712996,
					-0.29590984103128,
					-0.00216332204023,
					-0.11333395737923,
					-0.41065044354101,
					0.433714006043482,
					-0.28112914271549,
					-0.18406538093358,
					-0.37173227693527,
					-0.4447971081587,
					-0.38254150993596,
					0.133508163990727,
					0.366706204056683,
					-0.25084534847308,
					0.422098317567948,
					-0.07188306658409,
					-0.18575371290641,
					0.0295530341752136,
					-0.27720707721919,
					-0.23122102513266,
					-0.12835984744931,
					-0.31593070202571,
					0.31247672363643,
					-0.02237173767049,
					0.195332421906094,
					-0.27819589851797,
					-0.2703773805674,
					-0.07733792629511,
					-0.15693959385256,
					0.282441951041777,
					-0.31870828858109,
					-0.4123860193446,
					-0.09335098355798,
					-0.23244665168206,
					-0.30247959101759,
					-0.11058576994931,
					0.0473349914787365,
					-0.34734521250116,
					-0.19629493138137,
					0.0866671429046727,
					0.177590976056523,
					0.385277892300582,
					-0.28410849501963,
					-0.39478449913214,
					-0.18541101869183,
					0.15441325952294,
					-0.07513031255479,
					-0.21693574073852,
					0.195447128652061,
					-0.28412761888233,
					0.0531975513270119,
					-0.08951247681497,
					-0.08324135114976,
					0.398624052750466,
					-0.38064402853205,
					0.415161154913037,
					0.312987303078698,
					0.0752753488230574,
					0.204057000674203,
					0.00934247344804506,
					-0.22411876879043,
					-0.295226818959,
					-0.25967522583748,
					-0.0577307819104,
					-0.3943275386291,
					0.0681287595805408,
					-0.0077316119747,
					-0.17412787420511,
					0.222729506737728,
					-0.04038679951572,
					-0.48276142958363,
					-0.05976500624199,
					-0.31922361719713,
					0.200479023356132,
					0.51722516075682,
					0.427369281367051,
					-0.09168122719618,
					0.464804897792139,
					-0.58163594504873,
					-0.29621584646861,
					-0.33679147432045,
					-0.10738465475297,
					-0.44352921256075,
					0.292127017736786,
					0.372190900837797,
					0.277393054173466,
					0.200450072667305,
					-0.32251675772102,
					-0.22533207309976,
					0.314345073212558,
					0.281756675383096,
					-0.39595987553675,
					0.271019145579648,
					0.289881739927122,
					0.251984769955763,
					-0.3134546316563,
					-0.01698753980687,
					-0.37350390810695,
					-0.3348654431223,
					0.314761427741291,
					0.138583154079742,
					0.214105123830617,
					-0.29873143668388,
					-0.27567297821593,
					-0.23284890861351,
					-0.39287644677606,
					-0.30456316018176,
					-0.33898421212114,
					0.252219672069062,
					-0.49277511532553,
					-0.38268958431885,
					-0.18430505971529,
					-0.41191254670791,
					0.0500235120022939,
					0.0589404692320957,
					-0.1043939342249,
					-0.08723735776216,
					0.496691341924412,
					0.0792381572068208,
					0.423845275331001,
					-0.26319210544117,
					0.203268456029356,
					0.357023221760417,
					-0.49520048512139,
					-0.39724375465878,
					0.211522811234175,
					0.266236215161275,
					0.486712432184274,
					-0.13480769975763,
					0.249648106606876,
					-0.19356781145318,
					-0.26883078759392,
					-0.27517101494473,
					-0.4348374392565,
					-0.21512000474334,
					-0.26956137724257,
					-0.34796103905144,
					-0.26072803156205,
					-0.14493680649736,
					-0.33337794693183,
					-0.31354751070499,
					-0.45219971177579,
					-0.22709648180054,
					0.393601444985948,
					0.170856016915562,
					-0.31499297350284,
					0.244661192265678,
					-0.45687244457778,
					0.412605709408034,
					-0.02543274417472,
					-0.36741751360908,
					-0.00926074565259,
					-0.27465493291217,
					-0.48121557981345,
					-0.28443508716462,
					0.205257397627138,
					-0.04537783332843,
					-0.27149397628179,
					0.0530535255344423,
					-0.24287447269594,
					-0.29165643579831,
					-0.12069176697045,
					0.336315348441091,
					0.25433412178706,
					-0.21282219403702,
					0.377897858555428,
					-0.1238006094591,
					-0.18730197305331,
					-0.10649098368796,
					0.387115885328691,
					-0.0758709901653,
					0.261824824990932,
					0.22908841834523,
					0.23261419127097,
					-0.43817445372202,
					0.411160841641752,
					0.268382180417492,
					-0.19286782928094,
					-0.23327456395273,
					0.0767228006193047,
					0.00450940525075916,
					0.249158849280929,
					-0.47049818395105,
					0.445409466626648,
					-0.49157669035677,
					0.384691729453738,
					0.0966339179909642,
					0.499836218999681,
					-0.34574376650359,
					0.0607984632867998,
					-0.12436184406659,
					-0.17467362793517,
					-0.15484920825205,
					-0.3295962657093,
					-0.08105740373736,
					0.400237364245214,
					0.218399683466652,
					-0.12884235742399,
					0.344851134699149,
					0.461780625683916,
					-0.47031761862559,
					-0.32249967716663,
					0.381871107549522,
					-0.17686990008676,
					-0.18714853517167,
					-0.02887484830941,
					-0.41144872508562,
					-0.26747529777582,
					0.121410061869867,
					0.475916771766696,
					0.201492868763958,
					-0.35200008553654,
					0.384395652373893,
					0.271559347786119,
					-0.11568389419861,
					-0.41974412619266,
					0.477562076227858,
					-0.10057267993247,
					0.440078920361819,
					0.110603029468371,
					-0.19996222272858,
					-0.0505959807555,
					0.404141775153681,
					-0.2119633638475,
					-0.48634052149346,
					-0.49535857996961,
					-0.36502365745599,
					0.44476923044959,
					0.0616817171915525,
					0.2100408752156,
					0.247077269774561,
					0.413817532415436,
					-0.37887955882856,
					-0.31708692910013,
					-0.2417247526335,
					0.278452057201249,
					-0.02255744975217,
					0.487006629404452,
					-0.10079525126908,
					0.144218918261728,
					0.310202043791088,
					-0.11874588217778,
					-0.45506184371513,
					0.307803437792769,
					0.363122900997099,
					-0.18817526390246,
					-0.09955056719476,
					0.159087023522146,
					-0.12393806558613,
					-0.28179058534424,
					-0.05035485111508,
					-0.19815868973894,
					-0.42249485401014,
					0.0983597388863401,
					0.0767927555889957,
					0.465508703808747,
					0.482855505291003,
					-0.39903634099896,
					-0.03793404804838,
					0.335985388776428,
					0.388501271444245,
					-0.14051682122268,
					0.215835381486932,
					-0.3577975929875,
					0.195877885598434,
					0.145849870394657,
					0.384266813879427,
					0.0743629710773984,
					0.0118095344676061,
					-0.15448500015051,
					-0.39716466713244,
					-0.28532936427973,
					-0.49540205785306,
					-0.3534044999116,
					-0.26752542769883,
					0.341313546262086,
					-0.23533571590365,
					0.362078776692131,
					0.442522547839846,
					0.293877076524734,
					-0.36833789795056,
					-0.40573654303052,
					0.141187861000811,
					-0.29373339781186,
					0.397046423499217,
					0.413058144829336,
					-0.32416908779341,
					0.441576866867511,
					-0.27751457152613,
					0.322555738456726,
					-0.48013581719927,
					-0.08111444701526,
					0.0249670186334598,
					0.104421144217753,
					-0.32926765805346,
					0.467143115564675,
					0.460730665435566,
					0.314754708261873,
					0.279583727522292,
					-0.43318476751668,
					0.47393311571281,
					0.228043170311815,
					0.155812049211389,
					-0.26134622904048,
					0.364731582568237,
					-0.09930890811598,
					-0.14290244921676,
					-0.28588037505181,
					-0.08760323731584,
					-0.46315850332328,
					0.0641578391924792,
					-0.34429534302359,
					-0.06717453963848,
					-0.17132900202656,
					-0.29704756013986,
					-0.06107548431635,
					-0.31746708375384,
					0.457451801763966,
					0.00582190060309018,
					0.111666392857972,
					0.304080076183578,
					0.174991870918829,
					-0.33833512193669,
					-0.29421344929625,
					0.270114006546567,
					-0.33372056194895,
					0.252150488533102,
					-0.02408830734857,
					-0.05488440165472,
					0.474498639545325,
					-0.22815603208942,
					0.1648800869978,
					-0.06495600332718,
					-0.41600036710354,
					-0.41691778833523,
					-0.36988426759491,
					-0.49031375929105,
					0.365848868605348,
					0.253976236123166,
					0.321964559962111,
					0.166394460117591,
					0.476672259611525,
					0.207533862560338,
					-0.4169010679831,
					-0.39128067735364,
					0.361514528156093,
					-0.01369618472153,
					0.0747309589773527,
					-0.25829098498132,
					-0.10123866191906,
					0.259318692087497,
					0.240687330135301,
					0.155032689745947,
					0.161778062720651,
					0.437946405250712,
					0.219814955067654,
					-0.34840111255043,
					0.339093436787112,
					-0.34615600857871,
					-0.40642674997501,
					-0.10576421133782,
					0.0359929248857793,
					0.496036057381163,
					0.339773816812583,
					-0.3230910149093,
					-0.45827695471341,
					-0.40984652134054,
					-0.19965221253259,
					-0.2401660727077,
					-0.11993232118734,
					-0.33805496586125,
					-0.43034040936698,
					0.419660854705846,
					-0.31265929308342,
					-0.46311665874281,
					-0.39877073381072,
					-0.3520668240861,
					-0.26823359623476,
					-0.27503943314731,
					0.259952169768276,
					-0.09446327797835,
					-0.10599903292877,
					0.448925074584775,
					0.126032966533509,
					-0.18964973010284,
					0.306046110092279,
					-0.28092860611146,
					0.0829302208811816,
					0.187839650360263,
					0.0474162174530731,
					0.31206041234495,
					-0.27570684317271,
					-0.42610852621657,
					-0.40252995410092,
					0.18715554872492,
					0.157040960454285,
					-0.26978260673668,
					-0.4069113936969,
					-0.2521194992889,
					0.350980158336042,
					-0.23838833290163,
					-0.10213715357304,
					-0.49499386513565,
					-0.34180536316521,
					-0.1857312985457,
					-0.30752612761245,
					0.362100069963617,
					0.230743373784946,
					-0.08332661291338,
					-0.30020371001369,
					0.324596626373511,
					-0.07008066788907,
					0.295527808523784,
					-0.07056836834735,
					0.404119070238483,
					0.392821916190573,
					0.357578842192838,
					-0.47069288209543,
					-0.43808706241629,
					-0.20219447750693,
					-0.26674245696343,
					0.386102116577763,
					-0.41496572045426,
					0.112591050366721,
					-0.17730721221143,
					-0.34198162839142,
					0.405505613123222,
					-0.2248905458054,
					0.0349199402986042,
					-0.04919472745554,
					0.336249212907235,
					0.00873939904101939,
					-0.13931819913312,
					-0.24676928822526,
					-0.35562930497088,
					-0.01924488440275,
					0.377903751316759,
					-0.2631134258067,
					-0.37893333472667,
					-0.39898456807873,
					-0.37843681561943,
					-0.13879382100037,
					0.196975014280861,
					-0.26885007934959,
					-0.47810881406636,
					-0.27164120935857,
					-0.36916272733772,
					-0.19914138361534,
					-0.21356348761489,
					0.350541154586553,
					-0.29038194040573,
					0.489048640043164,
					-0.2438766790167,
					-0.15148247627694,
					-0.49054017892658,
					0.289260238292463,
					0.299670047470849,
					0.268011970564136,
					0.328147108181839,
					0.239760997816842,
					-0.27751209057489,
					-0.06080268930057,
					0.130466069531793,
					0.29827360020559,
					0.318595250103507,
					0.280955677526062,
					-0.27379831420417,
					-0.10239791195837,
					-0.16729004560286,
					0.321142410937312,
					-0.2922830494893,
					-0.00228993514508,
					0.0843065378746283,
					0.459027518246673,
					-0.48648155137603,
					-0.21496813536658,
					-0.34805741118509
				]
			}
		]
	},
	"embedding_output": {
		"input": 23,
		"is_biased": false,
		"layers": [
			{
				"a": 0,
				"b": [
					0,
					0,
					0,
					0,
					0,
					0,
					0,
					0,
					0,
					0,
					0,
					0,
					0,
					0,
					0,
					0,
					0,
					0,
					0,
					0,
					0,
					0,
					0,
					0,
					0,
					0,
					0,
					0,
					0,
					0,
					0,
					0,
					0,
					0,
					0,
					0,
					0,
					0,
					0,
					0,
					0,
					0,
					0,
					0,
					0,
					0,
					0,
					0,
					0,
					0,
					0,
					0,
					0,
					0,
					0,
					0,
					0,
					0,
					0,
					0,
					0,
					0,
					0,
					0,
					0,
					0,
					0,
					0,
					0,
					0,
					0,
					0,
					0,
					0,
					0,
					0,
					0,
					0,
					0,
					0,
					0,
					0,
					0,
					0,
					0,
					0,
					0,
					0,
					0,
					0,
					0,
					0,
					0,
					0,
					0,
					0,
					0,
					0,
					0,
					0
				],
				"i": 23,
				"o": 100,
				"w": [
					-0.02570847276915,
					-0.01587350284196,
					0.269720173045804,
					-0.1899827514069,
					0.361187405440099,
					-0.04413373804582,
					-0.45572058728554,
					0.0787769117791057,
					0.0853357300741604,
					0.397182859847863,
					-0.01552384925066,
					0.0968683572247042,
					-0.12423146547697,
					0.318752677657682,
					-0.14727509543045,
					0.103142308078826,
					-0.08277820071338,
					0.0713782149189163,
					-0.07123193407588,
					-0.40240931771863,
					0.0587929750432327,
					-0.43947613038347,
					0.0478384035986457,
					0.162909534839024,
					-0.32856991673794,
					-0.43749673171065,
					0.216225091657019,
					0.320175627722428,
					-0.03930171004037,
					0.270228922890087,
					0.114867193243098,
					-0.39863640775815,
					-0.05281036991836,
					0.24150691139901,
					0.0986171573306636,
					0.341046075995157,
					-0.50333936333725,
					0.0732047115415726,
					0.108491822382683,
					0.057789199750517,
					-0.06806255779657,
					-0.31804402516331,
					-0.17700947669623,
					-0.05014416124605,
					0.139400866626855,
					-0.20558724934803,
					0.155145927753866,
					-0.19362092769218,
					-0.43234344560792,
					-0.1651782762185,
					-0.48165676729264,
					-0.43303767039627,
					-0.17248160628142,
					0.429820210825168,
					0.204672413290847,
					-0.23377294849186,
					-0.31473220870543,
					-0.05602633376849,
					-0.09633829924978,
					-0.29642216751926,
					0.159876430243277,
					-0.06704263211296,
					-0.03382679947628,
					-0.13040843504516,
					0.123004153512615,
					-0.26489814885522,
					-0.4885108300017,
					0.333768365280105,
					-0.49656482755333,
					0.476377040747366,
					-0.25819499001392,
					-0.37595469457885,
					-0.15685917637903,
					-0.07819629860456,
					-0.32671147515793,
					0.374163222120766,
					-0.40122274381744,
					-0.22839945353348,
					0.0147647535940421,
					-0.19524285674241,
					-0.13463670630668,
					-0.01000068540836,
					-0.0255153414335,
					-0.07386622345889,
					-0.00996595424316,
					0.441124292989112,
					-0.23906281618308,
					0.418894386059496,
					0.475565803542061,
					-0.21538216594007,
					0.153456355858354,
					0.245570933042937,
					0.135181647128575,
