{
	"decoder": {
		"cell_count": 10,
		"cells": [
			{
				"biases": [
					-0.31224551150134,
					-0.18595260585261,
					-0.0497781551956,
					-0.06518118813301
				],
				"weights": [
					[
						0.239398540128966,
						-0.69127033585571
					],
					[
						0.932403429489781,
						-0.52356919767447
					],
					[
						0.267838569721111,
						-0.12943308073727
					],
					[
						0.680845507785067,
						-0.27077115052784
					]
				]
			},
			{
				"biases": [
					0.978261595430065,
					-0.22060025457067,
					-0.40549442130091,
					0.100621003160397
				],
				"weights": [
					[
						0.298880504434704,
						-0.4002741847287
					],
					[
						0.0937081060989751,
						0.0594969596211259
					],
					[
						0.653971088880736,
						-0.26100493171122
					],
					[
						0.410107758917847,
						-0.68420072357295
					]
				]
			},
			{
				"biases": [
					0.132409850152857,
					-0.66740233381099,
					-0.21561014686322,
					-0.91845980148821
				],
				"weights": [
					[
						0.0583473552989013,
						-0.11915404900467
					],
					[
						-0.97161971690257,
						-0.5418903620716
					],
					[
						-0.50618358337947,
						0.683017568432953
					],
					[
						-0.76781462406966,
						0.445785372052626
					]
				]
			},
			{
				"biases": [
					-0.76142137136928,
					-0.6243918846258,
					-0.05626822630645,
					0.133409777024024
				],
				"weights": [
					[
						0.891636051945282,
						-0.80779471679942
					],
					[
						-0.75342107063734,
						-0.67245776513288
					],
					[
						0.911039903210376,
						0.498060136996626
					],
					[
						0.0249887825834951,
						0.763512604274821
					]
				]
			},
			{
				"biases": [
					-0.72259613970916,
					-0.31965984913751,
					-0.82876521212258,
					-0.59603535278483
				],
				"weights": [
					[
						0.622600866780509,
						-0.45909712744176
					],
					[
						0.338361095057316,
						-0.75305769406712
					],
					[
						0.180720645242561,
						0.602844434990312
					],
					[
						0.319933432938194,
						0.810646415875157
					]
				]
			},
			{
				"biases": [
					0.753835912905794,
					-0.4862037915391,
					0.166142881267263,
					-0.70846692703964
				],
				"weights": [
					[
						0.934691209204959,
						0.299885604172526
					],
					[
						-0.38326853286286,
						0.467993693542034
					],
					[
						-0.92028828568015,
						0.571236819170588
					],
					[
						0.290368842530965,
						-0.84559770451336
					]
				]
			},
			{
				"biases": [
					-0.2373463822266,
					0.136630573005274,
					-0.43273387693224,
					0.312938296959144
				],
				"weights": [
					[
						0.721990254213634,
						0.750027191216195
					],
					[
						0.508180983904641,
						0.223495788537014
					],
					[
						0.977343434602949,
						0.351747278121234
					],
					[
						0.0245893711047116,
						-0.74059329025184
					]
				]
			},
			{
				"biases": [
					-0.69133010133034,
					0.202936630177719,
					0.336814962782157,
					0.122122450904965
				],
				"weights": [
					[
						-0.86385076823085,
						-0.21029480109728
					],
					[
						-0.12871659622846,
						0.764438296156002
					],
					[
						-0.05650534357853,
						-0.72375044561391
					],
					[
						-0.91327631907854,
						-0.7943152951285
					]
				]
			},
			{
				"biases": [
					-0.11496513305791,
					0.417549616960866,
					-0.17668045223088,
					0.406893229567169
				],
				"weights": [
					[
						0.950798716847682,
						0.0263423614517466
					],
					[
						0.535085956533072,
						0.104540324160609
					],
					[
						0.317356623462776,
						0.56194620554171
					],
					[
						0.400054042635091,
						-0.78310112857128
					]
				]
			},
			{
				"biases": [
					0.899078219691092,
					0.888263865945039,
					-0.56498174642213,
					-0.06517923202714
				],
				"weights": [
					[
						0.374714012903729,
						0.977968237673822
					],
					[
						0.743462252901426,
						-0.34541539421239
					],
					[
						0.500136645685879,
						0.630130692492182
					],
					[
						-0.15810383330212,
						0.661803799527432
					]
				]
			}
		]
	},
	"embedding_input": {
		"input": 23,
		"is_biased": false,
		"layers": [
			{
				"a": 0,
				"b": [
					0,
					0,
					0,
					0,
					0,
					0,
					0,
					0,
					0,
					0
				],
				"i": 23,
				"o": 10,
				"w": [
					0.221398145476733,
					-0.40598985759972,
					-0.12245875246884,
					-0.43537392368374,
					-0.32932588127216,
					0.253104664491635,
					-0.30844061510199,
					0.36873943578428,
					-0.02367219706673,
					0.00585412363018178,
					-0.36304932603673,
					-0.48362453697653,
					0.42573606528259,
					0.111107852414383,
					-0.35131771972877,
					0.248132575507472,
					0.0211250971834945,
					0.149480181030715,
					0.293979288095209,
					-0.42592943865355,
					0.0800405736303792,
					-0.41914120594803,
					0.251065479128149,
					0.424095413368441,
					0.0938974195608151,
					0.0934916281290938,
					0.220073633952771,
					0.480223584291001,
					-0.3390472161436,
					0.283717968291788,
					0.272044256016539,
					-0.3608981534455,
					0.119671203938927,
					-0.46969588283238,
					-0.0927649669782,
					-0.3297488938071,
					-0.30626295968737,
					-0.43318195019574,
					-0.3172517204716,
					-0.17503893184636,
					0.00169045203626805,
					0.353300777655603,
					-0.07518103610158,
					0.280861083070726,
					0.320887636855727,
					-0.04948996562973,
					-0.27875795636269,
					-0.33207694681628,
					-0.4351078493793,
					-0.14265504741472,
					-0.44590492319943,
					0.0535177162214842,
					-0.32335468262691,
					0.229645362772398,
					-0.09880722045808,
					-0.38225692250394,
					0.440582148192972,
					-0.37577033823185,
					0.206002407973354,
					-0.26524794262733,
					-0.24819587473716,
					-0.30478504194608,
					0.267517793348566,
					-0.3727485530903,
					0.119985518460044,
					-0.06197287765366,
					0.292792285292405,
					0.487692173837627,
					0.254417934806681,
					0.260763286231291,
					-0.42286685237993,
					-0.28227716803403,
					-0.17779081799081,
					-0.06916373369918,
					-0.12712574211314,
					0.212635856765461,
					0.064610166744841,
					-0.37544979809593,
					-0.49767595815565,
					-0.32178454307048,
					-0.48735176448113,
					-0.12874432293977,
					0.201581253343775,
					-0.45064145974188,
					0.409611418966387,
					-0.01441400970917,
					0.396289972229338,
					-0.05295001397265,
					-0.04204254466222,
					-0.25159511753579,
					0.425372431693826,
					0.490823003682104,
					-0.16891283409356,
					0.0022487770933588,
					0.181491881098486,
					-0.32389323957355,
					-0.03829267122449,
					0.482295338492614,
					0.09656258294297,
					0.165538532653011,
					-0.48645844412397,
					0.0853541872977335,
					0.444690611378709,
					0.498113966030292,
					0.0313836647464888,
					0.294080761845214,
					0.346495582891391,
					-0.46040105364554,
					-0.33363359078693,
					-0.07358994835223,
					-0.17563268537357,
					0.148811080987263,
					0.207638358503628,
					0.159046434732687,
					-0.37383603177765,
					-0.16049565173744,
					0.0568047936500105,
					-0.06258975181636,
					-0.10510355511622,
					0.47429838735653,
					0.00231509442075462,
					0.450013491912479,
					-0.19330940217208,
					-0.21434042539991,
					0.486400900412863,
					-0.33497154659051,
					0.388310545294189,
					-0.39833971982289,
					-0.24149045350611,
					-0.45316324568791,
					0.306165951461797,
					0.00246693969228329,
					0.339483525947867,
					0.00522029709081939,
					0.0628698683269935,
					0.0548641080248032,
					-0.04536426103385,
					-0.12284668167599,
					-0.05045572754201,
					-0.49039975503956,
					-0.4171265713462,
					-0.4903696213377,
					0.14782837652538,
					-0.48578541959468,
					0.0260118110108091,
					0.220477600254614,
					-0.31072993386217,
					-0.31966481360133,
					0.167552096041029,
					-0.02925265721842,
					0.432934549294914,
					-0.21033878929878,
					-0.45366031903184,
					0.0308715095860944,
					-0.29873568498303,
					0.0039341378266663,
					0.148826151559973,
					-0.3744257901955,
					0.189279497568171,
					0.225019056852181,
					-0.46193388000851,
					-0.02894745655119,
					0.460955436406229,
					0.451971191360109,
					-0.06941409971188,
					-0.24459420334751,
					-0.27986029372644,
					-0.47537834036664,
					0.0102111655674416,
					0.456752844917381,
					-0.23091261528323,
					-0.1195901413676,
					-0.06332388535883,
					-0.33675344934164,
					-0.26956500386061,
					-0.05090485981709,
					-0.28032763222497,
					0.209549163114547,
					0.0718875358732691,
					0.260607658788519,
					0.350019197281209,
					-0.01493554062297,
					0.439187053249759,
					-0.38925342072837,
					-0.30577602204202,
					-0.19337401754289,
					0.153181740403792,
					-0.24851923122998,
					-0.29208624056789,
					0.299748404229461,
					-0.04485708268504,
					0.479958801430026,
					-0.15900825929496,
					-0.33067896364302,
					-0.05749537150085,
					0.0429233809342359,
					0.124589727914116,
					0.240455708221298,
					-0.42193161634559,
					-0.39662554867718,
					0.419796421682934,
					0.455312128272049,
					-0.29142175697265,
					-0.29113408777201,
					-0.06773749264453,
					0.0121238847594978,
					-0.34401812053714,
					0.0982939282248958,
					0.0584925963020786,
					0.351873484017637,
					0.387239845025743,
					0.034566458412248,
					0.363307714350406,
					-0.12718994655656,
					0.131769496228512,
					0.475515475061671,
					-0.30142328829547,
					0.18016501691632,
					0.217399787194642,
					-0.20268603345834,
					0.164059570425521,
					0.0396657187710582,
					-0.43076868846341,
					-0.21451696053322,
					-0.3915321470316,
					0.483283374832487,
					0.137791741024032,
					-0.17239461912251,
					-0.05485459148378,
					0.0686889158449671
				]
			}
		]
	},
	"embedding_output": {
		"input": 23,
		"is_biased": false,
		"layers": [
			{
				"a": 0,
				"b": [
					0,
					0,
					0,
					0,
					0,
					0,
					0,
					0,
					0,
					0
				],
				"i": 23,
				"o": 10,
				"w": [
					-0.49350257744785,
					0.105171986072296,
					-0.06558733690312,
					0.173201768115854,
					-0.1065798758471,
					0.477630985229811,
					0.14062386738762,
					0.181306141305434,
					-0.32227706287174,
					-0.06446679846963,
					-0.0607870914016,
					-0.27335309390517,
					0.463651331442528,
					-0.45436380205952,
					-0.00117748676321,
					0.451522109143912,
					-0.10765954886185,
					-0.47913654743631,
					0.148033098049766,
					-0.32342424983692,
					-0.49509437618783,
					-0.17226704931352,
					0.370435525336258,
					-0.23466956862111,
					-0.19583330432583,
					0.0963535530225919,
					-0.04441981246548,
					0.195036784239932,
					0.390763826455731,
					0.21492795081052,
					-0.0400008648234,
					0.0949143523571484,
					-0.38641720725839,
					-0.29480636772493,
					-0.24688992088869,
					0.318225628985323,
					-0.35969014328039,
					-0.13054052846777,
					0.357514604436147,
					0.276622808077496,
					0.172652647999706,
					-0.01127514575444,
					-0.47256687657388,
					-0.28889200949599,
					-0.17837365550715,
					-0.47889658954638,
					0.423408036904163,
					0.345440603263627,
					-0.34851753707349,
					0.108200070165245,
					0.0846519388457722,
					0.445842781419376,
					-0.22578674724305,
					-0.41001988758711,
					0.146349695096681,
					-0.12906106273986,
					-0.01049061518228,
					0.414370321679196,
					0.16273772749508,
					0.459257541921245,
					0.355491525682803,
					-0.10713926363422,
					0.0300278093312147,
					-0.04597854679463,
					-0.42777735742744,
					-0.06686256079596,
					-0.06291462539806,
					0.120418370440855,
					-0.36897070124189,
					-0.47362994595073,
					0.396431677045515,
					-0.13352124724189,
					0.287466597977973,
					-0.0583183019914,
					-0.02976569617787,
					-0.17979398665201,
					-0.25401438728435,
					0.27003729402409,
					-0.39036981424136,
					-0.04083169166548,
					-0.13578041380236,
					-0.01718620212363,
					-0.00421928442725,
					-0.007386386423,
					0.194692527237871,
					0.375108503768944,
					0.279116853414767,
					0.106508048767046,
					-0.09024660520607,
					-0.09130815630402,
					0.487517011617261,
					-0.34462019550016,
					-0.11065654570845,
					0.24335917818866,
					-0.07109473827576,
					-0.09693656033157,
					0.0130292581574941,
					-0.17179669028855,
					-0.20782439726501,
					-0.22935597484808,
					0.119270985042183,
					-0.3506359920153,
					-0.45517975713827,
					0.0823749693142863,
					0.123692288790055,
					0.181600472040437,
					0.39494176279905,
					0.00216420259018291,
					-0.10166693633877,
					-0.26889193958816,
					-0.2564868142951,
					-0.04444815395329,
					-0.08888978063494,
					-0.01449731926463,
					0.318927548833473,
					-0.17242784566555,
					0.479069056703905,
					-0.09329125599477,
					0.387398856202446,
					0.326133467595925,
					0.0805969751364923,
					0.180204734660651,
					-0.20636914146457,
					-0.36611333753698,
					-0.2100224054719,
					0.360185052056377,
					-0.06075534254278,
					-0.19496780223266,
					0.043190908205276,
					-0.00909745637424,
					-0.13238030934669,
					-0.1408696710993,
					-0.18712939037633,
					-0.40333766758752,
					0.191487622028467,
					0.271346614613875,
					-0.03863141395729,
					-0.1721222203401,
					-0.10982031036401,
					-0.09980067088733,
					0.0637213689391883,
					-0.13487001914925,
					0.152664576008274,
					-0.33527705926857,
					0.372761161415934,
					0.271382071691929,
					-0.33288676076078,
					-0.20511081966417,
					0.364495325047087,
					0.264274717473672,
					-0.48023121195266,
					0.335054534493295,
					-0.05661920095678,
					-0.20674763488611,
					-0.08393621869718,
					0.0126174070245463,
					-0.3701086459559,
					-0.28799511036471,
					0.0748245419723308,
					0.441996800860494,
					0.464810600094406,
					0.431595077744312,
					-0.22289232054081,
					-0.49498820197589,
					-0.06322590182507,
					0.35736737799994,
					0.22090920582133,
					-0.21077539726643,
					-0.10369626960444,
					0.184956193600777,
					-0.01014249461663,
					0.251556996657606,
					0.0566820478295392,
					0.472461006154739,
					-0.26332882209725,
					-0.00615069984208,
					-0.24289984283404,
					0.32477477342963,
					0.147767799408845,
					-0.10793576778166,
					0.0789489125683223,
					-0.07484522405607,
					-0.35492225810358,
					0.420163560378993,
					-0.02407030199597,
					-0.20601909349553,
					0.101403880094036,
					0.328001637048779,
					-0.17425713623649,
					-0.43542451512558,
					0.293942522507221,
					-0.27211537068735,
					0.265310841477247,
					-0.17337354061298,
					0.115022048640902,
					0.459305886792972,
					0.104625890716215,
					0.14591561711681,
					-0.00028329353238,
					0.442828718863985,
					-0.24495140628394,
					-0.13481047754057,
					-0.08679118001569,
					0.250360645485842,
					-0.31068807635953,
					0.0446584089166675,
					0.0314941460946143,
					0.160517080067983,
					-0.4838431167798,
					0.364615459193638,
					-0.27127171595773,
					0.451313433793475,
					0.43376319141853,
					0.307173956645374,
					0.0991950215030792,
					-0.32405062382625,
					-0.38860295131429,
					0.444661117724949,
					0.430194581242879,
					0.112720765310218,
					0.236091117196691,
					0.478816715443997,
					0.421334043907534,
					0.126907983071113,
					-0.16610682760443,
					-0.13044882232478,
					0.240508754483716,
					-0.20727789114972,
					0.363493610117945,
					0.152895714302201
				]
			}
		]
	},
	"encoder": {
		"cell_count": 10,
		"cells": [
			{
				"biases": [
					0.567006175932364,
					-0.23277846879074,
					-0.04205155303872,
					-0.41532945676733
				],
				"weights": [
					[
						-0.16391997545701,
						-0.00881530191585
					],
					[
						-0.33866301760592,
						-0.79414655590841
					],
					[
						-0.65288956930355,
						0.658264610289958
					],
					[
						-0.01096180170399,
						-0.92387684790653
					]
				]
			},
			{
				"biases": [
					-0.48165827131086,
					0.863856978256188,
					-0.705756028058,
					0.320457865691639
				],
				"weights": [
					[
						0.480462485216385,
						0.214304106257507
					],
					[
						0.252853157238723,
						-0.56533035493089
					],
					[
						0.618069793651104,
						0.904969539935716
					],
					[
						-0.18668273916372,
						0.0436523316343458
					]
				]
			},
			{
				"biases": [
					-0.82895534036187,
					0.219883901310553,
					-0.61409808802716,
					0.837116273147851
				],
				"weights": [
					[
						0.992796244004783,
						0.637568470559056
					],
					[
						0.692441441965926,
						-0.25934105248093
					],
					[
						0.246710153575008,
						0.610516900797072
					],
					[
						0.405646461772976,
						0.420599211439712
					]
				]
			},
			{
				"biases": [
					-0.3545050684402,
					0.724527843739084,
					-0.31506121302582,
					-0.49421783076886
				],
				"weights": [
					[
						0.608389100250402,
						0.785358551922916
					],
					[
						-0.06648245570171,
						-0.40478429519834
					],
					[
						0.0353573709798076,
						-0.42298847885283
					],
					[
						-0.14039175377361,
						-0.69484406162474
					]
				]
			},
			{
				"biases": [
					0.631378238759926,
					-0.57300519570764,
					0.486370000768394,
					0.720476415634285
				],
				"weights": [
					[
						-0.15735025626874,
						0.372575877575085
					],
					[
						-0.42353032406572,
						-0.77490792303865
					],
					[
						-0.18559560295934,
						0.964854360562377
					],
					[
						0.396574782443678,
						0.621351679161212
					]
				]
			},
			{
				"biases": [
					0.769476691563325,
					0.927180177594639,
					-0.68137300619089,
					-0.71345394361539
				],
				"weights": [
					[
						-0.05145604170321,
						-0.93322038316121
					],
					[
						0.614190947541073,
						0.969978704022719
					],
					[
						-0.83947634392676,
						-0.69212288726429
					],
					[
						-0.86231672983083,
						0.372443697034637
					]
				]
			},
			{
				"biases": [
					0.08735156978117,
					-0.93438176896382,
					-0.34650850591764,
					-0.96491001351784
				],
				"weights": [
					[
						0.0168480447362667,
						-0.17398201660014
					],
					[
						0.365195649034671,
						-0.81957768545521
					],
					[
						-0.20820474580776,
						-0.96044458953822
					],
					[
						0.674259237996396,
						0.823716503433204
					]
				]
			},
			{
				"biases": [
					-0.08250725256863,
					-0.33082587436321,
					-0.18933594894444,
					0.772724378240267
				],
				"weights": [
					[
						0.490968647015155,
						-0.80344475514821
					],
					[
						-0.70259998135051,
						0.0777247402036678
					],
					[
						0.26639952752216,
						-0.68963742163949
					],
					[
						-0.03423577051414,
						0.927746526708073
					]
				]
			},
			{
				"biases": [
					-0.56266762916367,
					-0.27695383484945,
					0.670471300532602,
					0.949596350026644
				],
				"weights": [
					[
						-0.30741077784713,
						-0.31357194730015
					],
					[
						0.634767579666202,
						0.225729149604913
					],
					[
						0.580980120905551,
						-0.05992666975487
					],
					[
						-0.8911779806429,
						-0.61882391799381
					]
				]
			},
			{
				"biases": [
					0.48364349512792,
					0.686038304511451,
					-0.2891811830012,
					-0.21006623138325
				],
				"weights": [
					[
						0.199773815891073,
						0.629974481771732
					],
					[
						-0.21615312006352,
						0.692439840045776
					],
					[
						-0.5198119730924,
						0.062486937012926
					],
					[
						0.120199362784075,
						0.43143562014415
					]
				]
			}
		]
	},
	"keys": {
		"!": 6,
		",": 3,
		".": 2,
		":": 4,
		";": 5,
		"?": 7,
		"\\eos": 1,
		"\\sos": 0,
		"aku": 12,
		"apakah": 8,
		"belum": 13,
		"bontang": 22,
		"di": 21,
		"dimana": 18,
		"kamu": 9,
		"mandi": 11,
		"manusia": 17,
		"namaku": 16,
		"namamu": 15,
		"rumahku": 20,
		"rumahmu": 19,
		"siapa": 14,
		"sudah": 10
	},
	"vec2word": {
		"input": 10,
		"is_biased": false,
		"layers": [
			{
				"a": 1,
				"b": [
					0,
					0,
					0,
					0,
					0,
					0,
					0,
					0,
					0,
					0,
					0,
					0,
					0,
					0,
					0,
					0,
					0,
					0,
					0,
					0,
					0,
					0,
					0
				],
				"i": 10,
				"o": 23,
				"w": [
					0.217586084659772,
					0.332762109240653,
					0.498090651016228,
					-0.35296992056091,
					-0.28605919082281,
					-0.14608718541608,
					0.457148373212912,
					0.0799618637811255,
					0.231473114644963,
					-0.45778246577452,
					0.106297090326102,
					-0.36749253096463,
					-0.15368581725993,
					-0.26366457764279,
					-0.42441176440594,
					-0.37278063746709,
					0.4381798762047,
					0.133511161391036,
					-0.43784568496986,
					0.114587554842766,
					-0.37288505804615,
					-0.13316345831514,
					-0.013890979161,
					0.260455062039077,
					0.146119252878931,
					-0.0269825217491,
					-0.46277695514111,
					0.374195207873969,
					-0.26158870650248,
					0.343824856011222,
					-0.26114143246563,
					0.392786608378266,
					0.126238327579076,
					0.385154506816033,
					0.229822747390283,
					0.45477457975091,
					-0.29463364067764,
					0.419589001461165,
					-0.26032487024297,
					0.490225741626414,
					0.42205603693403,
					-0.24056974346615,
					0.333788047773759,
					-0.25433644325633,
					0.216544586096451,
					-0.26602158185377,
					-0.31909807441806,
					0.135984012173027,
					-0.37751350050194,
					0.341080762936702,
					-0.20162398623945,
					-0.04297024844675,
					0.360740575459569,
					0.236829696074552,
					-0.37601224948854,
					0.103183050095592,
					-0.09878163422615,
					0.436808268839596,
					-0.28529923856006,
					0.305932814061679,
					0.316167510831167,
					-0.435710468352,
					-0.44377635887377,
					0.398478049441764,
					-0.42703123149899,
					0.439324371766133,
					0.119209989052099,
					-0.32664616291787,
					0.172958106235629,
					-0.07713717660123,
					-0.06875851718603,
					-0.42771728001637,
					-0.34667438027015,
					0.0824257900926839,
					-0.35841533683395,
					0.0944072189766461,
					-0.41162184157299,
					0.0150971389565269,
					0.333186087649751,
					0.0931672123499342,
					-0.03145256816342,
					-0.10518068060501,
					0.386484015784038,
					-0.17091874952521,
					0.0462274454454816,
					0.410547220466995,
					-0.49209256939206,
					0.0798532695406046,
					-0.36809206157309,
					0.0965648569278831,
					-0.11384061337223,
					-0.44271296565495,
					-0.02265743462542,
					-0.18451720683072,
					-0.46487352691204,
					0.00908745411007539,
					0.473877449303003,
					-0.19081373269467,
					0.450382148392361,
					0.183083829025264,
					-0.43035778122046,
					0.448175167497181,
					0.045405106826934,
					-0.12182417832338,
					-0.1811032180135,
					0.471321840563569,
					-0.0477826100613,
					-0.10512355276291,
					0.421607860898402,
					0.148342931048639,
					0.0185289313129612,
					0.141273780526052,
					0.273738498162619,
					-0.34230293790564,
					0.480499851646257,
					0.0170584400512043,
					-0.21228755682592,
					0.360004146719199,
					-0.36611154196417,
					-0.28015193471339,
					0.171520617562432,
					-0.40938464071677,
					-0.27968130739807,
					0.317160145063477,
					-0.2596083224776,
					0.146998011726957,
					-0.00115318345115,
					-0.1293999426187,
					-0.07652344257688,
					-0.15366191886744,
					0.415719296699534,
					0.271988689256446,
					-0.41738550860518,
					-0.35012787915887,
					-0.36940288969539,
					-0.39090085527041,
					-0.26501904739554,
					0.35774547890123,
					-0.01122409279092,
					-0.07820962946301,
					0.321643459418638,
					-0.37563107307024,
					-0.16017933060351,
					0.318584855849654,
					0.0561873561177144,
					-0.22800914227393,
					-0.3225113951124,
					-0.03126019066415,
					-0.10437973544916,
					0.358951493641104,
					0.321207100031946,
					-0.48787612819859,
					0.34641133313707,
					0.265618016089934,
					0.117836331931956,
					-0.08659022687833,
					-0.04943367752805,
					-0.02843201573143,
					-0.30131806681656,
					0.205244916205203,
					0.230300125033859,
					0.45051231858206,
					0.434273534463949,
					0.232827327427599,
					-0.40700143429623,
					-0.07862079302043,
					0.159038363648751,
					0.344616301625002,
					-0.06513132886771,
					0.401349168438803,
					0.253632788783987,
					0.348831852222742,
					0.233844925687248,
					-0.10879498565987,
					-0.43791490259961,
					-0.37393481439885,
					0.0191367007338528,
					0.26918624026565,
					-0.45042928711318,
					-0.01733824071702,
					0.32180430549908,
					-0.00000046970391,
					-0.42839067480398,
					0.162838157719419,
					0.267232818436102,
					-0.24795249069138,
					-0.41865321332649,
					-0.05712937668829,
					-0.43841139831132,
					0.264744520077085,
					0.222263455850342,
					-0.24850679735461,
					0.280793887997692,
					-0.08093908460925,
					0.0133860550915001,
					-0.15707840982577,
					-0.11764700017806,
					0.409446865809431,
					-0.37249311412642,
					0.337842972431321,
					0.385638811783304,
					-0.42484232971732,
					-0.42750376504175,
					-0.31139906148503,
					0.108487182943368,
					-0.17655420027613,
					-0.14799303331671,
					0.177005273485115,
					0.331881290933257,
					0.470185267993513,
					-0.36769753865182,
					-0.43034355825561,
					-0.26127014940009,
					-0.06516632470667,
					-0.26639146590701,
					-0.37969370704268,
					-0.08377171149575,
					-0.12394970343446,
					0.27134716394164,
					0.0626501585370254,
					-0.49118357263252,
					0.133770864567616,
					-0.47351516793922,
					0.295458171596881,
					0.364411783178304,
					-0.34626023769745,
					0.349820116521469,
					0.391016547028085,
					-0.21341299089082,
					-0.10536372519574
				]
			}
		]
	},
	"vec_count": 10
}