{
	"decoder": {
		"cell_count": 100,
		"cells": [
			{
				"biases": [
					-0.55857380729309,
					0.637390184128502,
					0.272996294514982,
					0.103820309413903
				],
				"weights": [
					[
						-0.60139889519531,
						-0.55222115785416
					],
					[
						-0.82068540786377,
						-0.45194095042034
					],
					[
						0.419058787417367,
						-0.10583161784152
					],
					[
						0.934779776160992,
						-0.98449980026488
					]
				]
			},
			{
				"biases": [
					-0.86944079695224,
					0.52123821826221,
					-0.82503496031411,
					-0.22525306453994
				],
				"weights": [
					[
						0.380706579017912,
						0.380129187800548
					],
					[
						0.394473901546744,
						0.4919873463803
					],
					[
						0.121511717525233,
						0.349347301109237
					],
					[
						-1.06475005477689,
						-0.34495802193488
					]
				]
			},
			{
				"biases": [
					-0.79660582236039,
					1.02172090536507,
					-0.02377615770555,
					0.135073657651723
				],
				"weights": [
					[
						0.995241897567708,
						-0.90916816544363
					],
					[
						-0.14751799062519,
						0.672611567454644
					],
					[
						0.621927378859296,
						0.63412828094917
					],
					[
						-0.91578231371225,
						0.505876122809821
					]
				]
			},
			{
				"biases": [
					-0.29690827222019,
					-0.70758607403229,
					-0.21025726845342,
					-0.46096620222511
				],
				"weights": [
					[
						0.769440364879346,
						-0.66635870819837
					],
					[
						0.852261415195174,
						0.669949131742994
					],
					[
						0.0186342284804499,
						0.812902803497463
					],
					[
						-0.53853250284862,
						0.932103306102252
					]
				]
			},
			{
				"biases": [
					0.922170911538954,
					0.623608503472069,
					-1.00894304822695,
					-0.06114259067897
				],
				"weights": [
					[
						-0.05725065108294,
						-0.27302139261473
					],
					[
						0.216765644873851,
						-0.65211237548057
					],
					[
						-0.00559415799952,
						-0.11834334060406
					],
					[
						1.04325139785595,
						0.757384826364415
					]
				]
			},
			{
				"biases": [
					-0.56075485867777,
					0.463708765084617,
					0.227987712042395,
					-0.15840780655222
				],
				"weights": [
					[
						-0.05229913081807,
						0.878610004313528
					],
					[
						0.849067092264347,
						-0.94485623655575
					],
					[
						0.202193376435957,
						-0.13571663507711
					],
					[
						-0.91436954373771,
						0.619863962876321
					]
				]
			},
			{
				"biases": [
					-0.54824296223797,
					-0.62168495634856,
					0.349562551849772,
					0.306635376690662
				],
				"weights": [
					[
						0.157609251570455,
						-0.42804523458848
					],
					[
						0.739096825769642,
						0.162292870432501
					],
					[
						-0.13601423209327,
						-0.4609517743937
					],
					[
						-0.89202687735909,
						-0.18280873719781
					]
				]
			},
			{
				"biases": [
					0.804322964979466,
					-0.43752202368197,
					-0.57042103569512,
					-0.05934429947269
				],
				"weights": [
					[
						-0.91670066095286,
						-0.80282140681468
					],
					[
						0.536268441632564,
						0.686407491359206
					],
					[
						-0.71334698113564,
						0.273926582627809
					],
					[
						-0.396932532914,
						0.372646054153817
					]
				]
			},
			{
				"biases": [
					-0.84015096683389,
					0.610192457656535,
					0.378934600574113,
					-0.47617442908526
				],
				"weights": [
					[
						-0.12236692347249,
						-0.8422378697892
					],
					[
						-0.98512138246768,
						0.176425214626752
					],
					[
						-0.68449104496612,
						0.815579312091801
					],
					[
						0.387476439351428,
						0.0407277067277927
					]
				]
			},
			{
				"biases": [
					0.27485656256971,
					-0.93313167763127,
					-0.46220451015633,
					0.810123955929181
				],
				"weights": [
					[
						0.694679670663779,
						0.687138868792099
					],
					[
						0.82905782254432,
						0.476435790969917
					],
					[
						0.090726566633509,
						-0.37139773525608
					],
					[
						0.620480881418272,
						-0.06090528472694
					]
				]
			},
			{
				"biases": [
					0.178591765449299,
					-0.16925789335146,
					0.0782009302054752,
					-0.43250126092581
				],
				"weights": [
					[
						0.725441843542668,
						0.49429440274405
					],
					[
						-0.03488203450517,
						-0.62515248751365
					],
					[
						0.234243754996953,
						-0.04973663016581
					],
					[
						0.875377881628101,
						0.562183852610932
					]
				]
			},
			{
				"biases": [
					-0.79765287277733,
					0.54695870379281,
					0.141372956643751,
					-0.81308899408699
				],
				"weights": [
					[
						0.515225695244598,
						0.93493336890659
					],
					[
						-0.95470786925118,
						-0.05558092745438
					],
					[
						-0.86605538504824,
						-0.92120524929456
					],
					[
						0.109490073228396,
						-0.69674538519996
					]
				]
			},
			{
				"biases": [
					-0.50851928342661,
					-0.11968278643061,
					-0.97073776481875,
					-0.82092873925332
				],
				"weights": [
					[
						0.922878067219264,
						0.438949447087292
					],
					[
						0.219108652478626,
						0.625185506802573
					],
					[
						0.146940052196886,
						0.0283400398449828
					],
					[
						0.374986380695118,
						0.172793499714349
					]
				]
			},
			{
				"biases": [
					-0.97011932869601,
					-0.65742333323842,
					-0.12172453564564,
					-0.34581129078529
				],
				"weights": [
					[
						0.97854511352125,
						-0.07915206809754
					],
					[
						0.635804017720684,
						-0.85704072265136
					],
					[
						1.00566226847204,
						-0.79249245596409
					],
					[
						-0.95745840629627,
						0.916902459021114
					]
				]
			},
			{
				"biases": [
					0.513983546261506,
					-0.28043163642387,
					-0.97828772515545,
					-0.87571791772115
				],
				"weights": [
					[
						-0.12141807504835,
						-0.98599263881745
					],
					[
						0.480216197236379,
						0.0613089967580903
					],
					[
						0.673327147728007,
						-0.65471797413775
					],
					[
						0.711088959463728,
						0.418960835539955
					]
				]
			},
			{
				"biases": [
					0.992914484235186,
					-0.83666427980351,
					0.860012403124092,
					-0.01507762089587
				],
				"weights": [
					[
						0.0385957215226162,
						-0.64169419367363
					],
					[
						-0.36089021839052,
						0.416839349359181
					],
					[
						0.403713102058842,
						-0.7945418564577
					],
					[
						0.575604434111881,
						0.450491382200681
					]
				]
			},
			{
				"biases": [
					0.286062645585561,
					-0.89406703114665,
					0.116377049481176,
					0.313636935257989
				],
				"weights": [
					[
						0.950572642815315,
						0.0150685619927923
					],
					[
						-0.52462144636869,
						-0.50551944686146
					],
					[
						-0.78026126054487,
						0.296089333711134
					],
					[
						-0.73004218305422,
						-0.01840328883974
					]
				]
			},
			{
				"biases": [
					0.308566101024734,
					0.969474544915865,
					-0.6206048642528,
					-0.41645916315415
				],
				"weights": [
					[
						-0.17989955006934,
						-0.71144952047869
					],
					[
						0.851647472606215,
						-0.51656798128605
					],
					[
						0.485156152909883,
						-0.26532307194643
					],
					[
						-0.56685531792073,
						0.93243189635936
					]
				]
			},
			{
				"biases": [
					-0.91917986334457,
					0.922127480999332,
					-0.56681477588104,
					0.849032715018648
				],
				"weights": [
					[
						-0.14698803056146,
						0.0444556697571914
					],
					[
						0.964878874206794,
						-0.06569954028898
					],
					[
						-0.915127885209,
						-0.76668020369119
					],
					[
						-0.79619576533529,
						0.856159821593937
					]
				]
			},
			{
				"biases": [
					-0.38927785454916,
					0.0784951296027352,
					0.979920442915667,
					-0.58964196347687
				],
				"weights": [
					[
						-0.13954740941181,
						-0.53027437419143
					],
					[
						0.620656682291454,
						-0.2098520674019
					],
					[
						-0.09111822432195,
						-0.38280009206851
					],
					[
						0.908702903135546,
						-0.07760178901872
					]
				]
			},
			{
				"biases": [
					0.557569988990356,
					-0.17280641856847,
					0.763582301272677,
					-0.24222918662816
				],
				"weights": [
					[
						-0.13571716248007,
						-0.94215630697135
					],
					[
						0.724137050787367,
						-0.35036709209384
					],
					[
						0.193520806386037,
						-0.58291228630485
					],
					[
						-0.95592536793412,
						-0.53838112703021
					]
				]
			},
			{
				"biases": [
					-0.34377579603453,
					0.304035618013803,
					0.490704397081919,
					-0.66299453352073
				],
				"weights": [
					[
						0.290361850504326,
						0.517803837886786
					],
					[
						0.483801607295794,
						-0.96338263353821
					],
					[
						0.556971018156841,
						0.32128244836497
					],
					[
						-0.56388343786101,
						-0.43133124677646
					]
				]
			},
			{
				"biases": [
					-0.21704951202752,
					-0.54545151678605,
					0.687289307910761,
					0.675038935022394
				],
				"weights": [
					[
						-0.4564361550663,
						-0.66437054232827
					],
					[
						-0.58504360684639,
						0.7130621103294
					],
					[
						-0.00645349269314,
						0.673567469875014
					],
					[
						0.343289951534045,
						-0.97054666768442
					]
				]
			},
			{
				"biases": [
					-0.13255870546266,
					-0.48449202020194,
					0.0414794610149018,
					-0.40457935385698
				],
				"weights": [
					[
						-0.11794785047308,
						0.820283781485015
					],
					[
						0.267829721674118,
						0.323029738736649
					],
					[
						0.0511979133979836,
						-0.7965855414928
					],
					[
						-0.49314716887149,
						-0.22412091791319
					]
				]
			},
			{
				"biases": [
					-0.17063320772922,
					-0.40167203505388,
					-0.65994394302554,
					0.348876818652285
				],
				"weights": [
					[
						-0.01625349753523,
						-0.57261228310404
					],
					[
						0.980948156838502,
						0.726776250731395
					],
					[
						-0.09748900626592,
						-0.42124864969592
					],
					[
						0.826369085302221,
						-0.98614201194301
					]
				]
			},
			{
				"biases": [
					-0.30674330954749,
					-0.41319977008247,
					-0.47969927205505,
					-0.11753874316811
				],
				"weights": [
					[
						0.985072783346109,
						0.353931024595637
					],
					[
						0.795564324323552,
						-0.10284919711686
					],
					[
						0.364049380426135,
						-0.1487866046798
					],
					[
						-0.1838024529576,
						0.880638311331065
					]
				]
			},
			{
				"biases": [
					-0.74428205129936,
					0.0707075723622731,
					0.452537333857055,
					0.910007708098958
				],
				"weights": [
					[
						0.00688794334813769,
						-0.48793745451333
					],
					[
						0.987659107775041,
						-0.12300121642214
					],
					[
						1.05717642210207,
						0.731593260204447
					],
					[
						0.0264698034764978,
						0.307650811876269
					]
				]
			},
			{
				"biases": [
					-0.18517317768416,
					-0.2793078927902,
					-0.8054816438616,
					0.535963897872187
				],
				"weights": [
					[
						0.730402974599771,
						0.628155023982852
					],
					[
						-0.27742814132846,
						-0.1628474239323
					],
					[
						0.115122151701114,
						-0.95969215857417
					],
					[
						0.535426972464087,
						-0.6296506963589
					]
				]
			},
			{
				"biases": [
					-0.12360894952674,
					-0.35822888327485,
					-0.61233665265516,
					-0.6370735303935
				],
				"weights": [
					[
						0.626939991929055,
						0.136347400159381
					],
					[
						0.630257490172967,
						-0.98210190227914
					],
					[
						0.526989747028022,
						-0.80499269657834
					],
					[
						-0.17545949539381,
						0.956643823097331
					]
				]
			},
			{
				"biases": [
					-0.17098310183046,
					1.00929483276093,
					-0.70023059295532,
					0.656431799372046
				],
				"weights": [
					[
						0.587617823138013,
						-0.7521120233659
					],
					[
						0.464349485439376,
						-0.93143215047038
					],
					[
						0.678809625953993,
						0.419586066523712
					],
					[
						0.256658506265282,
						0.257294021641673
					]
				]
			},
			{
				"biases": [
					0.326903996364782,
					-0.27989307694448,
					0.116003385030118,
					-0.1522490094269
				],
				"weights": [
					[
						-0.16925517350762,
						0.94423800459457
					],
					[
						0.84983444628315,
						0.174308518936449
					],
					[
						0.516296467448717,
						-0.54886651288826
					],
					[
						0.771705586102795,
						0.637517541986555
					]
				]
			},
			{
				"biases": [
					0.195428819417421,
					-0.41637446563268,
					-0.86600997986332,
					-0.0317146027658
				],
				"weights": [
					[
						-0.38407033255022,
						-0.62134840363233
					],
					[
						0.145425933908284,
						0.5866196148445
					],
					[
						0.694217706274588,
						-0.71230405759101
					],
					[
						-0.56887846036546,
						-0.04713430743185
					]
				]
			},
			{
				"biases": [
					0.51516913531494,
					-0.18049799673352,
					0.701868481442821,
					-0.78618322619892
				],
				"weights": [
					[
						0.162679471859072,
						0.0772804706104434
					],
					[
						0.625928872870567,
						-0.55045306147587
					],
					[
						-0.32986143935676,
						-0.49911796525038
					],
					[
						0.991476481304191,
						-0.37136137445721
					]
				]
			},
			{
				"biases": [
					-0.17711531329714,
					0.330232646331875,
					-0.11439137687224,
					-0.45962288401578
				],
				"weights": [
					[
						0.203723955585557,
						-0.01017838368519
					],
					[
						0.824713847688851,
						0.633612192081354
					],
					[
						0.931594499744485,
						0.155224225972392
					],
					[
						0.346272679627012,
						-0.4715814251016
					]
				]
			},
			{
				"biases": [
					-0.012369713497,
					-0.7148191990759,
					0.405437006771696,
					-0.38848130526372
				],
				"weights": [
					[
						0.159593721855969,
						0.222538929288999
					],
					[
						-0.24842724429343,
						-0.97803706162487
					],
					[
						-0.0062081153905,
						-0.93847607455981
					],
					[
						-0.49831484627049,
						0.816426076185039
					]
				]
			},
			{
				"biases": [
					-0.64789459985492,
					0.651369231645109,
					-0.09072525761196,
					0.480176280675815
				],
				"weights": [
					[
						-0.2277937037285,
						-0.2913926699517
					],
					[
						0.0881234606218019,
						-0.29645705093721
					],
					[
						1.11747359733987,
						0.672603677515317
					],
					[
						-0.34655448954516,
						-0.13776850454847
					]
				]
			},
			{
				"biases": [
					-0.28966964652409,
					-0.02296472542788,
					0.336631105911754,
					-0.18791907836337
				],
				"weights": [
					[
						0.231375384761429,
						0.842488951038966
					],
					[
						-0.37519859031064,
						0.538712219433018
					],
					[
						0.827907946004806,
						-0.98298972203799
					],
					[
						0.342308340359025,
						0.330968806141809
					]
				]
			},
			{
				"biases": [
					0.140729742770347,
					-0.13261120859745,
					-0.8151789907823,
					0.362278569123178
				],
				"weights": [
					[
						-0.7592703114132,
						-0.85265002095567
					],
					[
						-0.53655114558903,
						0.175741596172154
					],
					[
						-1.00887926783827,
						-0.83006138561004
					],
					[
						0.151005244305608,
						-0.69411207896328
					]
				]
			},
			{
				"biases": [
					-0.52405349371207,
					0.757506689680425,
					-0.65952778194277,
					-0.03910211988903
				],
				"weights": [
					[
						0.272988688115857,
						0.913309841338553
					],
					[
						0.390891048080177,
						0.440841866900642
					],
					[
						0.525118336046361,
						-0.84632693360165
					],
					[
						-0.9688622135642,
						0.826850391013551
					]
				]
			},
			{
				"biases": [
					-0.68778447067925,
					0.296445870834918,
					-0.16078145990629,
					0.509631655787977
				],
				"weights": [
					[
						0.960080550739441,
						-0.83865033425615
					],
					[
						0.670148005240765,
						-0.21799587028082
					],
					[
						0.158393210507991,
						0.814013975058177
					],
					[
						-0.13903526756043,
						-0.247788313845
					]
				]
			},
			{
				"biases": [
					0.144585427779425,
					0.544319019480488,
					0.936304295215647,
					0.712519917777935
				],
				"weights": [
					[
						-0.50379264827794,
						-0.21399089851926
					],
					[
						0.0222237605631858,
						-0.94701973776881
					],
					[
						0.37873908076217,
						0.438534331568636
					],
					[
						1.07466195064717,
						-0.62448339732932
					]
				]
			},
			{
				"biases": [
					-0.58464795555337,
					0.554506298952963,
					0.796738559040669,
					0.410161806778551
				],
				"weights": [
					[
						0.493767908688707,
						-0.18941389042889
					],
					[
						-0.88101994568805,
						-0.15861727220856
					],
					[
						-0.65526215876068,
						0.557344548180011
					],
					[
						-0.7837089380797,
						0.725303876273057
					]
				]
			},
			{
				"biases": [
					-0.96308388259179,
					0.707032137470019,
					0.51656444972084,
					-0.25171134074968
				],
				"weights": [
					[
						0.312617528182554,
						0.19727382020532
					],
					[
						0.862759814773357,
						-0.03498575818105
					],
					[
						-0.27328451346293,
						-0.58026873939692
					],
					[
						0.809901548465776,
						-0.81564097433459
					]
				]
			},
			{
				"biases": [
					0.112319745437919,
					-0.71113655289492,
					0.0462886389717248,
					-0.81912823705316
				],
				"weights": [
					[
						-0.69043653024841,
						-0.42294444018237
					],
					[
						0.412909451107084,
						-0.65622597370105
					],
					[
						0.516327935625289,
						-0.34232265582441
					],
					[
						0.175758279862859,
						-0.29036903799267
					]
				]
			},
			{
				"biases": [
					-0.85289603404513,
					0.838523878552783,
					-0.50236492253123,
					0.521583821631903
				],
				"weights": [
					[
						-0.06935568104087,
						-0.62305339715489
					],
					[
						0.00908102803126722,
						-0.42303503861954
					],
					[
						0.108820748089718,
						-0.48649490993534
					],
					[
						0.0393685994225576,
						-0.50726187034879
					]
				]
			},
			{
				"biases": [
					-0.28197740910884,
					-0.5311448656319,
					-0.22647835063264,
					-0.61551646128462
				],
				"weights": [
					[
						0.521270447837352,
						0.138003652029104
					],
					[
						0.8002651903574,
						-0.27362227789396
					],
					[
						0.777031173782159,
						-0.69750387136938
					],
					[
						-0.60923657720816,
						-0.60636019630541
					]
				]
			},
			{
				"biases": [
					-0.89742428091847,
					0.221438292454855,
					0.0661093695707491,
					0.476539837289262
				],
				"weights": [
					[
						0.541976977321319,
						-0.83218288610432
					],
					[
						-0.15247895417916,
						0.0329250629761442
					],
					[
						-0.57511120070392,
						-0.52933057831827
					],
					[
						0.582946192977627,
						0.733161635759847
					]
				]
			},
			{
				"biases": [
					-0.0708735520215,
					-0.10925802392512,
					0.136485466756075,
					0.714912203455467
				],
				"weights": [
					[
						0.866991198453295,
						0.893923671717677
					],
					[
						0.814820799460009,
						0.0766550882561906
					],
					[
						0.083906739801864,
						0.437470407130179
					],
					[
						0.00413173781271059,
						0.780667431245734
					]
				]
			},
			{
				"biases": [
					0.960157370819437,
					0.668144573334527,
					-0.91828704040244,
					-0.16506051461894
				],
				"weights": [
					[
						0.114388606980118,
						0.0270894748572513
					],
					[
						0.557139636591273,
						0.219609512702058
					],
					[
						1.0060159897318,
						-0.12134629158572
					],
					[
						0.125100259022689,
						0.905435008874454
					]
				]
			},
			{
				"biases": [
					-0.78363816520822,
					-0.79857483757242,
					-0.06939522381241,
					0.491224925692682
				],
				"weights": [
					[
						0.991241618595132,
						0.165198643134561
					],
					[
						0.229022354373068,
						0.0330625210354663
					],
					[
						0.0751646567152455,
						0.267784056043383
					],
					[
						0.86833767942859,
						0.675448434976292
					]
				]
			},
			{
				"biases": [
					-0.63847778999314,
					0.885844049026905,
					0.555184057705845,
					-0.63837979186457
				],
				"weights": [
					[
						0.0345926143333257,
						-0.97629347623153
					],
					[
						-0.88531716439259,
						-0.74483256019029
					],
					[
						0.702350202770724,
						0.57228662965765
					],
					[
						0.231274043353271,
						-0.61370405127597
					]
				]
			},
			{
				"biases": [
					0.800509712856255,
					0.103055763351266,
					-0.64984974769927,
					-0.01200026623524
				],
				"weights": [
					[
						0.559994490322242,
						-0.6163626259622
					],
					[
						0.571252553492432,
						-0.41499492215691
					],
					[
						-0.93005768639874,
						0.279660741461392
					],
					[
						-0.42135966335361,
						0.620262333967427
					]
				]
			},
			{
				"biases": [
					-0.39407769811279,
					0.818786055782405,
					0.232232301712373,
					-0.35512956503973
				],
				"weights": [
					[
						-0.90477040253766,
						0.0266958011966522
					],
					[
						0.456774770640818,
						-0.0550433874605
					],
					[
						-0.94447740730989,
						0.659158734168856
					],
					[
						0.282990292609309,
						0.509163830978742
					]
				]
			},
			{
				"biases": [
					0.514156753843664,
					0.959192848616793,
					0.0392128404989462,
					-0.7198211979607
				],
				"weights": [
					[
						-0.57936074062217,
						-0.02601522297316
					],
					[
						-0.6821312050401,
						0.27348803504278
					],
					[
						0.365780678287413,
						-0.1417423435113
					],
					[
						-0.67601363527722,
						-0.29767190869365
					]
				]
			},
			{
				"biases": [
					0.200136958222143,
					-0.57875591143007,
					-0.13490527877097,
					0.407394197892446
				],
				"weights": [
					[
						-0.71654288144599,
						-0.64062614412048
					],
					[
						0.884814715336469,
						0.750006969912159
					],
					[
						-0.99301826717976,
						-0.94396681857008
					],
					[
						0.381946078372316,
						0.462092379398727
					]
				]
			},
			{
				"biases": [
					-0.2039920836329,
					-0.61760695051392,
					0.912773919089215,
					-0.05523949188185
				],
				"weights": [
					[
						0.0779606231138282,
						0.285199274966134
					],
					[
						0.861933589552884,
						0.107838312042485
					],
					[
						0.542730327446756,
						0.239650763265839
					],
					[
						0.776536385317045,
						-0.10968266316866
					]
				]
			},
			{
				"biases": [
					-0.13910191878195,
					0.359761966100958,
					-0.19968555389176,
					-0.12930189087748
				],
				"weights": [
					[
						-0.11572561434424,
						-0.12391041063463
					],
					[
						-0.24731117973538,
						-0.8505386051771
					],
					[
						0.525016218196085,
						0.163126107272202
					],
					[
						0.440311047880312,
						-0.41622223231908
					]
				]
			},
			{
				"biases": [
					-0.58437068873718,
					-0.80163221399251,
					0.688949949818299,
					0.264463652966898
				],
				"weights": [
					[
						-0.41880190708728,
						0.862121508148751
					],
					[
						0.068424775843749,
						-0.20819804017541
					],
					[
						0.979035235613031,
						-0.37446858059008
					],
					[
						0.370356068008267,
						0.566474050440226
					]
				]
			},
			{
				"biases": [
					0.227454730668105,
					-0.14728543960228,
					0.446786026699016,
					0.26418664590721
				],
				"weights": [
					[
						-0.86546476223381,
						0.331865406459959
					],
					[
						0.58391321418499,
						0.756358056986758
					],
					[
						-0.42840929499891,
						-0.31342748807898
					],
					[
						0.0132631652488595,
						-0.82879566633829
					]
				]
			},
			{
				"biases": [
					0.099693864133989,
					0.521638524805147,
					-0.19658358751367,
					-0.82184790554723
				],
				"weights": [
					[
						0.550179339413783,
						-0.54960231151463
					],
					[
						0.281031499941,
						-0.1439241125139
					],
					[
						0.223483700496871,
						-0.15799581357337
					],
					[
						-0.11888508739717,
						0.26982383007604
					]
				]
			},
			{
				"biases": [
					0.0822675551166329,
					-0.92468695808676,
					-0.15455016956388,
					-0.48831729097607
				],
				"weights": [
					[
						0.422136129363324,
						-0.35118745639477
					],
					[
						-0.50624760385625,
						0.145333517423543
					],
					[
						-0.9101456369684,
						-0.25545633152593
					],
					[
						-0.98181884692495,
						0.503262348570701
					]
				]
			},
			{
				"biases": [
					-0.60870019985074,
					-0.75463581250064,
					0.092275550324499,
					-0.12753629858913
				],
				"weights": [
					[
						-0.60471203733737,
						0.0261549006163704
					],
					[
						-1.01598254173879,
						0.322314602721602
					],
					[
						-0.82020786904734,
						0.195265682943709
					],
					[
						0.0577515638116996,
						0.589366061794906
					]
				]
			},
			{
				"biases": [
					0.658827051947058,
					-0.08054582169587,
					-0.606914647559,
					0.108701004083866
				],
				"weights": [
					[
						-0.50659966416705,
						-0.83921313834288
					],
					[
						-0.82700654224157,
						-0.14510917624185
					],
					[
						-0.15300278899364,
						1.05044913856674
					],
					[
						0.0694702586450301,
						-0.19755112909071
					]
				]
			},
			{
				"biases": [
					-0.60533809397485,
					0.247602642600221,
					0.829083994230041,
					-0.49135310148023
				],
				"weights": [
					[
						0.0777018373300458,
						0.608533280592898
					],
					[
						-0.18629973925105,
						-0.69448024457431
					],
					[
						-0.32043841253181,
						0.960877891498264
					],
					[
						-0.66336195218405,
						0.941671000547705
					]
				]
			},
			{
				"biases": [
					0.810456073816984,
					-0.12376355399194,
					-0.40786825192782,
					0.507270839975547
				],
				"weights": [
					[
						0.952242495194532,
						0.929563629784203
					],
					[
						0.661676401114364,
						0.254586540040221
					],
					[
						0.392169857949095,
						-0.43716405191767
					],
					[
						-0.4852022283532,
						-0.2370063429253
					]
				]
			},
			{
				"biases": [
					-0.14878976525804,
					-0.03920868111785,
					-0.95675830530303,
					0.261431637875
				],
				"weights": [
					[
						-0.46350228297687,
						0.237569051821182
					],
					[
						0.156907289504212,
						0.67350221928117
					],
					[
						0.964109211002391,
						-0.27663424562279
					],
					[
						0.466208342273034,
						0.747409278928934
					]
				]
			},
			{
				"biases": [
					0.683041159147391,
					0.00889520021857754,
					-0.43775558024312,
					0.417458999980132
				],
				"weights": [
					[
						-0.11618171917575,
						-0.10943281937
					],
					[
						-0.6823998164501,
						0.836156578096797
					],
					[
						0.473496116953356,
						0.133984091258039
					],
					[
						0.604857939853232,
						0.321536502583931
					]
				]
			},
			{
				"biases": [
					-0.30516694438608,
					-0.3748665117321,
					0.184099543291351,
					-0.28163135375309
				],
				"weights": [
					[
						0.731409716365979,
						0.823772570076176
					],
					[
						-0.44987004079192,
						0.468675159237541
					],
					[
						0.458231155521503,
						-0.33361426389386
					],
					[
						0.324957240324553,
						0.681868411573153
					]
				]
			},
			{
				"biases": [
					-0.12000076676912,
					-0.81319600428377,
					0.0185484843582928,
					0.439433308584627
				],
				"weights": [
					[
						-0.88664023792096,
						-0.81916629108218
					],
					[
						0.642916124359915,
						-0.17961462221575
					],
					[
						0.980742413555743,
						-0.67153064229376
					],
					[
						-0.05885010307314,
						0.657433623940515
					]
				]
			},
			{
				"biases": [
					-0.67589937661844,
					0.849899555479255,
					-0.27544834117029,
					-0.2878938826644
				],
				"weights": [
					[
						-0.32374259049006,
						0.920094553529831
					],
					[
						0.533933738386719,
						-0.32483485885692
					],
					[
						0.481508800872113,
						-0.24700994217641
					],
					[
						0.655764950521259,
						-0.58859684477722
					]
				]
			},
			{
				"biases": [
					0.801016743293485,
					-0.76892007282088,
					-0.75958326326541,
					0.851254928842573
				],
				"weights": [
					[
						0.16103915606808,
						-0.9911230534183
					],
					[
						-0.38585252316331,
						-0.90308019863157
					],
					[
						0.393588121213679,
						-0.9688594950045
					],
					[
						-0.46816781237068,
						-0.75518245439412
					]
				]
			},
			{
				"biases": [
					0.663266008879709,
					-0.14125735616827,
					-0.17893450023897,
					-0.20778453392651
				],
				"weights": [
					[
						0.630149792260638,
						-0.7257250299152
					],
					[
						-0.46314091891259,
						0.350770663469957
					],
					[
						-0.55122873899242,
						-0.68910138930589
					],
					[
						-0.54980653623468,
						0.661864119638461
					]
				]
			},
			{
				"biases": [
					0.939499948031738,
					-0.83751005872863,
					0.782657203335252,
					0.918081283607934
				],
				"weights": [
					[
						-0.40070705010258,
						0.862487222493247
					],
					[
						-0.19319863961549,
						0.365753883592247
					],
					[
						-0.82209245336397,
						-0.47504886644436
					],
					[
						0.684649510747842,
						-0.74650198378846
					]
				]
			},
			{
				"biases": [
					0.861164567287294,
					-0.82089432907429,
					-0.73435400982429,
					-0.8975782495947
				],
				"weights": [
					[
						-0.76944073839085,
						-0.74382670428111
					],
					[
						-0.60841444159062,
						0.868552921853217
					],
					[
						0.236632420357489,
						0.782708272217703
					],
					[
						0.790936608690119,
						0.320301681936111
					]
				]
			},
			{
				"biases": [
					-0.53626525392044,
					-0.01444435724809,
					0.233189446399981,
					-0.12872999183955
				],
				"weights": [
					[
						0.965679934094488,
						0.0236480418754095
					],
					[
						-0.58251959785231,
						-0.97036908007963
					],
					[
						-0.24570576569147,
						0.841170711677514
					],
					[
						-0.98784180215448,
						-0.66774240647543
					]
				]
			},
			{
				"biases": [
					-0.62241342660183,
					0.97081768338232,
					-0.82069929687175,
					-0.50999407840219
				],
				"weights": [
					[
						-0.97889370170484,
						-0.50985020531359
					],
					[
						0.822182078326187,
						0.568335236364685
					],
					[
						-0.21428982757479,
						-0.8681270162694
					],
					[
						-0.39562057468689,
						-0.60333724461256
					]
				]
			},
			{
				"biases": [
					-0.36001595743035,
					-0.55215981181318,
					0.654409956949489,
					1.02116960894308
				],
				"weights": [
					[
						0.322668509146234,
						0.774598273441413
					],
					[
						0.215476785705249,
						0.155992361656845
					],
					[
						0.00429899337546413,
						-0.47732235206019
					],
					[
						0.514034774146013,
						-0.0931551146436
					]
				]
			},
			{
				"biases": [
					0.646961832796339,
					0.957108401127225,
					-1.01050271363182,
					-0.01036550567005
				],
				"weights": [
					[
						-0.1218107976473,
						-0.02212976816028
					],
					[
						-0.38974701231692,
						-0.4665469564885
					],
					[
						0.879386915191638,
						-0.85724245823521
					],
					[
						-0.69951893525002,
						-0.44377611150965
					]
				]
			},
			{
				"biases": [
					0.241986836192481,
					-0.49797536001809,
					-0.93433134107714,
					-0.36704802699302
				],
				"weights": [
					[
						-0.54279379082433,
						-0.88552463636503
					],
					[
						0.865894956194217,
						0.762895739533271
					],
					[
						0.630975378811146,
						-0.95215975971979
					],
					[
						0.0617494148411321,
						-0.06576956763614
					]
				]
			},
			{
				"biases": [
					0.919437260189179,
					0.501842463061064,
					-0.63754634421298,
					-0.97546455348741
				],
				"weights": [
					[
						0.419154127094517,
						0.183808787938623
					],
					[
						-0.15173049797869,
						-0.12256532964392
					],
					[
						0.95738624841471,
						-0.50361282894136
					],
					[
						-0.0520602288503,
						0.356227104898068
					]
				]
			},
			{
				"biases": [
					0.285581661382911,
					0.131843886264788,
					0.908772283576491,
					-0.49067035733805
				],
				"weights": [
					[
						0.853486950435109,
						0.779980711014665
					],
					[
						-0.30322602845572,
						0.959517139488795
					],
					[
						-0.69953705006236,
						0.490874734949543
					],
					[
						-0.10389439128089,
						0.458919668083494
					]
				]
			},
			{
				"biases": [
					-0.362938604626,
					0.637728037070241,
					-0.77548622106067,
					-0.54456793473124
				],
				"weights": [
					[
						-0.75743382901126,
						0.544836802565495
					],
					[
						-0.24274516622727,
						-0.95979442511891
					],
					[
						-0.39967083309025,
						-0.86753351397303
					],
					[
						-0.29937803047969,
						0.59636612132673
					]
				]
			},
			{
				"biases": [
					-0.27774713583466,
					0.931104237999162,
					0.934309834502358,
					0.485399788016119
				],
				"weights": [
					[
						0.276928024520763,
						0.00244728263747057
					],
					[
						-0.5130638015676,
						-0.29258943082325
					],
					[
						-0.87815301177423,
						0.763269818523555
					],
					[
						-0.38411299254645,
						0.504257554536487
					]
				]
			},
			{
				"biases": [
					0.890672824705262,
					-0.87095716119768,
					0.566038134670697,
					0.271607136282924
				],
				"weights": [
					[
						0.398469010142801,
						0.641683297218849
					],
					[
						0.317745646070298,
						-0.1701405874296
					],
					[
						-0.34614076895855,
						0.251219947806796
					],
					[
						0.532004396915798,
						-0.94844041037932
					]
				]
			},
			{
				"biases": [
					-0.93635423202507,
					0.498159049476882,
					-0.49606874604312,
					0.863828070492069
				],
				"weights": [
					[
						-0.90841100437142,
						-0.06980068377215
					],
					[
						-0.43862352450637,
						-0.66353185097463
					],
					[
						0.0950068332170783,
						-0.21112149238329
					],
					[
						-0.72008072000876,
						0.982812558243211
					]
				]
			},
			{
				"biases": [
					-0.72684308237422,
					-0.38671647725127,
					0.986747035451318,
					0.374203428578626
				],
				"weights": [
					[
						-0.15656045538623,
						0.659911502065298
					],
					[
						0.365046655391164,
						0.38764147711352
					],
					[
						-0.81165022313176,
						0.343996946596636
					],
					[
						0.766783869622843,
						-0.69164980389848
					]
				]
			},
			{
				"biases": [
					0.877286263380897,
					-0.11605887148304,
					-0.90859512422804,
					-0.19308341092982
				],
				"weights": [
					[
						0.525606667936401,
						0.200850901168164
					],
					[
						0.343274192031377,
						-0.89330076770683
					],
					[
						-0.1217431926242,
						0.925709424704402
					],
					[
						0.135737547552387,
						0.523074240731139
					]
				]
			},
			{
				"biases": [
					0.761333882393419,
					0.116345203309867,
					0.320825372476607,
					0.0872088839024177
				],
				"weights": [
					[
						-0.7464193783105,
						0.0901435567465903
					],
					[
						0.680251263989664,
						0.821898610676257
					],
					[
						0.567947327888844,
						0.915050303378835
					],
					[
						0.270611415459956,
						0.0732304817028985
					]
				]
			},
			{
				"biases": [
					1.01032069448444,
					0.406369174598115,
					-0.29309445026817,
					0.364018749869181
				],
				"weights": [
					[
						-0.43281164170951,
						0.486938299508498
					],
					[
						-0.64317929142144,
						-0.61806587287711
					],
					[
						-0.00633897868353,
						0.828540710770513
					],
					[
						0.446750332281192,
						0.72166834368137
					]
				]
			},
			{
				"biases": [
					0.224327339075039,
					0.61418386143424,
					0.169514922293623,
					-0.866692137182
				],
				"weights": [
					[
						0.822056285416385,
						-0.08016656251435
					],
					[
						-0.67304480622267,
						-0.94615287158979
					],
					[
						-0.62117595724172,
						0.835705380400019
					],
					[
						-0.0506459632371,
						-0.4318783974093
					]
				]
			},
			{
				"biases": [
					-0.8672376768137,
					0.328995798777644,
					-0.89543584985828,
					-0.05710496533211
				],
				"weights": [
					[
						-0.81703813814845,
						-0.47498482468874
					],
					[
						0.319299232072638,
						0.443279004144771
					],
					[
						-0.91231254090373,
						0.834555218696382
					],
					[
						0.450190930364186,
						-0.1319517292036
					]
				]
			},
			{
				"biases": [
					0.0226026369899796,
					0.421363793063255,
					-0.09802371542813,
					0.87467529566614
				],
				"weights": [
					[
						0.171372964741768,
						-0.08988222585491
					],
					[
						0.931202811408345,
						0.799027488603806
					],
					[
						1.01441467410131,
						-0.74020082341079
					],
					[
						-0.81206115987525,
						-0.60442354889368
					]
				]
			},
			{
				"biases": [
					0.0464302496000818,
					-0.8494854860502,
					0.0748919093542167,
					0.208618724368896
				],
				"weights": [
					[
						0.201372880878663,
						-0.46007073615013
					],
					[
						-0.18231712757648,
						-0.33818684524943
					],
					[
						-0.38758445186636,
						0.718319665121176
					],
					[
						0.999556002515603,
						0.205039353416798
					]
				]
			},
			{
				"biases": [
					-0.70684292127877,
					0.668417423066979,
					0.82634882498179,
					-0.51750990118185
				],
				"weights": [
					[
						-0.09590175252252,
						-0.02749434770642
					],
					[
						0.415644862974722,
						0.211063093914875
					],
					[
						1.02507539707089,
						-0.22032792045671
					],
					[
						0.502274444091333,
						-0.25830543324232
					]
				]
			},
			{
				"biases": [
					0.531576166742833,
					0.375327828575892,
					0.272767204671627,
					0.542576174321618
				],
				"weights": [
					[
						0.453836425156624,
						-0.14157294875689
					],
					[
						0.770647548012109,
						-0.11502665471868
					],
					[
						0.435341104811405,
						-0.90682953373332
					],
					[
						0.147313851034943,
						0.324792181260441
					]
				]
			},
			{
				"biases": [
					-0.48810215635557,
					-0.98996026876514,
					0.0697678605715084,
					0.269135486658364
				],
				"weights": [
					[
						-0.62276664349073,
						0.446428470521629
					],
					[
						-0.16538818849137,
						0.0751001339986387
					],
					[
						0.432503048957137,
						0.614757678888438
					],
					[
						-0.20873606872039,
						-0.2664181239416
					]
				]
			},
			{
				"biases": [
					0.948462496179889,
					0.403336280927885,
					0.609039053627185,
					0.93834027967223
				],
				"weights": [
					[
						-0.91650199600019,
						0.408506076653999
					],
					[
						-0.4760294541185,
						-0.18730536751215
					],
					[
						-0.56650319329164,
						-0.77582519836088
					],
					[
						-0.8015157712427,
						-0.58404964108591
					]
				]
			},
			{
				"biases": [
					0.715268049136647,
					0.634855436059877,
					-0.98714391478149,
					-0.33592571847634
				],
				"weights": [
					[
						-0.1693825941212,
						-0.17634789190594
					],
					[
						-0.28634874818991,
						0.0112020577021687
					],
					[
						-0.71156745877366,
						-0.37918316002806
					],
					[
						-0.79636187822753,
						0.0877839826248206
					]
				]
			},
			{
				"biases": [
					-0.74626883358897,
					-0.9839567838775,
					-0.28592494845757,
					0.533298018314629
				],
				"weights": [
					[
						0.417728867560106,
						-0.72986195402659
					],
					[
						0.759458247272957,
						0.815286362381703
					],
					[
						-0.44003913985524,
						0.427582760858834
					],
					[
						-0.77888188434498,
						-0.55019583532127
					]
				]
			},
			{
				"biases": [
					0.281292606244609,
					-0.46737378242932,
					-0.85854320144941,
					-0.67529602849471
				],
				"weights": [
					[
						0.0225576411232022,
						0.747543534729858
					],
					[
						-0.08419232478112,
						0.140550935720736
					],
					[
						0.128020571052592,
						0.680127759270952
					],
					[
						-0.5836203544368,
						0.17604528119356
					]
				]
			}
		]
	},
	"embedding_input": {
		"input": 30,
		"is_biased": false,
		"layers": [
			{
				"a": 0,
				"b": [
					0,
					0,
					0,
					0,
					0,
					0,
					0,
					0,
					0,
					0,
					0,
					0,
					0,
					0,
					0,
					0,
					0,
					0,
					0,
					0,
					0,
					0,
					0,
					0,
					0,
					0,
					0,
					0,
					0,
					0,
					0,
					0,
					0,
					0,
					0,
					0,
					0,
					0,
					0,
					0,
					0,
					0,
					0,
					0,
					0,
					0,
					0,
					0,
					0,
					0,
					0,
					0,
					0,
					0,
					0,
					0,
					0,
					0,
					0,
					0,
					0,
					0,
					0,
					0,
					0,
					0,
					0,
					0,
					0,
					0,
					0,
					0,
					0,
					0,
					0,
					0,
					0,
					0,
					0,
					0,
					0,
					0,
					0,
					0,
					0,
					0,
					0,
					0,
					0,
					0,
					0,
					0,
					0,
					0,
					0,
					0,
					0,
					0,
					0,
					0
				],
				"i": 30,
				"o": 100,
				"w": [
					-0.04725294419386,
					0.214122761542004,
					-0.44943990886964,
					0.0737637923487925,
					0.04113144917369,
					0.29425240077894,
					-0.07411349742372,
					0.0753039124102963,
					-0.2873206618852,
					0.150771045099405,
					-0.21732683542148,
					0.408268226506443,
					-0.38687407652946,
					0.0504574468650115,
					-0.32237589549725,
					0.221790244029746,
					0.084748825999619,
					0.205078048076863,
					-0.3745704159725,
					0.434197283732282,
					-0.0464812208613,
					0.255701977305763,
					0.485170177935809,
					-0.34121709761414,
					-0.06456345038853,
					-0.00343730949496,
					-0.24909128325814,
					-0.05053373190619,
					-0.00883793544865,
					-0.19009621761359,
					-0.2813052591262,
					-0.26539555250838,
					-0.31775846539892,
					-0.20449966029286,
					0.235078750513805,
					0.178701726119532,
					-0.49834644034568,
					0.375045388426902,
					0.447571188139741,
					-0.01959081280187,
					0.0643464201151264,
					-0.32334006764497,
					-0.1946792548022,
					-0.22678143986449,
					-0.11425006191237,
					0.187623377241024,
					-0.01948824067278,
					0.0884060234163776,
					0.479168591326627,
					-0.30864298984638,
					0.311136940799752,
					0.0514776885960098,
					-0.46117161950887,
					0.161651250481313,
					0.2946504206873,
					-0.14983104580274,
					-0.08661076093889,
					-0.18077970904705,
					0.29829008718871,
					-0.49223687664553,
					-0.21163580494246,
					-0.38118103336961,
					-0.42251719622928,
					-0.39396259360399,
					0.420372134302431,
					-0.06845798833037,
					-0.44380576777291,
					0.426676745677487,
					-0.32388900839651,
					0.134560682138853,
					0.106578415965497,
					-0.33023447284917,
					0.456665334827888,
					0.390586172129085,
					0.157765713526877,
					0.489993181399342,
					-0.38353826178919,
					0.148284081051899,
					0.38606086281489,
					0.201527958589699,
					-0.26026909342069,
					-0.22963648959496,
					-0.47025251871062,
					0.122413228119481,
					0.176158237110925,
					-0.46844660092466,
					-0.08510672630338,
					0.315084642556901,
					-0.43700473030865,
					-0.05414381911991,
					-0.21536825296195,
					-0.14244474952246,
					0.0503931191568618,
					-0.16972929067323,
					0.182641553708464,
					-0.23125885046998,
					0.070464216105382,
					0.392263318978525,
					0.294015017329001,
					0.339617754174044,
					0.440484964161998,
					0.438485821455754,
					0.296950269818173,
					-0.37842440262869,
					0.216614724392043,
					0.0783330485704533,
					0.412309890289702,
					0.260670267229008,
					0.110157170648308,
					-0.37513355423137,
					0.351157223551254,
					0.296886867282427,
					0.393577996725336,
					0.000414688936167677,
					-0.23927709252806,
					0.455526193961967,
					-0.20004877644555,
					-0.20286269322632,
					-0.10526872670544,
					-0.34840856408747,
					-0.35201748738952,
					-0.17342620604002,
					-0.29619131018909,
					0.203864088191202,
					0.401596982424247,
					0.181030809715539,
					-0.37832039705573,
					-0.09357054348751,
					0.49828120048843,
					0.290371446070626,
					0.190614645341651,
					0.32166764265974,
					0.0752016500398701,
					0.32146488836771,
					0.33879165078942,
					-0.32204028783691,
					-0.29253749458792,
					-0.43613246631043,
					0.225079187518081,
					0.247431644289739,
					0.0529617486422595,
					-0.17788765312376,
					-0.03074882492344,
					-0.07911441011433,
					0.208012185806573,
					-0.15788488242051,
					0.100711011238478,
					0.410046918856215,
					-0.42959202580915,
					-0.012368263294,
					-0.32945166628437,
					-0.00700418613809,
					-0.09523064654492,
					0.442604785079763,
					-0.04652144108,
					0.2772958167281,
					-0.2900236096302,
					-0.11943462246256,
					0.397684346497607,
					0.0392906809351677,
					-0.22715403713554,
					0.317509944663833,
					-0.04988532000473,
					-0.3650997029204,
					0.350476033276383,
					0.357264674901389,
					0.285303998359705,
					0.272728032570236,
					-0.24033181123816,
					-0.28322193637399,
					-0.09310321565756,
					-0.10652933205365,
					0.287899836381438,
					0.358841896580071,
					0.19886293550346,
					0.366620748094539,
					0.0485527750231318,
					0.447310793080829,
					-0.25252829131667,
					0.137968913002078,
					0.350398482021754,
					-0.47400031214381,
					0.0941112591307682,
					-0.3567058296621,
					-0.04390409218963,
					0.251520632954576,
					-0.02066798581936,
					-0.34026914875016,
					0.29353080128026,
					-0.28593211739165,
					-0.30631115551865,
					-0.33180645329011,
					-0.41823113201147,
					0.248416104657192,
					0.155927560084663,
					0.183479655117294,
					-0.00644614205643,
					0.0615400432472781,
					-0.04961990594196,
					-0.14371302866715,
					-0.03453789495962,
					0.0866400996989842,
					-0.22750769083706,
					-0.49968962990188,
					0.406958399286579,
					-0.09912591289172,
					-0.33443868573076,
					0.196695367825886,
					-0.48570920673155,
					0.243385995584093,
					0.486753115652487,
					0.162187024732126,
					0.116835405492621,
					-0.47223690818977,
					-0.0957400613737,
					-0.11583613448483,
					0.376054483483537,
					0.343217678874098,
					0.486362111251737,
					0.303262207694923,
					-0.31411206299909,
					0.0201223082441137,
					0.4276481570817,
					-0.41997559830467,
					-0.05330893449611,
					-0.24912208186134,
					0.132150673197962,
					0.0608780966847663,
					-0.43294869632496,
					0.0803332002826382,
					-0.28900134618114,
					0.184500974042178,
					0.190103424911447,
					-0.45832081575218,
					-0.32214660462093,
					0.0623663690981428,
					-0.28695967837293,
					0.420330800464155,
					0.385794196818716,
					0.189164993965752,
					-0.0175921174381,
					0.19635201091238,
					-0.34627011740768,
					-0.17194196464082,
					-0.26485305381804,
					-0.23755659025517,
					-0.46628501173735,
					0.33491305647267,
					0.071912903455017,
					-0.37701370246748,
					0.183926606825161,
					0.0389682979030539,
					0.388444956889593,
					0.108879283547106,
					0.333046289291724,
					0.126635800304031,
					-0.05038129610459,
					-0.38104138265587,
					-0.3049291997692,
					0.319698282693985,
					0.265928733910487,
					-0.23772816153254,
					-0.22397552403104,
					0.271443049205842,
					-0.16885769141094,
					-0.22784532759589,
					-0.0177219484321,
					-0.12104006828427,
					0.483915621293536,
					0.352071617728734,
					-0.44601870514765,
					0.048829628007895,
					-0.44816516674708,
					0.2963410219669,
					-0.172881697707,
					-0.39208603724668,
					0.413412316685808,
					0.25048160301107,
					0.158432476059368,
					-0.34783790378426,
					-0.46040324056911,
					0.214730017419471,
					0.53749790553336,
					-0.42358609147082,
					-0.48638189427115,
					-0.1060609668953,
					0.0755724698714627,
					-0.3374280784787,
					-0.45509561011747,
					-0.34174299312474,
					0.163856712042188,
					0.112992881016172,
					-0.34755151030127,
					-0.23587087696848,
					-0.08724066588372,
					-0.31664157826044,
					0.180549633449571,
					0.169181375948584,
					-0.26380559753926,
					0.192882230269913,
					-0.0706006886951,
					0.209063057592858,
					-0.42834898107435,
					-0.3313585408822,
					0.302119106800347,
					0.222094566274108,
					-0.36410429225663,
					-0.02339148392236,
					0.276164304941256,
					-0.30657082923503,
					-0.37910228349577,
					-0.42766529060912,
					0.145669530409326,
					-0.01951908727698,
					-0.40321837708899,
					-0.13492891880666,
					0.232321292078233,
					-0.0317717667229,
					0.250969565011148,
					-0.12253366253995,
					0.474802084551858,
					-0.40984666467567,
					-0.05721878287117,
					0.157270855037663,
					0.0319098101973022,
					0.402197626154782,
					-0.3560714553998,
					-0.3015424412819,
					-0.45121542475836,
					0.266767490210699,
					-0.26771109166876,
					0.12471462235966,
					-0.23832056268168,
					-0.06066865464236,
					-0.11083118565337,
					-0.08916139580576,
					-0.10237751040798,
					-0.1008689046439,
					0.340479937522456,
					-0.35576094502433,
					0.198239816438083,
					0.360400837210414,
					0.334701158818227,
					0.290312298797029,
					-0.25475304051598,
					-0.07827878104089,
					0.467563486061057,
					0.225402178020579,
					-0.00149625602267,
					0.18025242854327,
					-0.39730465828893,
					-0.47685709034695,
					0.105740848873202,
					-0.09712745569363,
					0.313534801958806,
					0.138336152243516,
					0.446876260619106,
					-0.17939313081704,
					-0.19536510052684,
					0.341096008771181,
					0.192868753910012,
					-0.30892721452421,
					-0.3523807971307,
					-0.40083622221537,
					0.0980971461293453,
					0.198105352788245,
					0.0344452604993672,
					0.312939413034599,
					-0.33285911226889,
					0.187963162096011,
					0.406314940357546,
					0.204895732151395,
					-0.43585953383865,
					0.438490512626563,
					-0.24092751949356,
					0.191644089571774,
					-0.42754339269482,
					-0.46797219902115,
					-0.33825363504081,
					0.0164045036893627,
					0.272590481195343,
					-0.43261496872729,
					-0.43791878309771,
					-0.22678848507595,
					-0.30489758899336,
					0.185683806246175,
					0.325717928258252,
					-0.32447560990156,
					0.437993036851524,
					0.300311444175083,
					-0.33927636812383,
					0.467893352005062,
					0.422662309613825,
					-0.16925926909698,
					-0.26751221399606,
					-0.1855586463558,
					-0.25526742887076,
					0.321861252147751,
					0.346155499902562,
					-0.248644359595,
					-0.40626097387439,
					-0.11699733020069,
					0.472984711517026,
					-0.46014857028262,
					0.348248583029932,
					0.361497901242155,
					-0.46965349745755,
					-0.39069915182001,
					0.427583341836771,
					-0.00762333172124,
					0.406179871474505,
					-0.0390511437312,
					0.213894551490795,
					-0.09881430402297,
					-0.17801233853281,
					-0.12276770436459,
					0.487858403537477,
					0.303727645852358,
					-0.46697068293251,
					-0.03588806443273,
					-0.09787893839488,
					-0.14230802013743,
					0.157095445621212,
					0.234165572551639,
					-0.05327027819409,
					0.0723591220225568,
					-0.4163796339273,
					0.446191148745497,
					0.0532955082670272,
					0.0375948910233614,
					0.40302392422957,
					0.348459113367596,
					-0.28617690078162,
					0.414599159855081,
					0.434297094814934,
					-0.12594074686528,
					0.493390471411816,
					0.0693546517947709,
					-0.10277731640163,
					0.0563947394118514,
					0.138310436540324,
					0.174308076382724,
					-0.090147870731,
					0.351291615698488,
					-0.36994705101678,
					0.221785747226692,
					-0.27862841456401,
					-0.41591178548584,
					0.463611993004861,
					0.0476511899572746,
					-0.22841565290031,
					0.0122136109140281,
					-0.43774631844963,
					-0.40699806595099,
					0.436588987456596,
					-0.32804356300525,
					-0.46285898865359,
					0.0508028359726161,
					0.43369489587193,
					0.108393628296362,
					0.263119474289107,
					0.454623744125974,
					-0.18012190600183,
					-0.44100083905502,
					0.260380397963509,
					0.269464907656636,
					0.223099897577914,
					-0.15971005329212,
					0.117354198263676,
					-0.28394046156471,
					-0.10803581900759,
					0.311715254708179,
					0.406445047371099,
					-0.32123442555201,
					0.489682811032973,
					0.197136068500667,
					-0.47194992589739,
					0.403932151778187,
					-0.11493272590263,
					-0.22540820284794,
					-0.42423237217226,
					-0.49094493564484,
					-0.18341279396348,
					-0.42756134192065,
					0.00372238474125131,
					0.0180548177894215,
					0.269901916518919,
					-0.33587759647653,
					-0.11097240089373,
					0.488164047124188,
					0.458084335070032,
					0.4195538303137,
					0.222951057747003,
					-0.30205341467105,
					0.229366866242702,
					-0.3490294029359,
					0.175068459774914,
					0.00286932838299004,
					0.459862520445198,
					0.108051862672729,
					-0.44837156439773,
					0.330088846863425,
					-0.3181217115648,
					0.196416638026514,
					0.406635269018917,
					-0.26311150420217,
					-0.08173926453156,
					0.00714145250624613,
					0.354936081819542,
					-0.41113076416705,
					0.367971451206588,
					-0.17634304739143,
					0.321301528706947,
					0.208295647144809,
					0.0612070906816284,
					0.0176714905437578,
					0.071439679698665,
					-0.2780427936195,
					-0.1958021421078,
					-0.08877371964017,
					-0.21543258094195,
					0.213334138253203,
					-0.13902745171628,
					0.179740215643875,
					-0.41351786272157,
					0.157179659056541,
					0.229957254601278,
					0.0560143128286702,
					-0.40914773400401,
					0.353345850398605,
					0.321902719883078,
					-0.28950436283216,
					0.342206321349931,
					0.241169325836303,
					0.28460255612582,
					0.387576965337822,
					-0.31597223140937,
					0.227289558923146,
					-0.44175411454933,
					-0.38611449110053,
					-0.24320100004814,
					0.444086938915831,
					0.203977133034064,
					0.179805525856291,
					0.048118683716331,
					-0.15470087972607,
					-0.16634792102162,
					-0.34509014214474,
					0.492217531119068,
					-0.49552260204943,
					0.0448606749560644,
					0.4737618130451,
					0.138426427273654,
					-0.0177313379389,
					0.0210450883501557,
					-0.19523826069638,
					-0.10799408900967,
					-0.07954834750717,
					-0.33004881082056,
					0.317771632065894,
					-0.39774423027038,
					-0.12000135883223,
					-0.29910503159826,
					0.490200518593441,
					0.0526102434708838,
					0.444513254232082,
					0.0892047667165436,
					0.23628861081801,
					-0.33122529023999,
					-0.44283890577634,
					0.0193813254884989,
					-0.26217633275505,
					0.125328726457905,
					0.180981003090594,
					-0.20459441782569,
					-0.19969531107888,
					-0.43924864899326,
					0.419364429627136,
					-0.1691377831041,
					0.396158286758849,
					-0.39091428856403,
					-0.38355520006796,
					0.152568024469748,
					-0.31530435471615,
					0.365696669038718,
					0.140553601389284,
					0.299941347007962,
					-0.19159942769073,
					0.122057433650744,
					0.324986840097029,
					-0.40811439647052,
					0.303945388409342,
					-0.17602877423006,
					0.0363484462730532,
					0.294293460006841,
					-0.24872979829005,
					0.00325184171787518,
					-0.33135116928625,
					0.449971121536606,
					-0.25097947804778,
					0.261169637246466,
					-0.4301809796466,
					0.144368181995869,
					-0.47917310706086,
					0.228673372823737,
					0.300523876533442,
					-0.02744884237181,
					0.276819097181406,
					-0.27756185433142,
					-0.17447944730429,
					-0.17728125535344,
					0.33508819082624,
					-0.14986356627936,
					0.120149587984573,
					0.420727262914435,
					-0.21907231109303,
					-0.0088394574098,
					-0.20750346000113,
					0.0506920388472518,
					0.210894676477081,
					-0.34716963852275,
					0.0803989251622702,
					-0.42446517960188,
					-0.32724073270938,
					-0.43282079342213,
					0.218767132607069,
					-0.0787938798102,
					0.215054852692913,
					-0.11260948756646,
					0.223012479416784,
					0.124425807460278,
					0.437541663949677,
					0.317846884739841,
					0.11910824772213,
					-0.45564861894574,
					-0.29950148917734,
					-0.04469279702521,
					-0.43875225455302,
					-0.09396932918883,
					-0.36761706512721,
					0.0612240967939243,
					0.142565965338767,
					-0.31177908697342,
					-0.10219245380873,
					-0.43548893896189,
					0.0497037187130026,
					-0.21391324864952,
					0.0841236352107317,
					-0.43568930145846,
					0.108171572306606,
					-0.12628377980364,
					-0.23423883444802,
					-0.14444790216439,
					-0.00643555100663,
					-0.06056140276581,
					-0.05803035999353,
					0.408385551567788,
					-0.19267647759589,
					-0.44645555172959,
					0.352830229953086,
					-0.32247615244971,
					0.460056338098681,
					-0.06511520095674,
					-0.34281885859451,
					0.217234921263045,
					-0.41980834089849,
					-0.0940634098678,
					-0.24021965214473,
					-0.33994327515543,
					0.137185945040635,
					0.146953668046244,
					-0.32767191336489,
					0.078664796742206,
					0.291562346263535,
					-0.21792483092725,
					-0.00778945204397,
					0.170115221118588,
					-0.42991966107555,
					-0.32227182136302,
					0.379512560522319,
					0.394473627566669,
					-0.38081853113702,
					0.270687574467533,
					-0.45361273135338,
					0.356931943197943,
					-0.00682750932309,
					0.356168650575689,
					-0.42825090066426,
					0.35976204113841,
					0.0778894495598828,
					0.028084423170757,
					-0.26492601080115,
					0.163706326928439,
					0.187922957466213,
					0.125356210375756,
					-0.40056727067483,
					0.354810791252048,
					0.369022042007338,
					0.204851477289434,
					0.0612465893820112,
					0.00561950992952088,
					0.308916593397716,
					-0.44431805120941,
					0.0245014021846227,
					-0.17578703287594,
					0.45524819234388,
					0.14027664888592,
					0.218240099045687,
					-0.30703457775699,
					-0.06483594606073,
					-0.37768382941686,
					-0.05623211980588,
					0.0608404767581112,
					-0.28909763341753,
					-0.41350953292478,
					0.143510534818591,
					0.391536772636712,
					-0.49722643796459,
					-0.10187275417228,
					0.0770059667564797,
					-0.16428430918853,
					-0.46184131973297,
					-0.04777184709498,
					-0.47180467284872,
					0.345442531024476,
					-0.4370205351817,
					-0.41454545737215,
					-0.21697195719495,
					0.42921755907574,
					0.335667178734819,
					0.481231098672925,
					-0.05390594522307,
					-0.15258278726,
					0.00299779459031324,
					-0.46320813883913,
					-0.41123671622868,
					-0.07243618662285,
					-0.33103751507636,
					0.177476479935448,
					-0.05980592694767,
					0.0971608644528487,
					0.392319566957636,
					-0.10714687734328,
					-0.18107964947118,
					-0.42833085758953,
					0.0972564796512422,
					-0.04764705835392,
					-0.35854835868544,
					-0.38733528322434,
					0.0158047619972669,
					-0.11086992405193,
					0.447568470513084,
					-0.12429159443823,
					0.453013988346056,
					-0.46209231628729,
					0.0459284670221086,
					0.238671344962499,
					0.103867528121898,
					-0.33130715781172,
					-0.25801583573634,
					0.204975526597104,
					0.285353508578989,
					0.024310764813327,
					0.357217431483077,
					-0.38554982170627,
					-0.22929901040022,
					-0.44101906843457,
					0.107558259722582,
					-0.49155993472441,
					-0.00497794569112,
					0.35534538532942,
					-0.06793626444947,
					-0.19565857102165,
					-0.18755861511258,
					0.361106275161174,
					-0.12473727739969,
					-0.33083741436577,
					-0.46456910495964,
					0.306938176409066,
					0.0737857177579323,
					0.448509379084759,
					0.320513047001916,
					0.0145237430784375,
					-0.08624093316685,
					0.0800818320491475,
					0.210537368685623,
					0.324097985654597,
					0.384701069562618,
					0.272329701654448,
					0.233514710786629,
					-0.48715147048048,
					0.322590304754667,
					-0.1510219250835,
					-0.28774738563364,
					0.00316981349347234,
					-0.48686572659864,
					0.0729825163320542,
					0.445028846539915,
					0.129887261765502,
					-0.34742285311388,
					0.068514235306446,
					0.062436638004494,
					-0.05535715375565,
					-0.4501390081366,
					-0.26165356285668,
					-0.42470427967605,
					-0.41398330538195,
					-0.17545782771483,
					-0.20455190834728,
					0.202244943354674,
					0.166138741016983,
					-0.03094696967203,
					-0.40652854111784,
					-0.18211096090897,
					0.138399150371711,
					0.41952677284152,
					-0.16704674017434,
					-0.26773425360692,
					-0.19954137023486,
					0.453951088966008,
					0.160822633388607,
					0.0640239451524302,
					0.507882725413887,
					0.328118626604062,
					0.155399137345338,
					0.0643266044599395,
					0.498743354229881,
					0.186431240887046,
					-0.31048823170049,
					0.00145487181863892,
					0.361659879593499,
					-0.11607025814059,
					0.230873607407863,
					0.00760086104675202,
					0.470870811730344,
					0.413250534127452,
					0.379424979040447,
					0.25915071450602,
					0.434613840004165,
					0.483352146510496,
					-0.26692589250341,
					0.0686652606085347,
					-0.41958418146702,
					0.293832031446092,
					0.119998911690838,
					0.497518293359198,
					-0.10848953612668,
					0.00080952148997914,
					0.474960813185435,
					0.251701052888022,
					-0.41370921717812,
					-0.3753133444774,
					-0.15099880735321,
					-0.09115264359154,
					0.135982328947997,
					0.47807545112948,
					-0.43145002818013,
					0.193891210895023,
					-0.34850346779121,
					-0.37901674618182,
					0.219465531449333,
					-0.27585097589791,
					-0.34967495177357,
					-0.45977904299741,
					0.0524799075963555,
					0.113900588519965,
					-0.45324531072479,
					0.0464851590163341,
					-0.27822104086724,
					-0.46933568352407,
					0.214892138998822,
					-0.44299732681306,
					0.154057785979653,
					0.0661740438563799,
					0.16918327596397,
					0.398183573205362,
					0.328122393225514,
					0.0603009371584888,
					0.206240473179628,
					0.0739189888386318,
					-0.21788714272743,
					-0.15664461568901,
					-0.02416245602784,
					0.233977045401779,
					0.377826547985178,
					0.185979885567061,
					-0.00049337161918,
					-0.33428324992584,
					-0.27872942037857,
					0.106115019183061,
					0.488213803762145,
					-0.04701063458687,
					0.16278317662933,
					0.0171621626341912,
					-0.49003123377361,
					0.0102422973236177,
					0.298365123364877,
					0.0437527207689403,
					-0.24509181608945,
					0.191681549613391,
					0.176378821081142,
					-0.24037813394569,
					0.0213134959500595,
					-0.11303531008212,
					-0.46118895321503,
					-0.09766979748519,
					0.0891610567027785,
					-0.39899032985564,
					-0.00088499888421,
					-0.16184809418417,
					0.225440599206968,
					0.164608880665011,
					-0.06810438034232,
					0.399973256615939,
					0.201474291455493,
					-0.38432891674193,
					-0.20008681504802,
					-0.10620227377792,
					0.401398934475204,
					0.0615184491394063,
					-0.34546888428554,
					-0.39958343092204,
					-0.27510063265464,
					-0.49691509036439,
					0.386526783283916,
					0.495669887993626,
					-0.23276122799357,
					0.159063002466515,
					-0.28411328657308,
					-0.00731345432133,
					0.396022989520504,
					-0.03082804618929,
					-0.47281260604318,
					-0.41387368399499,
					0.200005658943803,
					0.0038412231099223,
					-0.4635491099478,
					-0.33796375062416,
					-0.22661183957549,
					0.314237094449517,
					-0.17760427250795,
					-0.27253398243777,
					-0.07047031832835,
					-0.16804368747479,
					0.431549249884645,
					-0.18289472271667,
					0.188929214433849,
					0.490512864681743,
					-0.04741911947857,
					-0.00355230127452,
					0.0539936886491488,
					-0.40159202261162,
					-0.39019174359939,
					0.0182305356820084,
					0.0331619653802365,
					-0.25918623724168,
					-0.05046325371769,
					0.110835240535468,
					0.400524377673002,
					0.160295149906867,
					0.147837027966894,
					-0.49988081322781,
					0.245734336307013,
					0.414633927680788,
					0.181450432850941,
					0.091036500509292,
					0.274681896062887,
					-0.12083245774805,
					-0.2409428302744,
					-0.37419572247841,
					0.459928518415572,
					0.427473725784024,
					-0.47321425248158,
					-0.22436078491486,
					-0.26783044314237,
					0.0574857386096422,
					-0.28369165808944,
					-0.05853253271193,
					0.326262605306866,
					-0.14757758713436,
					0.0823656725103939,
					0.307064924848759,
					-0.35846067680251,
					-0.09838279384758,
					-0.49492715359529,
					0.140555292915261,
					-0.36739215997797,
					-0.3626687647714,
					-0.3680208854673,
					0.40539823267352,
					0.419587341245922,
					0.467970583003579,
					-0.37735718027081,
					0.11887025730375,
					-0.14534790504216,
					-0.10195162700091,
					0.00115977595528005,
					-0.29525644913173,
					-0.3618739463317,
					0.363155677544166,
					0.258959704429254,
					-0.4558618592996,
					-0.30840825781281,
					-0.36077611681535,
					0.206972474472672,
					0.0134706269380099,
					-0.12826831391109,
					0.111370647117202,
					0.358607213227319,
					0.267977325055457,
					-0.45681857974959,
					0.4518434470494,
					-0.04729235843188,
					0.238037586952115,
					-0.45890591079209,
					0.401675017565358,
					-0.26942703224999,
					-0.09816180283686,
					0.219206103824598,
					-0.12055721222555,
					-0.13752288462388,
					0.204539904931936,
					0.239088921709615,
					-0.01813096459581,
					0.381963264685334,
					0.397772658512347,
					-0.20975147046074,
					0.202551487595618,
					-0.41428981312163,
					-0.47555570769421,
					-0.23324088320793,
					-0.1079299260865,
					0.19989565691501,
					0.465824522378621,
					0.209805368170389,
					-0.23303811013583,
					-0.02971759174969,
					-0.43577981969074,
					-0.11183192391674,
					0.181030277901673,
					-0.21097194392394,
					-0.06869156568196,
					-0.00769678068235,
					0.128724569692541,
					0.421646158712544,
					-0.24196771087426,
					-0.11840100198686,
					0.483401997669831,
					-0.2372940900578,
					0.415400835640568,
					-0.3366500384681,
					0.162676676191205,
					0.489237727189128,
					-0.42891549190044,
					0.0095275142539667,
					0.142369592068852,
					0.341864954930477,
					0.479712967437025,
					0.479398644333938,
					-0.16895433073844,
					0.353403994768325,
					-0.28377540676967,
					-0.26129353164831,
					0.27151325487662,
					-0.49936722885305,
					0.0194345774035761,
					0.189183579126423,
					0.219930371011173,
					-0.25326530327969,
					-0.32802757764247,
					-0.39073151629018,
					0.238079820154041,
					0.405196195060564,
					-0.23165444618101,
					-0.19275083064472,
					-0.38143823279939,
					0.476204268168752,
					0.453558663389888,
					0.0506766713467565,
					0.375470935385771,
					-0.46560003299286,
					0.0780175363811249,
					0.490274219374675,
					-0.2655572169074,
					0.387931914443403,
					0.0946500949271712,
					-0.37150503924029,
					0.38187790488094,
					0.358440852873909,
					0.473938463059257,
					-0.28316954773593,
					0.344863609396325,
					0.226766358478808,
					0.418280503924485,
					-0.3308783044213,
					0.0277479212147003,
					0.17087582438106,
					-0.26745887776304,
					-0.25972986219796,
					0.248705948655242,
					-0.12694532644299,
					0.289983298141106,
					-0.04456210677158,
					-0.495617569461,
					-0.36512944406678,
					0.202833949636168,
					-0.01608232995805,
					0.0959380579365892,
					0.402417725291305,
					-0.08051459186446,
					0.263143697054971,
					-0.48085870572874,
					-0.21536475106649,
					0.209399939177213,
					0.470841811054511,
					0.348801635564682,
					-0.35135175672219,
					-0.41536948523467,
					-0.31313028437345,
					-0.109588595223,
					0.117143695367589,
					-0.43028409715273,
					-0.01083519079456,
					-0.26862113713408,
					0.052648839937008,
					-0.18360624955767,
					0.0327892454962874,
					-0.47063204500689,
					0.134116005463749,
					-0.05259911203465,
					-0.21251900388101,
					0.124727759059696,
					0.123875958947789,
					-0.32374249806171,
					-0.13469166784305,
					-0.13052014696147,
					-0.22250906523567,
					0.299089258867026,
					-0.1733108281618,
					-0.07977823063477,
					-0.13054268546148,
					0.382371374979344,
					-0.321145156805,
					-0.24471288895024,
					-0.43996697926232,
					-0.25688274259811,
					0.220415188887058,
					0.352532387317466,
					-0.05045330308531,
					-0.46862809666408,
					-0.13970331606786,
					-0.2013697301752,
					-0.29477001498639,
					0.32487598920315,
					-0.3844789745171,
					-0.16200721193432,
					0.360880209981635,
					0.401906095991369,
					-0.31135052102582,
					-0.39128859659943,
					-0.31082449866569,
					0.391852990817161,
					-0.31113470313913,
					0.138878164944734,
					-0.48331504288329,
					-0.26714149380706,
					0.431852071976149,
					-0.42021278451948,
					0.344031836917471,
					0.0875817172693175,
					0.350579505615794,
					-0.38683963329915,
					-0.29190319413096,
					0.451458357801693,
					0.438474460630581,
					0.167426279745412,
					-0.19304940490111,
					0.479353996580909,
					-0.33469635073193,
					0.0862089951487744,
					-0.48036253990651,
					0.417123402241924,
					0.134036633188476,
					0.0703597459784977,
					-0.4410610895927,
					0.437101572822159,
					0.474738042772238,
					-0.06371750145107,
					-0.38700954781943,
					0.424920816280338,
					0.146057528272161,
					-0.40087285356716,
					0.159875920030467,
					0.311418624454898,
					-0.43970727602227,
					0.451240481328475,
					0.361625928122558,
					-0.47248839307591,
					-0.16483842452886,
					-0.28391960116007,
					-0.04972376071005,
					-0.31200216615689,
					0.399323219254188,
					0.10716368165015,
					0.410502934765083,
					0.118121532317663,
					0.174057604641778,
					0.498160690599386,
					0.380694855503264,
					-0.18592014989212,
					-0.27728910506317,
					0.302290412544332,
					-0.34358258392255,
					-0.40757200886182,
					-0.15945825285763,
					-0.44688764670153,
					-0.37729593724171,
					0.393626462488426,
					-0.44331700603516,
					-0.23135557949515,
					0.00810280554698272,
					-0.23587464438387,
					-0.40294522163497,
					-0.07781624998126,
					0.350454818126563,
					0.0265111075587057,
					0.128646346112296,
					0.0279187485315046,
					0.162723067916938,
					0.423945313031758,
					-0.44796645106905,
					-0.42889474720589,
					0.0626274386823481,
					-0.42897487935803,
					0.418633228309596,
					-0.29092996054744,
					0.272316055998205,
					0.143140745796261,
					-0.25348947669729,
					-0.31967406651975,
					0.119344211510191,
					-0.01357895166876,
					-0.34660324932551,
					-0.478618700101,
					0.40427474797046,
					-0.19254172587616,
					0.398683216994732,
					0.303526959722335,
					0.0346666615730437,
					0.259000048387475,
					-0.39838804224269,
					0.177991545026122,
					-0.38873694400494,
					0.00150431898105593,
					0.314679199561188,
					0.149145873199983,
					-0.40022828653302,
					-0.34167426848015,
					-0.113285388623,
					-0.31734430066351,
					-0.21322237916881,
					-0.10348642973125,
					0.114179539237307,
					-0.25447584303934,
					0.417982268572291,
					0.263934292477506,
					0.234676856933132,
					-0.13413659894879,
					0.447304704989472,
					0.234082384734684,
					0.336675983350039,
					-0.2999240577358,
					0.216749514796863,
					-0.08383629518784,
					0.301781085865507,
					-0.11754263397849,
					0.370860318400343,
					-0.01081396766515,
					0.222370773312786,
					-0.0350101735678,
					-0.22545877255586,
					-0.44935808081144,
					-0.29907870215645,
					0.4462959565568,
					-0.17124601483869,
					-0.43857887368216,
					0.468266535062233,
					-0.32372408182446,
					0.346568877438683,
					-0.28613885825418,
					-0.3247891510569,
					-0.31634522540226,
					0.162990407147152,
					0.0480051491794248,
					0.460051728726252,
					-0.23616412045075,
					0.136521224206114,
					-0.25806496864537,
					0.0112010758092748,
					0.0751549958853046,
					0.395827406862696,
					0.335393545203007,
					0.468533604942625,
					-0.4504986526248,
					-0.12486176314339,
					-0.19241102315185,
					-0.2028860973674,
					-0.45480768330594,
					-0.48669552320282,
					-0.39058672225982,
					0.130192501614997,
					-0.26245774666623,
					0.391490362836136,
					0.375667398874167,
					-0.38638945074141,
					0.322667989251069,
					-0.45737646934845,
					0.128355112247259,
					-0.46367524648904,
					-0.4858435916994,
					-0.45067153355574,
					-0.09223701525645,
					0.20490684305987,
					-0.05275832128769,
					0.147085607411926,
					-0.20758797221926,
					0.399600922137131,
					-0.19695280226119,
					0.146216944060718,
					0.377830911894824,
					-0.39795779033563,
					-0.20587242439407,
					-0.27472897717751,
					0.237050593534702,
					0.408943936601112,
					-0.17628293165121,
					-0.4111627949215,
					0.250682320583011,
					0.149611304017166,
					0.362880648905681,
					-0.16783968346376,
					-0.49198774244538,
					0.0327672587403386,
					0.0848478999906884,
					-0.41253230348259,
					0.424634316134598,
					0.413251826499977,
					-0.11018039689043,
					0.366642676899274,
					0.0114207637298001,
					0.0251528919659534,
					0.18064190221118,
					-0.19349341412801,
					0.414466567359904,
					0.0894882449544649,
					0.0589480926950087,
					-0.29289130059825,
					0.112610563589568,
					-0.34532883039774,
					-0.43155093035065,
					-0.08100232975296,
					-0.33643401153869,
					-0.26263673121939,
					0.179022604438156,
					0.471788161322326,
					-0.28612180495848,
					-0.47185800458798,
					-0.24956869242606,
					0.345614094932342,
					-0.25876433278728,
					-0.25750891883551,
					0.311073237150359,
					-0.27711155721716,
					0.440516116686933,
					0.0232755206258684,
					-0.20755249559041,
					-0.22286549837704,
					0.339493641489476,
					0.154977613983007,
					0.489978546571076,
					-0.39523510479893,
					0.394912223342712,
					-0.41069372832917,
					-0.44336885710572,
					-0.28766327076862,
					-0.26720113453548,
					0.297668182131614,
					-0.3888779983648,
					0.246018463598223,
					0.0718545481219068,
					0.00582370417544606,
					0.136712928245957,
					-0.50232895221432,
					0.222174082430232,
					0.221626475159623,
					-0.07376794599855,
					0.303614651728482,
					0.0172363266740731,
					-0.09978345262568,
					0.158623316727494,
					-0.27527544504721,
					0.320074614599232,
					0.131346650279033,
					-0.05268232903386,
					0.49576646898651,
					-0.16312759648523,
					0.472792516385011,
					0.333447953769881,
					-0.45713932618508,
					0.125726499690801,
					-0.11705546063818,
					-0.35470032039194,
					0.0699956362436159,
					-0.27713171614126,
					0.248188374714936,
					0.421325632575897,
					0.47884887561455,
					0.347906094213376,
					0.261013550236745,
					0.425301931182212,
					0.370374544992905,
					0.269503926857517,
					-0.45579706545644,
					-0.47615428685065,
					0.252159329823948,
					-0.18361153391038,
					0.282893259515596,
					-0.10204210705093,
					-0.2433911347224,
					0.216080398724394,
					0.500494567387845,
					-0.41722785403495,
					-0.29494366726687,
					-0.48773625841745,
					-0.49035552846767,
					0.460201494869197,
					0.0483798850219105,
					-0.23070370079479,
					0.176865132492552,
					0.245737731185232,
					0.44735202795596,
					-0.10058729481244,
					0.382390951380762,
					0.198771746131052,
					0.324913403789085,
					0.331021530935833,
					0.139159206707947,
					-0.19825881930786,
					0.0871430811257842,
					-0.19633550206725,
					-0.36097834604174,
					-0.48950445045552,
					0.324248291333319,
					-0.37533563353859,
					-0.38188778709128,
					-0.28548751892371,
					-0.16056378923108,
					0.240407213893918,
					0.295613216152557,
					0.143832484367953,
					-0.12098265865882,
					0.271855232564595,
					-0.06788385271059,
					-0.01916815236813,
					-0.4691613069503,
					0.309769537134203,
					0.427070380517632,
					0.335920322407167,
					-0.23719422829691,
					0.318736897764847,
					0.271296323766338,
					0.273208092701261,
					0.157643519677718,
					-0.00321418849196,
					0.203259390130588,
					-0.2408723782901,
					-0.44179510379958,
					0.460686238178502,
					0.397765655035864,
					0.0900402070769369,
					-0.10714704808365,
					0.486855804136068,
					-0.45907770587811,
					0.403646993500496,
					-0.04299535951564,
					0.0247992631180363,
					-0.09430226708231,
					-0.36923205619955,
					-0.3029097733337,
					-0.05131908334213,
					0.435786190478388,
					0.247838717916434,
					0.315446278232086,
					-0.46553709487164,
					-0.1724827107744,
					-0.02138813131862,
					-0.47140068059737,
					-0.04046108774148,
					-0.43384560819284,
					0.449033984209864,
					-0.44081274471032,
					-0.31552646678082,
					-0.37846759946512,
					-0.05011482562534,
					-0.49163921956733,
					0.409161455756201,
					-0.34400697800226,
					-0.41654053102019,
					0.40657030275831,
					-0.21812136337397,
					0.141292788823572,
					-0.3665187947492,
					-0.11270730919826,
					0.189060953136991,
					-0.16405172293295,
					-0.3634647897424,
					0.371376714861813,
					-0.35319093317045,
					-0.28980123504726,
					-0.1666782249648,
					-0.16160597462057,
					-0.37519158340291,
					0.0362393300097794,
					0.335197917182861,
					0.192739643258295,
					0.271050375894116,
					-0.23834685224545,
					-0.2824316494178,
					-0.36178946110197,
					0.340282426198222,
					0.329624788569027,
					-0.35354478833331,
					-0.4383171002287,
					-0.1651991025271,
					0.342641479090333,
					0.420165897566878,
					0.0378707166610959,
					0.0501922273228309,
					0.123919249677627,
					-0.23438579450093,
					0.314480508981911,
					-0.28841382944372,
					-0.41162022074685,
					-0.0597780664151,
					-0.35942198400611,
					-0.20362131844737,
					0.425750165415801,
					0.164018703557665,
					0.257813590628152,
					0.232452444335046,
					-0.33340362955412,
					0.0595712950260864,
					-0.14347591098894,
					-0.43615208733614,
					-0.42268732301773,
					-0.32225457778578,
					0.37532437453237,
					0.23475149100729,
					0.00332725565434511,
					-0.15092143028727,
					-0.4157338597804,
					0.376183822665225,
					0.287702488193894,
					-0.02716187280761,
					-0.33712631841967,
					0.211432235195931,
					0.318013700590345,
					0.0870535032273332,
					-0.44175427009672,
					-0.46883937728191,
					-0.15586810077128,
					0.35878744850079,
					0.168152952580235,
					-0.10300135963284,
					0.0199026395594799,
					-0.0424151032904,
					0.345398949383843,
					0.496860412529338,
					0.0116953650839585,
					0.442092178495098,
					-0.41255944208043,
					-0.05963261802016,
					0.0088998784155645,
					0.445844225417228,
					0.330412867349271,
					0.454725057149192,
					-0.13896736893985,
					0.125023641896656,
					0.28555038562744,
					0.133060068415594,
					0.418039593981378,
					0.185388408207965,
					-0.39381021184519,
					0.467221750174238,
					-0.36432232759617,
					0.289828139914664,
					0.175480989609279,
					0.0861503845982228,
					0.411435121049871,
					-0.17659577708684,
					-0.053057445271,
					0.411117547070647,
					-0.43062637848994,
					-0.04157926380628,
					-0.08869796740859,
					0.361648293229874,
					-0.24908103659652,
					-0.40448232859426,
					-0.40555740726875,
					-0.48340181566868,
					-0.22640225160748,
					-0.15189035346233,
					-0.00057103773384,
					0.236789346193534,
					-0.43151861938022,
					-0.36624380373631,
					0.0851550177936029,
					0.0510508852529794,
					0.196279294420903,
					0.341513263335155,
					0.254478776341346,
					-0.09605701144563,
					0.29608681787705,
					0.0526072863651121,
					-0.20044954722001,
					0.480440782954919,
					-0.11736852611686,
					-0.40446355789877,
					0.136751028565927,
					-0.00477093328688,
					-0.18363958337789,
					-0.08126521360694,
					0.482958442879826,
					0.183129522233479,
					0.113676583827249,
					-0.36518745832798,
					0.203232517532134,
					-0.39752977866715,
					0.389285487387561,
					0.451987589745107,
					0.260671990807917,
					0.430134157203774,
					0.150286317887528,
					-0.41943503457581,
					0.113328521511068,
					0.424506911820986,
					-0.49419914704846,
					0.203942944268866,
					0.0148775921817694,
					0.338003271107203,
					0.114092822126109,
					-0.15928598453098,
					0.284615757629122,
					-0.41783791458049,
					0.302412087973809,
					0.242728880615727,
					-0.33606035446783,
					-0.22593196201734,
					-0.29257830329631,
					0.352862666061694,
					0.076932388118677,
					-0.0420617795222,
					0.38491989744101,
					-0.33698666509192,
					-0.03307308467954,
					0.446307523224191,
					0.280111471674026,
					-0.13749614037595,
					0.358488806407549,
					0.306446352812794,
					-0.27578193239431,
					-0.34410389847469,
					-0.01717022244925,
					-0.04579454279676,
					0.350525559446092,
					0.462653954174939,
					-0.38960314650527,
					0.296658053357304,
					0.473988909331228,
					-0.33937928307221,
					-0.38252878265044,
					0.494306276457453,
					0.126395498257003,
					0.480655028212445,
					-0.14388709033255,
					0.377657914732034,
					0.201699102904874,
					0.194295334325275,
					-0.36647317496588,
					-0.18351932763437,
					-0.41606229545355,
					0.463663774195689,
					0.262398208003813,
					-0.4092964954481,
					0.323421116037553,
					0.145534345999872,
					0.194326506255669,
					0.203464841697838,
					-0.15883711963953,
					0.433255982126079,
					-0.06828676691588,
					-0.31957937394976,
					0.361552374082244,
					0.0766795708368725,
					-0.4613695479976,
					-0.11336093728545,
					-0.36580503250831,
					0.214509441921889,
					-0.09633167639847,
					0.321003673273905,
					0.26647986550016,
					-0.06908443305614,
					-0.24064837572878,
					-0.14605492214423,
					0.288714666552214,
					0.403076480154376,
					-0.05178687804637,
					0.0807445796650292,
					-0.38215061364626,
					-0.20506668224029,
					0.313619284042058,
					-0.16970173493946,
					0.12780411211706,
					0.370501804459992,
					0.167734952308783,
					-0.02186649566994,
					0.336558043221969,
					-0.48985850568543,
					-0.09795590700244,
					-0.4000094188803,
					-0.38352265553451,
					-0.20065459799121,
					0.0731961850247496,
					0.193809744114422,
					0.226804233100816,
					-0.10950064950686,
					0.465888990678679,
					-0.25634486098959,
					-0.23025480514107,
					-0.36014833452689,
					0.0466914164327003,
					-0.31319128756675,
					0.112717804084365,
					-0.37004669411852,
					-0.02941659452734,
					0.335287450268845,
					-0.45316062078849,
					0.364773158865209,
					-0.44990894552089,
					-0.32187704744404,
					0.416472122346016,
					-0.14964400694831,
					0.202374666669752,
					-0.09485447415831,
					0.106923351774349,
					0.322134973987193,
					-0.37541834683287,
					-0.10810304336429,
					0.470854189081588,
					0.403152370366694,
					-0.48001323451065,
					0.391475315810888,
					0.488349678278958,
					0.465027740123438,
					-0.34774436114853,
					0.00189847436581985,
					-0.38276788402993,
					-0.04513279019298,
					-0.5704672187993,
					-0.19535977573799,
					0.334913562477237,
					-0.06730280661919,
					0.0375285927137479,
					-0.48855578393067,
					-0.02945127693901,
					0.073455007312579,
					-0.05697619447896,
					-0.34595977465058,
					0.0180068217142652,
					-0.01496501824008,
					-0.11614992643078,
					-0.04521615581057,
					-0.16012608497144,
					-0.26337895137012,
					0.0340352298083377,
					0.353486818054694,
					-0.24402967604001,
					-0.21266710094091,
					-0.49822686002605,
					-0.48528785754887,
					-0.01165149007618,
					-0.32271657175559,
					0.30239439799266,
					-0.11082450820482,
					-0.29139068768125,
					-0.35552796915047,
					0.382112214646968,
					0.240486676865559,
					0.189591126037657,
					0.46850485880254,
					0.40886648990074,
					-0.36748643652153,
					0.0124636422302027,
					0.424611947905441,
					-0.45976960626658,
					-0.03169738959202,
					0.288475195532877,
					0.165290808477944,
					0.201531649015961,
					-0.25443915736582,
					-0.47299340523734,
					-0.18837442975785,
					0.499980311926805,
					0.205550683813494,
					0.219293172283669,
					0.23802640266645,
					-0.48760822432211,
					-0.31038440482881,
					-0.31056189286741,
					-0.4159644134402,
					0.207187835991009,
					0.41779378162967,
					0.264746562750961,
					-0.010936652373,
					0.0516194079768168,
					-0.35256967324405,
					0.112955368744117,
					-0.37091193674787,
					0.419096888340365,
					-0.23338946090812,
					0.302442857491198,
					-0.29404305594901,
					0.45528929545322,
					0.354533334094009,
					0.25273406838422,
					0.387044523388856,
					-0.07629769350172,
					-0.36119222519988,
					-0.28313957032213,
					0.0613050136538163,
					-0.4545022049583,
					0.232498046485911,
					-0.1904057233654,
					0.145958966867665,
					-0.14037173133894,
					-0.07024798435762,
					-0.1573371985372,
					-0.40611345563196,
					0.461708481742997,
					0.197287846057097,
					-0.39470323753233,
					0.415669681663143,
					0.315265524665955,
					0.287028942323846,
					-0.00668185195447,
					0.0192328559717606,
					-0.00244396220687,
					-0.37029259590072,
					0.422804712466936,
					0.362047933888207,
					-0.17964045847043,
					0.233979766214158,
					0.132793299780994,
					0.306816792138355,
					-0.44580349325568,
					0.364836973486681,
					0.00408816919498389,
					0.201819337475137,
					0.442476762812397,
					-0.15249898663018,
					0.172800367321684,
					-0.36124488710439,
					0.172639492517936,
					-0.12736801161385,
					0.464613122095846,
					-0.12165950292303,
					-0.06852680036686,
					0.391760897503467,
					0.240079014249527,
					0.380600667209618,
					-0.3150740806536,
					-0.0528102846442,
					0.472003606979477,
					-0.23897104727677,
					0.332493456316346,
					0.313310548557607,
					-0.23536705591403,
					-0.34198273911479,
					-0.04425591946623,
					-0.12277901538815,
					-0.49748110525493,
					-0.27975297331051,
					-0.36709089164464,
					-0.42127490868316,
					0.221375487276693,
					0.444280392114449,
					0.253375982156432,
					-0.07431874663084,
					0.286832298433723,
					-0.15580491957983,
					0.0238422082275491,
					0.289880684104921,
					-0.19569831747743,
					0.0322869755094436,
					0.237633630124571,
					-0.25167414476712,
					0.347027291149777,
					0.363821950178985,
					0.48475582524611,
					0.434436632623362,
					-0.28121396537463,
					0.184205773076628,
					-0.02220783413082,
					-0.21469726300226,
					-0.49267530785866,
					-0.15220345143758,
					-0.05409073122612,
					0.481692326198094,
					-0.49175836916427,
					-0.37125295196696,
					-0.22045846445161,
					0.460841481969247,
					-0.06930848730758,
					0.0133782579585222,
					-0.03784247663257,
					0.225667217886073,
					-0.32382744821699,
					-0.20536749055925,
					0.441111324307243,
					-0.33636252163982,
					-0.4813418284092,
					0.0493880408854409,
					-0.2404962272888,
					0.180453835893558,
					-0.44117760676294,
					0.240472279262791,
					-0.38780965248951,
					-0.29453309957291,
					-0.28740924992853,
					0.418471607091013,
					-0.34940492732035,
					0.0400404343144684,
					0.483543466087005,
					-0.47410026394284,
					0.495948966083374,
					0.0235913640103212,
					0.000505791745253343,
					0.0915018794158497,
					-0.07022429030635,
					0.346057143994795,
					-0.44846857064856,
					0.433197177419939,
					-0.13018696694603,
					-0.4079074239382,
					0.175529541800655,
					-0.13403498790274,
					0.218895070367623,
					-0.02990143648261,
					0.469564526910909,
					-0.21478474272366,
					-0.12317838329707,
					-0.41141076267685,
					0.273890488126259,
					0.0252492379135328,
					-0.16084465387738,
					-0.33428951739828,
					-0.36455523723813,
					-0.19030052401052,
					0.351981366149495,
					-0.40629348087783,
					-0.24623982736912,
					-0.43918003335468,
					-0.45494416760127,
					-0.18224611467683,
					0.00162140484862598,
					0.156753367124005,
					-0.16141291958641,
					-0.45779417647706,
					-0.18746875934845,
					0.195596771033876,
					0.249380211820552,
					-0.46084937119128,
					0.269373266439078,
					0.169730230855121,
					0.428349860713595,
					0.0986538370041893,
					-0.175215601663,
					0.0868308433599089,
					0.0664298289397464,
					-0.33161530091913,
					0.147085735465905,
					-0.33635815970917,
					0.182900491769365,
					-0.0891862463623,
					0.145644686116517,
					-0.39878723832969,
					-0.43312421565914,
					-0.20899115064111,
					0.00439344522617959,
					0.409961004819308,
					0.276884945595591,
					-0.40091104723337,
					0.161716399071556,
					0.489353729383127,
					-0.10109840082494,
					0.0178809960161742,
					-0.42556606432126,
					-0.12030851084572,
					0.377973304366197,
					-0.05264476418972,
					-0.27262013153517,
					0.454333588643195,
					-0.17151193758658,
					-0.44507938471556,
					-0.18665990415201,
					0.144529861362485,
					0.433511277219687,
					0.401160755176379,
					0.261644868842979,
					-0.07563623306078,
					-0.39742528506264,
					-0.0201844992986,
					-0.12930114177145,
					0.322356171334807,
					-0.2984957900092,
					0.118016801280874,
					-0.45212402749533,
					0.00544122544480583,
					0.220674797613496,
					0.253243166350775,
					0.38334982541837,
					-0.29933443646455,
					-0.09301946559338,
					0.17038606226715,
					0.234202979285516,
					-0.21732878381525,
					0.404641271735359,
					-0.22121009230139,
					0.137935525644726,
					0.192226701985291,
					-0.44199533259292,
					-0.23755931965105,
					0.449584292796521,
					-0.07340447649659,
					0.47116261718542,
					-0.33331412287661,
					-0.29322174751448,
					0.152234391619583,
					0.428514487722322,
					-0.28660903891821,
					-0.00547629885317,
					-0.25178936622615,
					-0.164206828354,
					-0.02728274052228,
					-0.17005389916486,
					0.305049747157718,
					-0.21495993054027,
					0.144263541779391,
					-0.16304130732108,
					0.303820702227439,
					-0.02393595510774,
					-0.18614724823211,
					-0.39308301152669,
					0.198559411200754,
					0.175556356486032,
					0.488261662140407,
					-0.03081150991799,
					-0.33049172948181,
					0.483498866257824,
					-0.31483362232264,
					0.00407677454792743,
					0.459655564692122,
					-0.10396162085595,
					0.233988876512404,
					-0.18771480774106,
					0.337203195530088,
					-0.13340687447218,
					0.407169366424752,
					-0.43244688790263,
					0.233328482569892,
					-0.13027771277471,
					0.188071406555447,
					0.131516412303438,
					0.0269934230324317,
					-0.1376560351422,
					-0.10265504863292,
					-0.20213161627446,
					-0.14674907358577,
					0.00133579614168728,
					-0.50085965212046,
					0.0269867820903082,
					0.271606916554374,
					0.344400078127062,
					-0.30850735491286,
					-0.21996425514316,
					0.171812464705411,
					-0.26356184577103,
					-0.39184912348115,
					0.433472825635546,
					0.00682606250699946,
					-0.06470701703937,
					-0.27807479266121,
					0.136582351364282,
					-0.12452022374872,
					0.478715529994831,
					-0.04265400399402,
					0.47005880681786,
					0.415855975129403,
					-0.20552365977914,
					0.111527704167521,
					-0.24486791357045,
					-0.16005966686443,
					0.21114181900539,
					0.207494741370708,
					-0.15334245926133,
					-0.25812187053165,
					0.122172775906026,
					0.149056429074241,
					-0.0470711622928,
					0.323981585884781,
					-0.21185389681244,
					0.440582074762247,
					-0.25568671569161,
					-0.03660626634553,
					-0.23288060368344,
					-0.22710778056059,
					0.0478017381927611,
					-0.0557899382303,
					-0.36071309664275,
					-0.29162757949462,
					-0.26560692423333,
					0.399545105449607,
					-0.37710234522829,
					-0.06745020006199,
					0.0588245393093845,
					-0.49807602049617,
					0.444763596182687,
					-0.32181590467653,
					-0.09196405673732,
					0.329603013924439,
					-0.19831320273889,
					-0.4152518149859,
					-0.00448710875461,
					-0.2590051120608,
					-0.10373938159306,
					-0.22923126366799,
					-0.43434334007437,
					-0.33986058611061,
					0.497590494806341,
					0.334039418620966,
					0.108336726773892,
					0.368866184771619,
					-0.17688150127759,
					-0.3851845592525,
					-0.11516554948237,
					-0.20627826732483,
					0.243092697433057,
					0.311738809998205,
					-0.1644412389819,
					0.359078390433614,
					-0.35686492814977,
					0.160158958967571,
					-0.15175081270481,
					-0.38235804327869,
					0.0461322114613665,
					-0.49490647452247,
					-0.45584701927552,
					0.135679116972714,
					0.218153845433451,
					0.0153289771796465,
					0.0401806911335491,
					-0.40358666544819,
					-0.41470777779109,
					0.0748867468490915,
					-0.35050436164605,
					-0.34122606608167,
					0.224780547757194,
					0.454655866400334,
					0.401288799486827,
					0.400211036475076,
					-0.44392886586189,
					-0.24232178670303,
					0.285858583937454,
					-0.08859333284993,
					-0.40091207403097,
					-0.2516046064313,
					-0.29229083238205,
					-0.28369060775586,
					0.0688695731093589,
					0.298511561850481,
					0.140510891242287,
					-0.06685458299816,
					-0.13137501416572,
					0.273796606481563,
					-0.35354065923589,
					0.480828228077544,
					-0.12511930867282,
					0.263922633007295,
					-0.07487649228184,
					-0.24685666697541,
					-0.35206398499803,
					0.271548310085041,
					-0.04398159041934,
					0.138040078180962,
					-0.28169108591854,
					0.478596767875832,
					0.216659999760561,
					0.214331650665557,
					-0.16105684957705,
					0.191066174025697,
					0.0678167858626927,
					0.0804361158814461,
					-0.20044240590598,
					-0.49101630249222,
					-0.23060059099522,
					-0.2544934600606,
					0.0545135037805923,
					0.296397475710276,
					0.21426005989294,
					-0.33323043718193,
					0.328142012089106,
					0.259613114800865,
					0.204731127927477,
					0.200060364250864,
					0.117284089564865,
					0.13983824856492,
					-0.33629250720108,
					-0.45807156356574,
					-0.29840883744185,
					0.273660344662903,
					0.300904290626255,
					0.324544088844508,
					0.362458609131353,
					-0.38516817946573,
					0.396877173793925,
					-0.13516565499587,
					0.069715779344244,
					0.262189171550379,
					0.175734386850111,
					-0.43027658303246,
					-0.3693368637651,
					-0.2465502687942,
					0.342139389234635,
					0.499000431768188,
					-0.29684221355853,
					0.0552781504498797,
					0.379909561802026,
					-0.16178325984085,
					-0.32276019466958,
					0.452424058513413,
					0.064168789638569,
					-0.41806150190618,
					0.138750648714402,
					0.171828661765313,
					-0.0580407086753,
					-0.41371892269184,
					-0.26619618168789,
					0.134217227716196,
					-0.42348603566836,
					0.30851476646044,
					0.0649360028398349,
					0.201615399326811,
					0.228230020266329,
					-0.02424238809453,
					-0.00647711411924,
					-0.17717226925864,
					-0.16799363471225,
					-0.03017551537618,
					-0.19269079486478,
					0.322486386402779,
					0.0162656125234505,
					0.253962465036572,
					0.263852069166875,
					-0.49584935005681,
					-0.42703388159922,
					-0.40855426057213,
					0.285301309069251,
					-0.13238624475918,
					-0.4709988818657,
					-0.17566947400935,
					-0.06878312351064,
					-0.08156936707565,
					0.427136246993508,
					-0.41508757368929,
					0.0915130791512119,
					-0.49739453694245,
					0.0198228527711979,
					0.289401717982451,
					-0.10209879426272,
					-0.06922215672639,
					0.348133698848939,
					0.0209327234294529,
					-0.33908085658565,
					-0.13881259656867,
					-0.00794649996806,
					0.123953788413205,
					0.338719267672992,
					-0.08225202144507,
					-0.17685683057268,
					0.16560888712409,
					-0.01680591117037,
					-0.26847813345914,
					-0.15122644703432,
					0.312128660820797,
					0.0642356374184365,
					0.328974227951655,
					-0.0494866545706,
					-0.04202817902524,
					0.074032287017912,
					0.236692402642905,
					0.438266901219287,
					0.402304756227412,
					-0.48863000433474,
					-0.32950209059485,
					0.130994806369344,
					-0.06282037785823,
					0.366405048310073,
					-0.19035718769308,
					-0.1188842721495,
					0.274862982594722,
					-0.24902490896296,
					-0.11868572256787,
					-0.2925159133763,
					0.375310197678794,
					0.444241625528325,
					0.317848670448315,
					0.372366144408957,
					-0.03668823839656,
					-0.4748864919113,
					-0.32912111416832,
					-0.02704652117228,
					0.484855713560919,
					0.245354320778345,
					0.360739702009166,
					-0.20120608629842,
					0.0800623408634581,
					-0.03615552812766,
					-0.48001575823284,
					-0.40028058244407,
					0.450399477763238,
					0.152177436480108,
					0.409291110101988,
					-0.31081769298966,
					-0.38198169016694,
					0.282186834040268,
					-0.12797727254872,
					0.341146422595516,
					0.163007917641239,
					-0.12960706041586,
					-0.15649158696621,
					0.105864583858714,
					-0.06995281069858,
					-0.30611281903246,
					0.0897461376830541,
					-0.07638842749659,
					0.205975008429489,
					-0.16402838074529,
					-0.27334105646998,
					-0.1924268824289,
					0.256174774428796,
					0.200168878373622,
					-0.34872961031131,
					0.156712573618343,
					-0.02815692345277,
					0.0450293046280189,
					0.152604165290884,
					-0.4493687864761,
					-0.04691470232964,
					-0.44368459053094,
					0.407438086682377,
					-0.02290213780924,
					0.413423455355447,
					-0.12494670544636,
					-0.11615119439814,
					-0.0577906413839,
					-0.32416777410952,
					-0.13042510816854,
					-0.27468456395641,
					-0.36022889579664,
					0.0887407773632681,
					0.248960309793728,
					-0.3988608179931,
					0.494806779214685,
					0.196359790368195,
					-0.4638675243869,
					-0.05952627026509,
					-0.41927725610866,
					-0.32926611221901,
					-0.16798655849159,
					0.0148977712585667,
					0.105705627818534,
					0.328361830378474,
					-0.02191164759723,
					-0.05705159732489,
					-0.23200620111882,
					0.2919989312666,
					-0.01903899785669,
					-0.2858305885939,
					0.161970868408082,
					-0.00827096252438,
					0.179604325949245,
					0.0995802432563219,
					-0.3003915560622,
					-0.41713188269887,
					0.131744325079992,
					0.199395104548118,
					0.318473080820144,
					0.333262676579578,
					0.244367390393376,
					0.376837318433754,
					0.0854974034935574,
					-0.31596399934416,
					-0.19689434605873,
					-0.25501975290415,
					0.495704576479981,
					-0.03735128960902,
					0.369429548547485,
					0.295996145013951,
					0.377321443064448,
					0.203402366633006,
					0.353287584644099,
					0.304655687944616,
					0.452437763853287,
					0.127371712237382,
					0.337289949897239,
					0.341270354835265,
					0.319440123270155,
					-0.39370781769114,
					0.458235418648488,
					-0.33341597748098,
					-0.07460322833701,
					-0.24271430450319,
					-0.46380592995926,
