{
	"decoder": {
		"cell_count": 13,
		"cells": [
			{
				"biases": [
					0.145932819842034,
					0.58757106694265,
					-0.43670996295271,
					-0.4184656292512
				],
				"weights": [
					[
						-0.91013279840078,
						-0.6319468980371
					],
					[
						0.324639978602656,
						0.617422731141112
					],
					[
						0.0122522677868797,
						0.65062797933244
					],
					[
						-0.50568700414819,
						-0.48987029790983
					]
				]
			},
			{
				"biases": [
					-0.90285395020403,
					-0.55058763056354,
					-0.31264674388004,
					-0.10910047985012
				],
				"weights": [
					[
						0.802822113281057,
						0.190093291075916
					],
					[
						-0.56636594393714,
						-0.73489837773979
					],
					[
						0.29779213590188,
						-0.83752739728755
					],
					[
						0.849551715309605,
						-0.55208629740072
					]
				]
			},
			{
				"biases": [
					-0.28490577881674,
					0.690943700971043,
					0.128839511558082,
					0.568641892155006
				],
				"weights": [
					[
						-0.53745971043531,
						0.378507924848023
					],
					[
						-0.6057337554548,
						-0.12515049081938
					],
					[
						-0.94753907947929,
						0.86543019220986
					],
					[
						-0.5957492666108,
						-0.04257743242014
					]
				]
			},
			{
				"biases": [
					-0.72127050751077,
					0.238765368352522,
					-0.39268835498142,
					-0.73004882159798
				],
				"weights": [
					[
						-0.17618257393508,
						-0.41506413428984
					],
					[
						-0.95561138696444,
						-0.8490572956055
					],
					[
						-0.39928766379085,
						0.931654724531308
					],
					[
						-0.29264308283641,
						0.479754092069705
					]
				]
			},
			{
				"biases": [
					0.472624884754604,
					-0.34309055225165,
					0.791852172430655,
					-0.82600776454308
				],
				"weights": [
					[
						-0.5159332934179,
						-0.92557618347658
					],
					[
						-0.16636345320784,
						0.5779745467798
					],
					[
						0.647538909460037,
						-0.16410140118697
					],
					[
						-0.33512275649399,
						-0.28745828440263
					]
				]
			},
			{
				"biases": [
					0.520628213254572,
					0.778268176929819,
					0.724356257954766,
					0.47689512225214
				],
				"weights": [
					[
						0.528285589894853,
						0.996189320473961
					],
					[
						-0.45757509704414,
						0.96088109130136
					],
					[
						0.638069751431692,
						0.0531251947078684
					],
					[
						-0.81843904423672,
						0.317060896401535
					]
				]
			},
			{
				"biases": [
					0.758399317943955,
					-0.3430885180564,
					0.375762397622712,
					0.984362924521125
				],
				"weights": [
					[
						0.200072246619183,
						0.59163472957644
					],
					[
						0.616563903438019,
						-0.66045802760725
					],
					[
						0.867374589849533,
						0.293900850046309
					],
					[
						-0.00099704847367,
						0.417248434766119
					]
				]
			},
			{
				"biases": [
					0.457752094738867,
					0.847495643617636,
					0.197922606018212,
					-0.46580383954514
				],
				"weights": [
					[
						0.949461903706518,
						-0.45522051945485
					],
					[
						0.372560564191952,
						-0.81665634464571
					],
					[
						0.166132867988911,
						0.212048802725466
					],
					[
						-0.93803321463732,
						0.223195086890968
					]
				]
			},
			{
				"biases": [
					-0.95458262596185,
					0.572921218968668,
					-0.56100501608517,
					0.0457188556106389
				],
				"weights": [
					[
						-0.46884966382363,
						-0.23772183474503
					],
					[
						0.405542295347947,
						-0.20782902015682
					],
					[
						-0.1911799247309,
						0.634130062688659
					],
					[
						-0.74574613443069,
						0.824700992692338
					]
				]
			},
			{
				"biases": [
					0.724400083302381,
					0.18402817820371,
					0.228736471515539,
					0.898646888048333
				],
				"weights": [
					[
						0.338452843627465,
						0.344699786268273
					],
					[
						0.338545365457299,
						0.0497323493173691
					],
					[
						-0.30198360608476,
						0.644234556899471
					],
					[
						0.533583305374861,
						-0.00092648459953
					]
				]
			},
			{
				"biases": [
					0.445395078067395,
					-0.6714693265268,
					-0.81538449147307,
					0.644998226091154
				],
				"weights": [
					[
						-0.05412253852441,
						-0.7658217590436
					],
					[
						-0.48157001117902,
						0.143762857258336
					],
					[
						-0.68189752953236,
						-0.95671535849841
					],
					[
						0.978566743720265,
						-0.92513708472851
					]
				]
			},
			{
				"biases": [
					-0.78056483442945,
					0.0179612749431932,
					0.469538310461086,
					0.843117066569648
				],
				"weights": [
					[
						-0.27362899148571,
						0.899190741197076
					],
					[
						-0.16754547321993,
						0.816217959637068
					],
					[
						0.795842451254983,
						0.652351190299821
					],
					[
						-0.19796783122521,
						0.391160583213046
					]
				]
			},
			{
				"biases": [
					0.909982366205697,
					-0.57262681720549,
					0.987201429066925,
					0.104398328297768
				],
				"weights": [
					[
						0.0937406341449167,
						-0.03634652690409
					],
					[
						0.579777036801392,
						-0.87306487666687
					],
					[
						0.968684435224903,
						0.790662946897851
					],
					[
						0.936235594099783,
						0.968833104201478
					]
				]
			}
		]
	},
	"embedding_input": {
		"input": 13,
		"is_biased": false,
		"layers": [
			{
				"a": 2,
				"b": [
					0,
					0,
					0,
					0,
					0,
					0,
					0,
					0,
					0,
					0
				],
				"i": 13,
				"o": 10,
				"w": [
					0.0849626781113539,
					-0.15891583416032,
					-0.48021233621466,
					-0.12452802656687,
					0.345875366328672,
					0.183781467385479,
					0.146858559276313,
					0.241773981413927,
					0.294839207330882,
					0.0186833550851501,
					-0.22069963988262,
					-0.10561852472908,
					0.491532366599533,
					-0.42909160803732,
					0.0771191923758284,
					-0.42678621571549,
					0.193638064113101,
					-0.21859729098587,
					0.155278384025861,
					0.284815460131078,
					-0.31823332574192,
					-0.22686032620537,
					0.112753020526724,
					-0.46992902433627,
					-0.41477640482509,
					0.226656879640367,
					-0.26267019002174,
					-0.28973389062722,
					-0.19996007363218,
					0.195328869447084,
					0.159735154034906,
					0.204621133882775,
					0.290968008021896,
					0.299022621080704,
					-0.02746999975851,
					-0.0805613378196,
					0.293131698456043,
					-0.43601982366332,
					-0.48313332863894,
					-0.32977299159391,
					0.218986637849484,
					-0.02574784383582,
					0.21414528710034,
					0.318908822620059,
					-0.42550726694137,
					-0.30516336693917,
					-0.32036026303245,
					0.164389145756505,
					-0.34430738499678,
					-0.15680083269994,
					0.170150217958747,
					0.295246192766335,
					0.28463782657538,
					0.45790741301728,
					-0.39488484889246,
					0.1956900044198,
					0.232078553748367,
					0.461267627502078,
					-0.49349051455304,
					-0.05355263111573,
					-0.15090268445945,
					-0.23874978776151,
					-0.39694152338935,
					0.47872831196538,
					-0.11241136026952,
					-0.23852894330846,
					-0.33776813894396,
					0.491196696892827,
					0.0101776113179439,
					0.0714199075278729,
					-0.37660364195611,
					-0.2334766091055,
					0.346342356341655,
					-0.23214847936907,
					-0.36593294743247,
					-0.17475319242956,
					-0.37918748632977,
					-0.30671365357352,
					0.401781817502895,
					0.324051356948833,
					0.413441440934788,
					0.0467736683249101,
					-0.0231771796836,
					-0.25551830125464,
					0.498310239616842,
					0.102782667374124,
					0.176142628984524,
					-0.30576603498588,
					0.181201268739875,
					-0.11792522916517,
					0.36739700809739,
					0.488162559420001,
					0.156519122893237,
					0.386957418112589,
					0.431574451097666,
					0.28995710046044,
					0.42666369779682,
					-0.23700981165433,
					-0.36707826029049,
					-0.05805741848601,
					0.31782842902458,
					-0.16112855571267,
					-0.09654338526402,
					-0.14091663255843,
					-0.31447068793339,
					0.369735232686125,
					0.233688376707472,
					0.391017473790368,
					-0.42932633128553,
					0.027109981926112,
					0.335181570817179,
					-0.12398686082046,
					0.414567137226736,
					0.355167542226557,
					0.0143024262793797,
					0.39201194279562,
					-0.29768307789264,
					0.352485755762403,
					-0.04555147089035,
					-0.31271614159909,
					0.403694661826341,
					0.0518410024151887,
					-0.01745834960802,
					-0.43059732067518,
					0.328466196273895,
					-0.01577677549837,
					-0.18578802156727,
					0.351538801166222,
					-0.36008294796581,
					0.12901864123337
				]
			}
		]
	},
	"embedding_output": {
		"input": 13,
		"is_biased": false,
		"layers": [
			{
				"a": 2,
				"b": [
					0,
					0,
					0,
					0,
					0,
					0,
					0,
					0,
					0,
					0
				],
				"i": 13,
				"o": 10,
				"w": [
					-0.02477419475475,
					0.250263806300365,
					0.234382134696117,
					-0.18240256858814,
					0.399934871993051,
					0.212427908822946,
					-0.38752132507324,
					0.113896268881679,
					0.38960090701965,
					0.47754721536506,
					0.39373754677651,
					0.395825236896073,
					-0.34940215287126,
					0.318258430244721,
					-0.35989496375887,
					0.116615729275164,
					0.0250091583966641,
					0.224165593938202,
					-0.16735466619918,
					-0.36989287822133,
					-0.23453820396284,
					0.457316049669904,
					0.17410063215533,
					0.307306558890985,
					0.275578401513019,
					-0.47486968758502,
					-0.06114580086397,
					-0.3593355105351,
					-0.45508914465861,
					0.286698739895422,
					-0.26042617632618,
					0.403982331247046,
					-0.00420270732516,
					0.0908073865795879,
					0.127020119493524,
					-0.0011381945208,
					0.280963243401151,
					-0.23878574610675,
					-0.32318199545885,
					-0.36701225173676,
					0.45880103630642,
					-0.30361190876512,
					-0.34873490256082,
					0.234814495473254,
					0.308474532565589,
					-0.44772559906596,
					-0.42547390975624,
					-0.05614252089571,
					0.152098237801627,
					0.277608015766811,
					0.127168883556272,
					0.105068892412422,
					0.12528132625558,
					-0.2068762029217,
					0.254105024041769,
					-0.27383142111247,
					0.328446100643732,
					-0.04199502320332,
					-0.14664821796699,
					0.135647388713262,
					-0.25700848182227,
					-0.40999517607908,
					0.0278042644825209,
					0.234469600740307,
					-0.14773185347757,
					0.0929120297086211,
					-0.24888008004974,
					0.400994694656913,
					-0.29864109498246,
					-0.00949215373791,
					-0.14351755401803,
					-0.49032998242229,
					-0.42026381085565,
					0.251974981730996,
					-0.19334540796354,
					0.0314858472653682,
					0.388652799394224,
					0.00822013934149446,
					0.22745734901207,
					-0.04509934633755,
					0.18565855505299,
					0.394220729777593,
					-0.00778883525695,
					-0.36232353734518,
					-0.37710369751795,
					-0.26433310623763,
					-0.11363350622581,
					-0.42522295552624,
					-0.31371158767046,
					-0.35249926490254,
					-0.44541565778448,
					-0.23551701832322,
					0.184816079640159,
					0.497436308380199,
					0.0895984776769185,
					-0.489712861237,
					-0.43678261848252,
					0.356764827531273,
					-0.16428848083118,
					-0.49903291040271,
					-0.39737513483082,
					-0.10199763251427,
					-0.09255467499998,
					0.137799298619436,
					0.411528479152715,
					-0.30590333427647,
					0.069301653727611,
					0.388974702608506,
					-0.20173601191863,
					-0.04683501018759,
					-0.08934837183048,
					-0.1975238689554,
					-0.49595648196744,
					-0.0776366886634,
					0.366002628521156,
					-0.03273666152841,
					0.454665540723814,
					0.205203492866453,
					-0.49983679935185,
					0.387555717008242,
					-0.3753545658452,
					-0.00307336278208,
					-0.04591488308469,
					-0.15129004788412,
					0.467995291267952,
					0.242330963628266,
					0.237187223799495,
					-0.16160112198559,
					0.289349901155565,
					0.053704116177097
				]
			}
		]
	},
	"encoder": {
		"cell_count": 13,
		"cells": [
			{
				"biases": [
					0.276832333940825,
					-0.43587849348104,
					0.154814952694748,
					0.494012615346506
				],
				"weights": [
					[
						-0.12951499533895,
						-0.78805135761088
					],
					[
						0.618708850646583,
						-0.68771176049623
					],
					[
						0.706846240327391,
						0.29074215655238
					],
					[
						-0.45622361708113,
						-0.96204915102895
					]
				]
			},
			{
				"biases": [
					-0.50995048173605,
					0.676133471375892,
					0.604349232299491,
					-0.49195924921741
				],
				"weights": [
					[
						0.769852150484075,
						0.197840598683515
					],
					[
						0.338376579598574,
						-0.12517109258413
					],
					[
						-0.71342199899631,
						-0.66686340604651
					],
					[
						-0.05820513260359,
						-0.739928472543
					]
				]
			},
			{
				"biases": [
					-0.15576927774595,
					0.0498996410013954,
					-0.59720761549119,
					0.436798546907568
				],
				"weights": [
					[
						0.694151420534915,
						-0.63822268257909
					],
					[
						-0.03092244715002,
						-0.78198494273057
					],
					[
						0.131563160976462,
						0.141585931195496
					],
					[
						-0.78977372938386,
						-0.70989251745578
					]
				]
			},
			{
				"biases": [
					-0.08636489773547,
					0.406702656491035,
					0.228617556618774,
					-0.07371836529075
				],
				"weights": [
					[
						0.804473188993719,
						0.616090357217866
					],
					[
						-0.46054992377546,
						-0.44415253204731
					],
					[
						-0.20242816586204,
						0.545284354808801
					],
					[
						0.005179768472237,
						0.0211198664478793
					]
				]
			},
			{
				"biases": [
					-0.95907644325777,
					0.266192681759637,
					0.928330806287035,
					0.69769207828208
				],
				"weights": [
					[
						0.668802657400376,
						-0.69644790271741
					],
					[
						0.0657690755635065,
						-0.22110358925176
					],
					[
						-0.38895073215177,
						0.858810037244513
					],
					[
						0.273641878702423,
						0.390885300490399
					]
				]
			},
			{
				"biases": [
					0.505167281836332,
					0.75108076371743,
					0.519254131555175,
					-0.90785115684875
				],
				"weights": [
					[
						-0.09309342845686,
						0.789136076877214
					],
					[
						0.715195588041932,
						-0.15227303639719
					],
					[
						-0.2880363020985,
						-0.94202395612865
					],
					[
						-0.13136116877191,
						0.362792127702202
					]
				]
			},
			{
				"biases": [
					0.62623615054435,
					0.645118453912798,
					-0.1174059914994,
					-0.89210930602466
				],
				"weights": [
					[
						-0.6219826126168,
						0.477356473602425
					],
					[
						0.12398424939705,
						-0.13471131337061
					],
					[
						-0.33656869365108,
						-0.88074782124955
					],
					[
						-0.01496269967339,
						0.931267263988688
					]
				]
			},
			{
				"biases": [
					0.717603244987021,
					-0.86803459618386,
					0.286763967386655,
					-0.038357517093
				],
				"weights": [
					[
						-0.14918399713208,
						0.00852101875729239
					],
					[
						-0.65029073184074,
						-0.73486786584614
					],
					[
						-0.0023638669521,
						-0.43564030919989
					],
					[
						0.189096893477394,
						-0.50244132103827
					]
				]
			},
			{
				"biases": [
					0.318364965658947,
					0.436418064956768,
					-0.9945694610697,
					-0.62576919178004
				],
				"weights": [
					[
						0.439857855716735,
						0.776070403003359
					],
					[
						-0.30774565911521,
						-0.78626672697494
					],
					[
						0.466462636147118,
						-0.95608535964137
					],
					[
						0.669837636006774,
						-0.8819303681903
					]
				]
			},
			{
				"biases": [
					-0.80285466037663,
					-0.82005265980478,
					0.678801377869991,
					0.39879020559774
				],
				"weights": [
					[
						-0.28497757966293,
						0.845163904609488
					],
					[
						-0.37505374894703,
						0.661015463947623
					],
					[
						-0.91172765026159,
						0.081076685623672
					],
					[
						0.307264004842574,
						0.78368103951096
					]
				]
			},
			{
				"biases": [
					-0.42826533032343,
					-0.6270562818792,
					0.606208164851991,
					-0.69906156224139
				],
				"weights": [
					[
						0.620100249659546,
						-0.04635101136607
					],
					[
						0.151187257136401,
						-0.86405469509687
					],
					[
						0.487511035982102,
						0.634547766508114
					],
					[
						0.873872259270836,
						0.115422226819144
					]
				]
			},
			{
				"biases": [
					0.545683286467595,
					-0.48632306099022,
					0.264943585696411,
					0.223873162428282
				],
				"weights": [
					[
						-0.56595686574322,
						0.353378696040972
					],
					[
						-0.0182694453884,
						-0.07058662428582
					],
					[
						-0.42952365117594,
						0.46082274038033
					],
					[
						0.716209983947808,
						0.064203751191106
					]
				]
			},
			{
				"biases": [
					0.657406774137821,
					-0.46335956778837,
					-0.81628556131931,
					-0.40053554403652
				],
				"weights": [
					[
						-0.23263461502355,
						0.576441671458594
					],
					[
						0.153934254596828,
						-0.88557334254721
					],
					[
						-0.99615410038515,
						0.936501568856057
					],
					[
						-0.81607146676274,
						0.573198294108209
					]
				]
			}
		]
	},
	"keys": {
		"!": 6,
		",": 3,
		".": 2,
		":": 4,
		";": 5,
		"?": 7,
		"\\eos": 1,
		"\\sos": 0,
		"aku": 11,
		"belum": 12,
		"kamu": 8,
		"mandi": 10,
		"sudah": 9
	},
	"vec2word": {
		"input": 10,
		"is_biased": false,
		"layers": [
			{
				"a": 2,
				"b": [
					0,
					0,
					0,
					0,
					0,
					0,
					0,
					0,
					0,
					0,
					0,
					0,
					0
				],
				"i": 10,
				"o": 13,
				"w": [
					-0.36998850116248,
					0.38366158825001,
					-0.35732822004463,
					-0.11948256082972,
					0.328930856994288,
					-0.16428926390248,
					0.133629769885426,
					-0.38709733792065,
					0.162708226098002,
					-0.09275034107171,
					-0.00760744386505,
					-0.03370773612397,
					-0.18537946548861,
					-0.40919294954792,
					-0.12510714431074,
					-0.1684819079697,
					0.406828918020017,
					-0.43923597124317,
					0.109913966404088,
					-0.11116974222131,
					0.115980598123931,
					-0.00933007697916,
					-0.12364417683792,
					0.358980349788029,
					0.0872912539084468,
					-0.11809745306766,
					0.402487045535162,
					-0.02462232521057,
					0.479769003184463,
					0.192661419487975,
					-0.35323089376027,
					0.302880788368634,
					0.150815550700158,
					-0.08795908996066,
					0.326286068030208,
					-0.09052403655839,
					0.0338856394907435,
					0.336724600061689,
					0.459257769612711,
					0.0145965957791642,
					0.242525610134499,
					0.444925512084569,
					-0.35537545715406,
					0.467913138967773,
					0.436445570644979,
					-0.22489365279886,
					-0.05145361166127,
					-0.07699719521154,
					-0.11343504516208,
					0.0479965468969125,
					0.178488527908411,
					0.445898331599978,
					-0.46792872664807,
					-0.42897656267995,
					-0.1599109734275,
					0.414411887084671,
					-0.24052173354914,
					0.467932420795165,
					0.385770037288068,
					0.424141927544632,
					-0.35781980711257,
					0.0669967265095421,
					0.0376585561953438,
					-0.08636013910915,
					0.0506296279114427,
					-0.0685734088024,
					0.0560379496948197,
					-0.05106099486756,
					0.414093059327173,
					0.24522237801737,
					-0.09505645256545,
					0.46937898870423,
					0.45632396547135,
					0.288685043334657,
					-0.06333377603837,
					0.369719728485408,
					-0.34592243671266,
					0.13360192444279,
					-0.4187375110362,
					-0.22806696679442,
					-0.42940645343636,
					0.180071931815169,
					0.418282926890239,
					0.212725318418341,
					0.0818360068832638,
					0.399686460713229,
					-0.12485236064353,
					0.0758031599692931,
					0.251958932676229,
					0.281540525295231,
					0.31856363313098,
					-0.44919918268879,
					-0.09467099901415,
					0.350901975441612,
					-0.29024332426718,
					-0.45208689277964,
					-0.01424408217292,
					0.419843426615259,
					0.474362439205399,
					0.223546584434933,
					0.0503137477191886,
					0.451202582737024,
					0.394295414259256,
					-0.42175751360014,
					-0.04739718501257,
					0.0612951943898429,
					0.329576435350768,
					-0.2249355031906,
					-0.22781687938836,
					-0.38305846363693,
					-0.25072120510468,
					0.427700508325025,
					0.293158805564521,
					0.181617454278791,
					-0.46284837294259,
					-0.42543326793441,
					0.31236414990921,
					-0.28709157435331,
					0.0404648082862721,
					-0.3527822220799,
					-0.20757270330294,
					0.224519951200672,
					0.425277833021307,
					-0.20283350379334,
					0.331849406409411,
					0.450055495177082,
					-0.09263919983095,
					0.179418394738221,
					0.442482605521092,
					0.46904250496154
				]
			}
		]
	},
	"vec_count": 10
}
