{
	"layer": [
		{
			"vector_size": 32,
			"head_size": 2,
			"batch": {
				"w": {
					"row": 1,
					"col": 32,
					"data": [
						[
							1,
							1,
							1,
							1,
							1,
							1,
							1,
							1,
							1,
							1,
							1,
							1,
							1,
							1,
							1,
							1,
							1,
							1,
							1,
							1,
							1,
							1,
							1,
							1,
							1,
							1,
							1,
							1,
							1,
							1,
							1,
							1
						]
					]
				},
				"b": {
					"row": 1,
					"col": 32,
					"data": [
						[
							0,
							0,
							0,
							0,
							0,
							0,
							0,
							0,
							0,
							0,
							0,
							0,
							0,
							0,
							0,
							0,
							0,
							0,
							0,
							0,
							0,
							0,
							0,
							0,
							0,
							0,
							0,
							0,
							0,
							0,
							0,
							0
						]
					]
				}
			},
			"query": {
				"row": 32,
				"col": 32,
				"data": [
					[
						-0.59938014512429,
						-0.11209630413484,
						-0.21840650242213,
						-1.48771052100191,
						-1.59417706435152,
						-0.50888768412487,
						1.16672972789458,
						0.34563009887175,
						-1.50167234540909,
						0.0930881827335625,
						-0.89223225571087,
						0.952818334970275,
						-1.52999968789915,
						-1.73380587385298,
						1.1492106646103,
						-0.08731925825162,
						0.228340230408587,
						-1.54801253631439,
						1.42742388163677,
						1.25753066688638,
						-0.22536101832074,
						0.135357930619983,
						1.4224858836788,
						0.908604704382686,
						-0.07307385213387,
						1.01048502733797,
						0.194078303885056,
						0.879489120096959,
						1.42539578960275,
						-0.20722263932952,
						0.729364016314648,
						-1.00667487554927
					],
					[
						1.18092551951894,
						-1.40248789734937,
						-1.09687789508201,
						0.499818599316323,
						0.513222986227911,
						0.497012715753493,
						-0.10318440509228,
						-1.26002158786582,
						-0.10971090097238,
						1.21816926826609,
						0.959760954130041,
						0.966457591649366,
						0.0269400028209721,
						1.1389679554102,
						0.291864057505236,
						-0.61702841509664,
						1.16512574775883,
						-1.27052731000218,
						-1.22735052760246,
						-1.06417624088671,
						1.40737515943193,
						-1.21248490937162,
						0.424185283013307,
						-0.83922914753726,
						0.817880672860169,
						-1.19570644926429,
						-0.62786213767094,
						1.40930716796164,
						1.20149043876644,
						-1.03825493217416,
						-1.51041671495642,
						0.856815350533642
					],
					[
						1.56985758617437,
						1.66948159486785,
						0.618846534686812,
						0.0511880723329213,
						0.11739516891418,
						-1.28286491095827,
						1.17642189677207,
						-0.87967019149332,
						1.75641782215025,
						0.55073040705879,
						-0.88376953005174,
						-1.78571943208011,
						-0.79199228741247,
						0.421951375922186,
						1.19813728603605,
						-0.00823242306211,
						1.11985190090187,
						-1.10454766343566,
						0.964763604209002,
						0.0557000627051775,
						-0.92675097100729,
						0.512652203411731,
						-0.6396476995622,
						-0.014899350434,
						1.2371684907189,
						0.42912582663837,
						-0.76407781520002,
						-1.14158171836548,
						-1.68295389630933,
						0.150504555547304,
						-0.60516379718133,
						-1.08832270249452
					],
					[
						0.96393404381091,
						-0.3915769907945,
						0.335667127467619,
						0.0839586290778463,
						-0.5179670427555,
						-0.41132994297873,
						1.32115206327081,
						-1.27710098741837,
						0.221755504947306,
						0.378031616077101,
						1.26769045069129,
						-1.31534736287548,
						-0.29540203986951,
						1.31267298653228,
						0.744778746974575,
						-0.67403455505074,
						-1.2261420505107,
						-0.17715194964613,
						-1.19469499922832,
						-0.99504679403226,
						-0.61153291613861,
						-0.09917894716172,
						-1.42522657402142,
						-0.16774617808242,
						-0.08006793981699,
						1.907975155538,
						1.08272193143545,
						1.7934604019332,
						1.38090430265809,
						-1.42239530443313,
						0.77866562379618,
						-1.29142600939613
					],
					[
						-0.58431895389174,
						0.89496953823001,
						-0.67006919545456,
						-0.69448923116563,
						-0.91249201066255,
						0.435882379686134,
						1.04117078893414,
						1.01301192867122,
						1.49664621507101,
						-0.23026197527751,
						-1.12135383017754,
						1.66700886815189,
						0.371697109733605,
						1.85030976623277,
						0.0946314555380171,
						-1.43571615811674,
						-0.8865530453952,
						-0.79758452935746,
						-0.15506999759774,
						-0.22590496042247,
						1.07173580043137,
						-1.77024564585382,
						0.110040749489292,
						0.983575176046628,
						-0.29690515992481,
						0.245998289853779,
						-1.39496014050806,
						-0.5534971508402,
						-0.09637674973678,
						-1.74163815322696,
						1.09232567823831,
						1.19843314330159
					],
					[
						1.46715214390345,
						1.05601898989879,
						0.0733348593822238,
						1.09109858528367,
						0.211755423383334,
						-0.62075240527384,
						-1.42430597875721,
						1.46575843745357,
						0.413770278011679,
						0.681823928129972,
						0.283978896107575,
						-1.0903920453559,
						0.486541674696284,
						-1.14434985580785,
						0.691788828332539,
						0.794045681165038,
						-1.21483617890899,
						1.02888245151169,
						-0.86595100686909,
						-1.50321686726648,
						-0.06812074972235,
						1.38974973411703,
						-0.82461542560679,
						-0.27668876635166,
						0.173052964400307,
						1.40331761659485,
						-1.57369482722721,
						-1.0775084339202,
						-0.8442221299496,
						-1.12792369207864,
						1.48808088554375,
						-0.54357301481993
					],
					[
						0.865545979477524,
						0.386291955690907,
						0.011472279364724,
						1.17824346798251,
						1.24055887911701,
						0.737218954989046,
						0.385346373466259,
						1.37122207756012,
						0.985390562897879,
						-0.00253574395198,
						0.904516096970656,
						-0.13058360152644,
						1.13792976106512,
						-1.69551005675855,
						0.416735697665853,
						-0.96968101879893,
						0.0119940817346347,
						-1.80570690823301,
						-0.36109397801252,
						-1.42428754151572,
						-1.52896047721004,
						0.888258331984816,
						-0.97465818045089,
						-0.36331782329151,
						-0.86742119183479,
						0.803897851396969,
						0.661147948658244,
						0.83403910921609,
						-0.21298427976577,
						-1.81279649237684,
						-1.51754612518353,
						0.847274009672159
					],
					[
						-1.59478552908818,
						1.08055289952081,
						1.33326670986843,
						-0.42140871290335,
						0.650973959236625,
						-0.69001692699237,
						-0.21703759336807,
						-1.69720140718009,
						-0.37468532589457,
						0.261627789035705,
						-0.08448484016702,
						-1.08492050893644,
						1.18927875343073,
						0.902062064192613,
						0.940241890633894,
						-0.38713380737517,
						-0.51172592241708,
						-2.10147364401466,
						0.41383148317929,
						1.14426209286066,
						-1.04977356392959,
						-0.27221940792399,
						0.980752660256632,
						-1.70553356487954,
						0.691264063885405,
						1.27134388053947,
						0.96020263301881,
						-0.43639969668685,
						-0.0655303866082,
						0.662694040851721,
						1.32527460558488,
						-1.11329868773052
					],
					[
						1.33855163853952,
						1.57033068151235,
						0.931714152044565,
						1.79323477478898,
						0.673344793744351,
						-1.25760324219709,
						1.29203758419562,
						0.531671794618349,
						-0.76717237315829,
						-1.36601627154741,
						-1.25843478434177,
						-0.83102214315216,
						-1.10419222086486,
						-1.02300099305633,
						0.138992861605626,
						-1.05122060758648,
						-0.19406916809632,
						-0.51158172067257,
						-0.11467084427823,
						1.69460808057533,
						0.845437707524767,
						0.76104247996773,
						0.0406038994011625,
						-1.31655305713621,
						-0.8706650157643,
						-0.9732137495734,
						-1.02030503187145,
						-0.20838382231819,
						1.45865540486051,
						-0.08321765824429,
						0.324256944631615,
						0.556839905848892
					],
					[
						0.869240559716093,
						-1.82779088028435,
						-1.55086452643977,
						0.580437702160378,
						-0.24117126284209,
						-0.64406766927586,
						1.09114824027571,
						-1.15119145202309,
						-1.40510018221011,
						-2.0834560406681,
						1.22040783450718,
						0.799090214749031,
						-0.87311816014944,
						-1.00749774312224,
						-0.15053656306529,
						-0.52652049689763,
						0.250562611481116,
						0.184902022908924,
						0.236505195704604,
						-1.50242503188685,
						0.313877872733676,
						0.112649863260214,
						1.12095028534124,
						0.518761704535235,
						0.166549629466026,
						0.898880225394685,
						1.3076993256728,
						0.496593775483185,
						1.06908070086668,
						-0.75877077320663,
						1.18683512204475,
						1.29833789576992
					],
					[
						1.15610179349523,
						-0.51819797321579,
						0.0585255030389528,
						-0.06372972832115,
						1.61360871212831,
						0.959850875421022,
						-0.33728113763134,
						-0.8176732094927,
						-0.78684348780942,
						-1.76301988211587,
						1.42314405173029,
						-1.63785566311165,
						-0.15956885090066,
						1.55330855588359,
						1.4418882700861,
						-0.85684442313614,
						-0.04117008183756,
						-0.23423632109733,
						0.546476369410669,
						0.167332349819709,
						1.78137152354725,
						-1.40998561351365,
						-0.36356893004501,
						1.14223121507492,
						-0.41728993581025,
						-0.4414780226916,
						-1.65489869946444,
						-1.35066260541678,
						-0.14751597279858,
						0.469239256009272,
						0.325221630939697,
						0.363520431824923
					],
					[
						1.46900314204936,
						1.35369847700785,
						-0.71131244138872,
						-0.40733212065126,
						0.544355695917029,
						1.05171742323206,
						-0.83691922937152,
						-0.47843148921764,
						0.911930386498611,
						0.155128269875126,
						-0.53416046522044,
						-1.36778883348668,
						-0.15155256049468,
						1.30377558241871,
						0.0707617505797243,
						-0.23106400244547,
						0.0840924259059262,
						1.2486445133121,
						1.10008037855355,
						-1.69271397402187,
						-1.49728462053775,
						-0.21804618997051,
						0.973152423618343,
						-0.60627606383214,
						1.3646668488886,
						1.35654654921648,
						0.419237957836351,
						-0.48448625377473,
						-1.52651740964429,
						-1.53896723502427,
						-1.43485826917621,
						0.310919333348363
					],
					[
						1.88146935525107,
						-1.20854014626691,
						-1.02867662898873,
						-0.24075065400364,
						0.103809541222391,
						0.241243193114087,
						0.892680165352878,
						-1.13582350794282,
						0.756684255613353,
						0.868580033307442,
						-0.30949470586818,
						-0.64885948952405,
						-1.42835787189235,
						0.0776885035332216,
						1.33149795322788,
						-0.8688103498304,
						-1.11064437811074,
						0.670506956743139,
						-0.43253785633852,
						-1.30853463120011,
						1.98924705002121,
						-1.42498576078578,
						1.47557207009175,
						-0.6565379403638,
						-0.73858416165823,
						-0.03227309859434,
						1.3479569252616,
						1.07856507088506,
						-0.06936156583903,
						-0.95848278030265,
						0.822697455169336,
						0.0630569987158637
					],
					[
						1.64514266894037,
						-1.07785405795293,
						1.21709096943452,
						0.997857296971042,
						-0.65174330037638,
						0.0317370639287189,
						1.64988921031953,
						1.69833239843594,
						-1.44394944688316,
						-0.29215646133029,
						-1.38402188378378,
						0.904572248478747,
						0.895586757663456,
						-0.57656105110838,
						0.755966796348058,
						1.39886116216207,
						-0.29783537692831,
						-0.60947091301021,
						-1.26436912679484,
						1.05756986116253,
						0.294683815097418,
						-1.57659333105346,
						-0.95460073269421,
						0.667979985408173,
						-1.13106561599947,
						-1.23427669253607,
						-0.51051020849738,
						-0.60587932229358,
						0.341427410754844,
						0.408525810829031,
						0.115801681574755,
						-0.47013761626675
					],
					[
						-0.28795632962413,
						0.569001344556319,
						-1.52743483089705,
						-0.80336167129137,
						-1.50193100733302,
						-0.19061112383198,
						-0.11837669958707,
						0.99835636636488,
						1.64395423405443,
						-0.11610591819852,
						0.893002141764255,
						0.5772332959954,
						0.18249027554662,
						0.564866834870096,
						0.668500432487315,
						1.62818456181597,
						-0.95304565671454,
						-0.00189815376519,
						1.20064438785957,
						0.771115655991629,
						-0.07301289472801,
						-1.26661809396912,
						-1.33364213423898,
						-0.90427135165507,
						-1.19782309912014,
						-0.94956702976615,
						1.58834901066152,
						0.0637855723222185,
						1.35794187485434,
						-0.80764490344444,
						0.943116648398122,
						-1.61724173937788
					],
					[
						1.06958126043836,
						-1.60115326172014,
						1.26727216295692,
						0.668934682544789,
						0.543424108255558,
						1.40774534585165,
						0.419896534421187,
						1.4027204209706,
						-0.56321607949858,
						0.654607268187223,
						0.644649207680227,
						-0.68000030149189,
						-1.06185335194412,
						0.644383114129445,
						-1.25911145639421,
						-1.33450116070739,
						-1.0135720070172,
						0.646014182614172,
						0.88641497210567,
						1.32653222491476,
						-1.45419426281136,
						-1.41590453188329,
						-1.08396275382537,
						0.461406263492435,
						0.872180130502567,
						-1.12170660500266,
						-0.16458074046363,
						-0.36970110250338,
						0.993572811750022,
						0.65236487892704,
						-1.48004095247101,
						0.0417989979915976
					],
					[
						-0.35780017649406,
						-1.13628742888294,
						-1.448991287405,
						1.6468063095277,
						0.894808752490254,
						-0.88945678403378,
						0.386751954022226,
						1.16489209229095,
						0.603567789698617,
						0.7106135558104,
						-1.18072691146913,
						0.465425822505979,
						-0.43261898755016,
						0.27020601347832,
						1.10399744002776,
						1.89287046526595,
						1.17177175939117,
						-1.31965372246447,
						-0.30631764380383,
						0.825710839482934,
						-0.15105583983578,
						0.419898356111035,
						-1.59813817666637,
						-0.84922880145772,
						-1.12426754414896,
						-1.01533872583847,
						0.215905382016763,
						0.901686483162125,
						-0.99885088225652,
						-1.50588532576829,
						0.829554948613453,
						0.81015027417985
					],
					[
						-1.20433006044256,
						1.82916823233106,
						0.035319466931018,
						0.735191866471191,
						0.86198131277378,
						-0.89207237423553,
						-1.1961773346943,
						-1.64060637384518,
						-0.73831665409098,
						-0.98893035319811,
						1.10929437875844,
						-0.57512482490193,
						-0.49491099874347,
						1.65261206898709,
						1.00191097713545,
						-0.61590845294331,
						0.973168922252119,
						0.48911503913639,
						-0.11696174733058,
						-0.0506968518942,
						0.721263553090202,
						1.61106176540106,
						-0.80092921673463,
						0.272587178425644,
						-1.22378844035858,
						-0.43107045982522,
						0.410304689151435,
						2.0009628436495,
						-0.8742009562289,
						-0.52059359313729,
						-0.06335367926473,
						-1.27596992262486
					],
					[
						0.75855345105842,
						-0.82009954431202,
						0.998074248951025,
						1.28888731521167,
						-0.30157811127501,
						1.17324050726615,
						0.372721128629055,
						-0.03545542835377,
						0.911805847274768,
						1.25872320572324,
						0.483331463187199,
						1.07156053225291,
						0.246349472299543,
						0.96779460574424,
						-0.34286854273655,
						-1.3108971226637,
						-0.72019913873743,
						0.496849007849809,
						0.153778069012645,
						-1.24794610737159,
						1.07078915267177,
						-1.22111334532985,
						-0.41784805302112,
						1.08676457026576,
						-1.84578654173976,
						-2.01006505930056,
						-0.8377355334379,
						0.0253366685809551,
						-0.93221087677472,
						-0.25957535318617,
						1.4573874809775,
						-1.51856796871649
					],
					[
						1.30886621412828,
						1.42260919797078,
						-0.81140162699754,
						0.375025257724968,
						-0.2329758474769,
						-1.53741786149621,
						0.0924593649148281,
						1.4742567126674,
						0.237010369884768,
						-1.49183412668594,
						0.235158242928934,
						-1.8531091755699,
						1.0204071860751,
						0.76651589662785,
						0.648194867839575,
						1.21774901135304,
						0.290953187976256,
						1.34976828174702,
						0.852796412201952,
						0.747298180881845,
						-0.62021685494485,
						0.415130397693112,
						0.859531055744011,
						-1.50440843484762,
						-0.57930941573141,
						-0.2407863134687,
						-1.72648375827875,
						0.283254905839076,
						-0.01239963278533,
						-0.82857429306648,
						-1.49138155636592,
						-0.66668584648323
					],
					[
						-0.94213647916376,
						-0.13299746068407,
						-1.39202742798503,
						-1.43151956106666,
						1.41378961932095,
						0.255215261937777,
						1.61577400694559,
						0.569200452590986,
						-0.42506108667992,
						-0.03907351009178,
						1.07013217130277,
						-0.13298802393634,
						-0.44770012984978,
						0.192372892495871,
						0.327162778624461,
						1.3386294092117,
						-0.6655584062509,
						0.95965539276117,
						-1.19827560021983,
						-0.13371320584087,
						-1.29429493856909,
						0.967519680314321,
						-1.07975161034239,
						1.35891387308989,
						0.812804947846913,
						0.62428270564744,
						1.14294253072194,
						-1.15045107482733,
						-1.28901237986208,
						-0.90059399962906,
						1.42345639247932,
						-1.41669722029222
					],
					[
						0.088563348169844,
						1.26375787300385,
						0.61965873725569,
						0.125478993209132,
						0.210805827834771,
						0.453520297336133,
						0.722751838324007,
						-0.49088094256942,
						0.696448559279541,
						1.1819583897787,
						-0.31203456451335,
						1.04455205543379,
						1.05965690949751,
						-1.10594333025945,
						0.0613649668751536,
						-1.5641945778271,
						-2.23753186970757,
						-1.25432003250572,
						-0.41236574260058,
						-1.37348385418726,
						1.31631878964006,
						-0.18779449462771,
						0.581889812969957,
						-0.01022023632589,
						-1.3883143888246,
						1.40930762299956,
						-0.39945957542279,
						-1.56769174058058,
						0.551888480249091,
						1.47080238138311,
						-1.05811890544926,
						0.503629372161392
					],
					[
						1.35182927684811,
						0.28575352834432,
						-0.82246900472607,
						-0.99186091536433,
						1.44995079968348,
						-1.09100508582534,
						-0.39645463693348,
						0.116760651883988,
						0.473707248432447,
						1.27314500804278,
						1.08802106552785,
						0.556305187409506,
						-1.70657167787763,
						1.27284846727057,
						1.03171692289539,
						0.560764363135687,
						0.153433876062721,
						-0.08354883602244,
						-0.98525980583197,
						0.395757882141343,
						-1.20271503179632,
						1.23288375187451,
						-1.79075621947696,
						0.240078635789673,
						-0.39709691015942,
						-1.28023769754151,
						-0.7419499161485,
						-1.78718251226678,
						-0.33454955763874,
						1.14529583519195,
						1.15502096466319,
						-0.17161565758805
					],
					[
						0.425802871339168,
						0.699183752660239,
						-1.49555804929762,
						1.56349618223558,
						0.906556774994037,
						0.681455918900981,
						-0.27305658031082,
						2.07728191848177,
						0.924589352150861,
						-1.56926782400655,
						-0.01865542877174,
						-1.30892086863392,
						-0.11743821266536,
						-0.21733554743263,
						-0.49991257165417,
						1.49849975896963,
						-0.44690298447611,
						1.3588229738207,
						-1.47136755891676,
						-1.05930310716442,
						0.864396807363473,
						0.101787344116444,
						0.321279478295647,
						0.817023132911212,
						-0.68156319716981,
						1.26874918260049,
						-0.93692849961418,
						-0.53299138427616,
						-0.22046345430475,
						-1.40640822496978,
						-0.13848618169097,
						-1.11436577348448
					],
					[
						0.808362125252879,
						-0.974116816024,
						1.31991601910459,
						0.245629886116542,
						-0.19416217539105,
						1.47261555209987,
						1.21776730266447,
						0.854213328103825,
						-1.45713741777162,
						0.0203649266186454,
						-0.15231609251768,
						-0.86646663706835,
						-0.53251641101255,
						1.48873951072875,
						-0.41994727618099,
						-1.33613681080409,
						1.29666205103134,
						-0.85267086453732,
						1.02684845338522,
						-1.30600434906704,
						-0.5134251815477,
						-0.86745172967708,
						-0.33174941905255,
						0.123815176064604,
						1.03108149331104,
						-1.76040254094754,
						1.56042646647803,
						-1.11283581424253,
						0.139108910465476,
						1.09250917529032,
						0.174395716420194,
						-1.19511655729371
					],
					[
						0.397330305228279,
						-1.60399462465704,
						-1.21837653097061,
						-0.73847309438286,
						1.66020963293502,
						1.76045484728481,
						-0.67356709013379,
						-1.62325263526058,
						-0.64571367674053,
						0.0610450966721969,
						-1.55896958324823,
						0.236847549346676,
						-0.81416891875304,
						0.422562332267559,
						-0.78946758014709,
						1.75534176795562,
						0.261143683208259,
						-0.53656141833657,
						0.198601444829148,
						-0.59730462946536,
						-0.63906118266825,
						-0.40160876341567,
						0.483147949787337,
						1.21869946122711,
						1.78976067170478,
						0.0293801763318802,
						0.785583094273571,
						-0.07041459250826,
						-0.00664423274219,
						0.988586797786063,
						1.15704765080072,
						-1.28816390820896
					],
					[
						1.75882478912598,
						-0.57515127051986,
						-0.16961220235337,
						-0.29922372065476,
						0.182000671734494,
						0.375642342150021,
						0.992228486018936,
						-0.38570588896451,
						-0.10895485470086,
						1.01301715037091,
						-0.96217755956088,
						-1.47602460996296,
						1.20441839021597,
						0.378970859928008,
						0.700723710456779,
						0.701113543478983,
						-0.62762426396472,
						-0.52605790774592,
						1.46078942536035,
						1.182783877817,
						-1.41346208919088,
						0.969328306867879,
						-1.79715148492648,
						-1.34854750220412,
						0.800212415999499,
						0.268205178496707,
						1.32204474413441,
						-0.87565276554826,
						0.679925991093894,
						-1.71990624474551,
						-1.11758860504849,
						-0.58738891315824
					],
					[
						1.22773741634784,
						-1.4808926411024,
						-0.8591139096463,
						0.653071587869041,
						-1.45801193390142,
						1.99607807519458,
						-1.35441463312144,
						1.31705021973896,
						-1.00634667926227,
						1.22881994876679,
						-0.70392143939508,
						-0.38627126431513,
						-0.69557055711699,
						0.344281280778849,
						0.115267902368886,
						0.971888336748422,
						0.706198577421252,
						-0.33956558368458,
						-0.77437037812232,
						0.298835065531341,
						-0.25722230469205,
						1.75910986705782,
						0.551214328813154,
						1.188039429706,
						0.756329803440198,
						-1.67044183991595,
						-1.34159368008554,
						0.722094827537087,
						-0.49789551884295,
						-0.69690469997672,
						-0.36034761731452,
						0.0468680131754076
					],
					[
						-0.52387668194769,
						1.68361321142877,
						-0.80322040170543,
						-0.37889647427037,
						-1.03445938967289,
						1.60299750537638,
						0.358950587444329,
						1.70034018671993,
						0.64433731767942,
						-1.2400328345993,
						-0.25093805357727,
						0.698688117297103,
						1.25662477385258,
						-0.15129426025112,
						-0.5354410733131,
						0.937165109546446,
						0.904110791034159,
						-1.2960116431496,
						0.35464545089217,
						0.53485658896769,
						1.23993350048743,
						-1.08207116114798,
						0.409340336200661,
						0.0312153159394806,
						1.34916930168809,
						-0.96775605987609,
						-0.53649157048828,
						-1.06444318981373,
						-1.55609805650643,
						-1.37871421564471,
						0.4057287428461,
						-1.31197177143675
					],
					[
						-0.13916925848188,
						-1.05723014872481,
						-1.1735525037336,
						-0.16910100192386,
						-0.67741154975072,
						-0.90293575760314,
						-1.35170833885877,
						0.785617989175387,
						0.406751680571705,
						-0.57491212848359,
						1.12850059773278,
						0.722042561563909,
						-0.88316490215939,
						0.753190293974303,
						-1.57991141086286,
						0.623428073978556,
						1.45241466317545,
						1.43984641333165,
						1.18826692543616,
						1.02711199898062,
						-0.01620658131383,
						0.558451430292359,
						0.911399460492403,
						-0.40414132339754,
						-1.17942131247707,
						0.0272976140897635,
						0.824751593630222,
						1.05221132017807,
						-1.22187249963224,
						1.43535134064848,
						-1.43248143626969,
						-1.57341380357882
					],
					[
						-0.99825232607601,
						-0.73586226449839,
						-0.79602491989476,
						-0.69974894817084,
						-1.26233680675069,
						0.374753394683675,
						-0.17232856217925,
						1.33198716818422,
						-1.5015384933891,
						1.36875863997697,
						1.38314354129425,
						1.297627554142,
						1.24761090213717,
						1.09057009716302,
						-0.77174793788413,
						-1.32215273462471,
						0.540421109523158,
						-0.61733360617162,
						-0.08531042147751,
						-0.06023155056168,
						-1.52240245659048,
						-0.35958025418523,
						1.31070036484205,
						1.03388998896983,
						0.266494878616251,
						0.749605591825692,
						0.964544491020556,
						1.38137310499496,
						-0.25987923614665,
						-0.72964214919598,
						-1.18619903572777,
						-1.260909123849
					],
					[
						1.16526056558331,
						0.453158352345765,
						0.0581551073052662,
						-1.6281273757801,
						-0.08310584334986,
						0.897413685556715,
						1.08794852807361,
						-0.37453325268849,
						0.69542590592088,
						1.34860108508165,
						-1.37729753630094,
						-1.78714365192734,
						1.20651396753281,
						1.08717441864109,
						0.161454337850493,
						-0.73402561891108,
						0.800757286336497,
						-0.16725873319799,
						-1.61614492441184,
						1.38601483159822,
						-0.40040421157471,
						-0.36150762153934,
						-0.49195037681318,
						0.69623518002381,
						0.592751409854313,
						-0.65546262126185,
						1.11533460372744,
						-1.56046975555798,
						-0.80222271581791,
						-0.75281446018744,
						-1.23679959506436,
						1.27706902895253
					]
				]
			},
			"key": {
				"row": 32,
				"col": 32,
				"data": [
					[
						-0.49419048666216,
						-0.91602946032776,
						0.935902872316285,
						0.551318369316712,
						-1.16824892169535,
						-0.82147781816674,
						0.125188823636772,
						0.303823465171424,
						0.820978567824809,
						1.23276189756062,
						-0.46046454610879,
						1.26905325657979,
						0.771455504781288,
						1.26630477103307,
						0.830894770905887,
						-0.85423123284403,
						1.35950194500949,
						0.674578997929556,
						0.00124598982992074,
						-0.02170718391074,
						-1.677083091065,
						0.230483672622485,
						0.776951485916201,
						1.3185586479277,
						-1.67629078360728,
						-0.64510831317189,
						-1.16734141933869,
						-1.45413062526937,
						-1.0376623562885,
						-1.28788152622337,
						1.67137677758981,
						-0.45853205127215
					],
					[
						1.50868911074239,
						-0.24333923802177,
						0.217645261421935,
						-1.58718783478282,
						-0.68260029550452,
						-0.328064613798,
						-0.08042196612284,
						0.688136287815757,
						-1.41528321985214,
						-1.61662562089516,
						0.0652679895402911,
						1.46743954565518,
						-1.09539168692365,
						-0.735248491616,
						0.337466696461335,
						-0.76971198651186,
						1.42941409120941,
						1.17224443926569,
						0.974354912805078,
						1.53957332739135,
						-0.89891475411669,
						-0.00619313858314,
						-0.2272333357347,
						-1.06094775090696,
						0.939606283300988,
						1.16414600200856,
						-0.60862554305004,
						-1.5876595183523,
						-0.4420822622154,
						1.52985217582887,
						-0.25676262196523,
						0.608457755506414
					],
					[
						0.183289674339624,
						1.55348141676999,
						-0.48306340305431,
						-1.90245347412207,
						0.217550527005441,
						-0.10093583432312,
						-0.12969454054269,
						-1.00590945105141,
						0.187789003274769,
						-0.56598875417801,
						-0.59051961877961,
						0.811727600117119,
						-0.7923059605106,
						-1.03550431810326,
						-0.61598836006185,
						1.29361152644292,
						1.50413970583687,
						-0.28312825791084,
						1.54704330154461,
						-0.87312113502966,
						0.30799422105036,
						0.090957458535472,
						-1.8182967514502,
						0.586606856771317,
						0.923454667754928,
						0.0751179658651765,
						1.00856138853278,
						1.04254763407439,
						0.450167705856167,
						-1.05281206281718,
						-1.97450607965075,
						1.44018734781362
					],
					[
						-0.21740496739823,
						-0.50614229150494,
						0.162940214945105,
						-0.55713703047955,
						1.26399989411712,
						-0.77413297688242,
						1.42116671028521,
						1.23345120016133,
						0.858538085847306,
						-1.23901218331576,
						-1.44240597917143,
						-1.52478972550169,
						-1.46166482275284,
						1.48066154716736,
						-0.30909523315303,
						-0.1870070196069,
						-0.87128130558026,
						0.95851962075794,
						-0.55323378272653,
						-0.65983417087708,
						-0.54853094290656,
						0.772078449512287,
						1.29314340589838,
						1.50468528477745,
						1.09836604627925,
						-1.24595538293067,
						0.638868919371167,
						-0.8244365261332,
						-0.2899135399975,
						-0.02473464308858,
						1.52994822013148,
						-0.97965507524422
					],
					[
						-0.70646648404188,
						-0.95304832587609,
						1.01681178746133,
						0.277743850411954,
						0.450691414717942,
						0.0908603928062716,
						1.6212236602967,
						-1.01302962885898,
						-1.41017748171187,
						-0.78107751539603,
						-1.25290213833012,
						-0.81256478288044,
						0.936128421403384,
						1.58553752014155,
						-0.0247694841246,
						1.55374335875757,
						-1.30187842865288,
						-0.85883738136924,
						1.60307266914796,
						1.1863963481118,
						-1.22814635111564,
						-0.52837781891632,
						-0.87821475605351,
						0.926606800916417,
						0.0707012767195529,
						-0.55335371111465,
						1.34110426645013,
						0.269529046669784,
						0.600094770727282,
						-1.4208848564107,
						0.632685245731272,
						-0.43920168561793
					],
					[
						-1.53649421329034,
						-0.71544283163732,
						-0.93255073650173,
						1.23034824445771,
						1.30300698100993,
						1.04047640829924,
						-0.88205940122959,
						-0.80443946934912,
						-0.48304032904811,
						-1.51861522984987,
						-1.49790686884245,
						0.0144399098284288,
						0.564324428503812,
						-1.14419183707241,
						1.25672274802196,
						0.376261135848263,
						1.43808262114999,
						0.557445057162772,
						0.601331030558088,
						0.917939021612712,
						-1.26368247016352,
						0.857141695374858,
						0.0965774605658825,
						0.96644958677807,
						0.720550676426568,
						1.18459107360133,
						-0.33968075687652,
						-1.20034721354234,
						1.10195174523648,
						-1.07224539222918,
						0.404768655974967,
						-1.24171173077855
					],
					[
						-1.67285934219556,
						-0.33862450500685,
						1.17019337969646,
						0.472564394579346,
						-0.28331694500739,
						0.991590064265473,
						0.0625930518759996,
						0.804945656912477,
						0.751945578220498,
						0.590488954884621,
						-1.38871060205008,
						1.80017291057778,
						-0.70593179366527,
						0.291646228822613,
						-0.3823307630932,
						-1.07192232929141,
						1.22597258782839,
						-1.38854171161583,
						-1.09913431168471,
						1.71649327766546,
						-1.03576953768399,
						0.504320260359874,
						1.21472388402186,
						1.09777926803106,
						-0.32946606220647,
						-0.53235234301243,
						-1.71432038065775,
						0.516012082746875,
						0.60578607939192,
						-0.65516180923684,
						-1.34682896651743,
						0.128043743044514
					],
					[
						-0.27906577880225,
						-1.04019609069136,
						-0.75563360733959,
						-0.95631535848409,
						1.14125696808571,
						0.737567913564713,
						-1.17827939716622,
						0.0678121773708221,
						1.27968924264138,
						-0.35027831752783,
						-1.05589043523935,
						-1.61890889454263,
						1.05998934845063,
						-0.43318889184061,
						-1.36115644289547,
						0.153145367297466,
						1.4244227942477,
						1.41634792364187,
						1.47656518059285,
						-0.54523108768079,
						-1.26142888366297,
						1.45464226876863,
						-0.00653698315828,
						0.113868662547925,
						-1.48685617946275,
						1.24476066687861,
						0.36376299719465,
						-0.77183165393933,
						-0.23947822085231,
						-0.62184286319779,
						0.690332768646668,
						1.33795480655401
					],
					[
						-1.0393492258124,
						0.0692316004903346,
						-1.89914554245389,
						-1.91747710795417,
						-1.28226819909501,
						-0.41901802107543,
						0.0886464990425018,
						1.40683686195606,
						-1.56206149386863,
						-0.56812083162842,
						0.794030251107018,
						-0.41540082766638,
						-1.10425229582067,
						-0.12589209777225,
						0.853150483049197,
						0.379441399965344,
						-1.29298648203847,
						-0.11013523477656,
						0.085604835109491,
						0.236465225980507,
						0.208713808536956,
						0.590284020947283,
						1.03356865269402,
						1.57699915285639,
						1.45174068266269,
						0.533818031355499,
						0.21381902793079,
						1.46591591452009,
						1.14566500661864,
						0.286603235006654,
						-1.40082675550213,
						0.716399425634936
					],
					[
						-1.65322441955173,
						0.35160980734811,
						1.5774712913412,
						-0.96610369110358,
						0.936578531567846,
						1.42618122939976,
						0.253955085106552,
						0.0284679819430004,
						-0.49500320747454,
						-0.34754835635515,
						0.661234936214962,
						0.254321879692756,
						-1.93434782983211,
						-0.0234056436011,
						1.53290541438736,
						0.526063603206093,
						-0.40195534544615,
						1.38239452808788,
						1.2445041832269,
						-0.62808732263349,
						0.373080933099267,
						-0.14691915576397,
						-1.03849908894943,
						0.238041804656548,
						1.18314611302893,
						-1.10941287355429,
						-1.26158781699672,
						-1.31826901023749,
						-1.3996175905503,
						-0.90962428123483,
						0.649632051609246,
						1.01401625936845
					],
					[
						-0.76685926883972,
						-1.41809419011082,
						1.06552408827298,
						0.663592963057624,
						1.09805526558492,
						-1.83311247453488,
						-0.46482868532283,
						-0.94974303826266,
						-0.62073514667469,
						-0.02585176231287,
						-0.79768008056283,
						0.590797783719352,
						-1.79109436648743,
						-1.01900987452964,
						1.31409919006937,
						-0.37759065717361,
						-0.36993552902386,
						1.07501679025883,
						0.599222350908004,
						1.75000374998627,
						1.46622243435534,
						-1.29291475080748,
						0.966727953151072,
						0.0240883086750089,
						0.449353233896025,
						-0.15350391530528,
						-0.30738002641875,
						1.18583234919968,
						1.29584818716755,
						-0.73041402292178,
						0.411305981180627,
						-1.03694284019351
					],
					[
						-0.57572266556297,
						1.04527315348381,
						1.19924290989492,
						-0.04599150241943,
						-0.91184862036042,
						-0.6891038346416,
						-0.81305757306687,
						-0.72275100495317,
						-0.30770847075518,
						-0.522060730779,
						-0.02700579702309,
						1.57386016138682,
						-0.81242987794131,
						-0.04078498474664,
						-1.47702199869199,
						-1.14878007478198,
						1.71354716666518,
						-1.13542338515811,
						-0.88002812963875,
						1.11053697953232,
						1.54484627263835,
						1.65755180627078,
						0.221095813530684,
						-0.59810706992135,
						0.467811090677316,
						1.43577295628129,
						1.55017656365287,
						-1.18578389140069,
						-0.59748301741694,
						0.426533874403815,
						-0.43008991748697,
						-1.0250662016717
					],
					[
						1.14846391530366,
						1.14264049972789,
						-1.53169477297275,
						-1.23373919972609,
						0.664676604072635,
						0.242076531640105,
						0.379458164158933,
						-0.80127196567148,
						0.456306591636698,
						-1.40501993605197,
						-1.23992569096689,
						0.232855157969045,
						-0.78628970018785,
						1.38197440063374,
						0.94296036066592,
						1.02233689550091,
						0.745088063303288,
						1.27126333762189,
						-1.0920037183571,
						0.0580819552475373,
						-1.48095930039556,
						-0.36856755875827,
						1.34613784838151,
						-1.50179656343508,
						-0.48560899633228,
						0.868543885158228,
						-0.87027453413896,
						0.105961421295861,
						1.13009275465401,
						0.247050991720725,
						-1.50899367647534,
						0.920176234777032
					],
					[
						0.769496143830534,
						-0.19473152866623,
						1.93963221982952,
						0.586691565538036,
						-0.44160915691156,
						-1.05388078994425,
						1.30997910538851,
						-0.3097683252383,
						-1.45087539596951,
						-0.93870657233202,
						0.465346546953713,
						1.52909254072657,
						-0.48674575606855,
						-0.44333279897648,
						1.0995617563944,
						-0.61680307062751,
						0.51918939452831,
						-1.35480031795056,
						-0.47713190790456,
						1.32833925257999,
						-1.4363475522585,
						-1.11628053285007,
						-0.59504537356252,
						-1.50687266947138,
						-1.29379974950569,
						0.626442213774811,
						0.0461583939071516,
						0.385493163713038,
						0.593307989901537,
						-0.26648035321535,
						1.26150951221562,
						1.5229720521713
					],
					[
						0.771422090239189,
						-0.44339614280904,
						-1.59549492507461,
						-0.50786155805033,
						-1.3743826120175,
						-0.52700911711564,
						1.41385621921005,
						-1.49628757254194,
						-1.23398392145057,
						-0.50754167483243,
						1.4960828866405,
						-1.43584364629485,
						1.43200046199207,
						1.40615656425785,
						0.868336908481487,
						0.52160477529753,
						-0.18017695459605,
						1.68643380337004,
						0.531790445273633,
						-0.28089025009951,
						-0.212384776031,
						1.71980670545968,
						1.02723139038339,
						0.354422575292314,
						-1.12711826324847,
						-0.63848936769874,
						-0.36125695317742,
						-1.02457682234265,
						0.257709723726423,
						-0.22891400443933,
						-0.61310177399429,
						0.301855786190243
					],
					[
						1.5895953591806,
						-1.31417189168255,
						-1.2651232352674,
						0.673103264841372,
						0.903415186777818,
						-1.11551251663214,
						0.0335666179021494,
						-0.57924159888391,
						-1.25904208483837,
						-0.42328380806651,
						1.08211753877527,
						1.72255196415223,
						0.507306386674375,
						-0.81844222944919,
						-0.5744210357057,
						1.02518484313108,
						0.88363692660673,
						-1.22131266273096,
						1.29454237188477,
						-0.52051008733644,
						1.06042504577393,
						1.09450467534943,
						-1.14446333338262,
						-0.63787367745706,
						-1.1323131120936,
						0.9563117276276,
						-0.80133646312382,
						-1.1135997253671,
						1.50274787054417,
						-0.32324153412096,
						-0.479074717826,
						0.393953934742812
					],
					[
						-0.59694989075226,
						0.119014676494228,
						-0.5496854182518,
						-1.81667459096488,
						-0.88301022553764,
						0.850500049796815,
						1.26639160690728,
						-0.03473964013876,
						-1.74433965021481,
						-1.51083679384645,
						0.659594980406649,
						-0.13146111700923,
						-0.47366181951127,
						0.35998206396214,
						0.690247493902708,
						0.926801697930761,
						1.18270149405555,
						0.798669410565417,
						-1.39386561692189,
						0.406087146346209,
						1.08456508335175,
						-0.31681587521403,
						0.483990732529301,
						-0.25622140352522,
						0.226464829123032,
						0.74616683863686,
						-2.01915730896338,
						1.10201291436249,
						1.28253897559509,
						-1.63665340070846,
						1.22703173340563,
						-0.04868897581183
					],
					[
						-1.1369368967465,
						0.499773545861109,
						-1.4358354513313,
						-0.87728349114073,
						1.33870878210692,
						-1.0006777144638,
						1.63410427057599,
						-0.20523454567445,
						1.61710722935109,
						-1.1029875265309,
						-0.8658619369323,
						0.929034997317479,
						0.833740420173104,
						-0.8023619124004,
						-1.32839169593656,
						1.39263686015522,
						-0.44927514819428,
						-0.74184972330469,
						1.58986069925616,
						0.674947841211924,
						0.284157016918614,
						1.41938703349401,
						-0.78218623300025,
						-0.45336783473468,
						-0.86384353410102,
						-0.37085692000482,
						-0.82420180690487,
						0.266855769777491,
						0.512015422403398,
						-1.08439129952445,
						1.38207458527351,
						-0.04886080294999
					],
					[
						1.1509498526839,
						-1.50452341115048,
						-1.010863557867,
						-1.01292849809329,
						0.0771480989093421,
						0.979945786976312,
						1.22903216871158,
						0.832951965446761,
						-0.572603262253,
						-0.19237944101934,
						0.279160575378397,
						-0.47472195424665,
						0.530740039231555,
						-1.73024818580835,
						1.18822434652763,
						1.08724605905754,
						1.42016167024094,
						-1.23971072871446,
						0.342830319970187,
						-1.68473721076183,
						0.980343129349847,
						-0.5027252187129,
						-1.5367686900964,
						1.47152917381839,
						-0.47393422119446,
						0.807760356717632,
						-1.54581011286173,
						0.292049350785118,
						0.0383201416666839,
						-0.39137735397026,
						0.250727298875056,
						0.914211512403287
					],
					[
						-0.16124557485515,
						0.899417309456246,
						-0.49572486335002,
						-0.03715957538951,
						-0.98688573558069,
						-1.43084581128911,
						1.25571822819526,
						-1.15358797063007,
						0.95795966266145,
						-1.44126554916259,
						-0.97303798696872,
						1.72234238931074,
						-1.11402910240346,
						-1.22597772217809,
						-0.54838362688583,
						-0.21379384857681,
						1.53301614796891,
						0.945306940965938,
						-0.03858053883822,
						-0.99867477502261,
						-0.69549012472255,
						1.17272748730681,
						-1.23160441074051,
						1.39678333173271,
						-0.0975934350827,
						0.582477827476622,
						0.4078727551273,
						-0.66273930404505,
						0.448492088461643,
						1.1905664812168,
						1.58186159970557,
						-0.58792229386429
					],
					[
						1.16765755220894,
						1.41836459962417,
						-0.46281217053178,
						-1.68465072877021,
						-0.66258108364198,
						-1.46518201899573,
						1.40869557322304,
						-1.38061127338883,
						0.579938316294306,
						-1.26189424461879,
						-0.47903446772426,
						0.414778175556686,
						-0.79615443024855,
						0.370143267430987,
						0.12986502803341,
						-1.13484311562865,
						-0.8981508585831,
						1.64271963367786,
						0.771734098252631,
						-0.87534490162668,
						-1.74445503838366,
						0.918933886564511,
						1.64500300641806,
						-0.12169150980789,
						1.06536111789875,
						0.573759166167413,
						-0.33111841901627,
						-0.62508258258905,
						0.342724304112326,
						0.145937847826568,
						1.00308134649904,
						0.324909923766729
					],
					[
						-0.06690163655698,
						0.628807136074542,
						0.800955070471335,
						0.662370059655965,
						-0.88809473663852,
						-0.81000467710751,
						-0.8036056278929,
						0.921779312407321,
						1.56912788594723,
						1.75106536866826,
						1.7711410335001,
						-1.12410077504169,
						1.22522074916677,
						-0.86211015468698,
						-1.40975072474271,
						0.588659170015136,
						-1.0489916655067,
						1.79352222594179,
						-0.22442877175572,
						0.985450042004259,
						0.875810133867454,
						-0.3602200137606,
						-0.43789166858821,
						-1.44825428601034,
						0.492365070117634,
						-0.41183560336513,
						-0.19708278671079,
						0.0305132510933415,
						-0.91185440670716,
						-1.25695278915034,
						-0.89026027931835,
						-0.94444590539052
					],
					[
						-0.46075581877238,
						0.863745773326473,
						-0.31555784792843,
						-0.23777135573658,
						-1.1684180338594,
						-1.00434358848131,
						0.849455135959509,
						-1.10112459651999,
						-0.09098951857781,
						1.20567672192005,
						0.472213515504048,
						-0.87470031673059,
						-0.93289773791359,
						1.79814956880635,
						1.0972632339459,
						0.23303979995763,
						-0.837232263554,
						-1.29276118529129,
						-0.21297430832055,
						0.389774338280514,
						-0.80938552948143,
						-1.28650062337911,
						1.70449215389943,
						-0.49519358383839,
						-0.91988387050548,
						1.08546046825022,
						0.226745400478468,
						1.57713891512726,
						1.42531360304505,
						1.24459234767641,
						-0.66766064693791,
						-1.4649101503491
					],
					[
						-0.325852836518,
						0.126389430707423,
						1.3337947177736,
						-1.34102442766302,
						-1.46265741179645,
						1.32677075000295,
						1.40608732945942,
						-0.87736695442173,
						-1.04520693671536,
						-1.72747731576775,
						-1.0054256374684,
						0.0742058951730009,
						1.17184784125243,
						-0.30887004593271,
						0.919671458012354,
						-0.76735821784592,
						-0.8628277482351,
						0.720711619772028,
						1.26288426808941,
						-0.74465307633935,
						1.49128365454979,
						-1.36802213147412,
						0.0608880141010727,
						0.931184178165531,
						-0.99860371179488,
						-0.86417819341713,
						0.290708924456613,
						0.0420231608889855,
						-0.35178272739392,
						1.33870586329219,
						0.374401224055706,
						1.17974904303133
					],
					[
						0.264684327362313,
						-0.84154970542628,
						-0.6613759471595,
						0.762021528291386,
						0.395469805235984,
						-0.36743415004255,
						-1.44036349776777,
						0.0362591826951617,
						-1.59311965404387,
						0.137758428006878,
						1.70739903424551,
						-0.13705904379011,
						0.983415014310906,
						1.40783950299354,
						-0.64710820224824,
						1.08950817617927,
						-0.77630644526859,
						1.24351040970453,
						-1.04329456563628,
						-1.45264033079726,
						0.630355740445849,
						-0.60718997559693,
						1.00976321043097,
						0.938453021684164,
						0.876457178993473,
						-0.88472585646378,
						-1.05530330193466,
						1.71437745041315,
						-1.59007509657891,
						0.426185447501591,
						-1.07674303764576,
						0.550831351905803
					],
					[
						-1.13527310254886,
						0.465452421478404,
						-1.57423741918335,
						-0.88775144415241,
						-1.70899470275093,
						0.454071751285715,
						-0.06943408721582,
						0.981520478121653,
						1.1852818668015,
						1.73160872906584,
						0.242579222368892,
						-1.01619527522116,
						-0.95436804911608,
						0.643389676397039,
						-1.59544911207385,
						-0.14411168148078,
						1.14867657509306,
						0.969484310905141,
						0.174456698785134,
						-1.02683537207311,
						0.884387953053504,
						-1.0066148215906,
						1.16719666889139,
						0.325300298740893,
						1.48880358791844,
						-1.68009228180024,
						-0.86565715387511,
						0.687551484347098,
						-0.29792430847557,
						0.680541492903798,
						0.196163305538976,
						0.536472289861374
					],
					[
						0.221349359608838,
						-0.64995215389654,
						-0.13659439045143,
						-1.27257274912047,
						1.47201337545636,
						0.045562881434491,
						-0.3030042121854,
						1.55733254456797,
						-1.58834928751967,
						1.37635888387256,
						-0.43220345096867,
						0.271245708550003,
						1.62152393756777,
						-1.00382851221254,
						-0.45658718143952,
						-1.25772095413384,
						0.755095092923677,
						0.739166359178961,
						0.00231052558497277,
						1.09912829568562,
						0.795409905806391,
						-1.25855014017459,
						0.904675435703784,
						-1.81794428932156,
						-1.59014120916987,
						-0.05120835126039,
						-0.62512896122254,
						-0.90659527320045,
						1.25648584848084,
						1.03953048679366,
						0.177256308713441,
						0.0159361663481431
					],
					[
						0.24072971384469,
						-1.38107480310461,
						0.0542293274961217,
						-1.62122937611742,
						0.373138249811489,
						-0.76993324573425,
						0.200787856137804,
						-0.62027078217417,
						-0.75384469679963,
						-1.57894218210719,
						0.768498852737962,
						1.12693907900688,
						-0.56736964357765,
						-0.92260078192537,
						-0.13433395503026,
						0.706178906457115,
						0.766663052655316,
						0.781641847249977,
						0.701501456923332,
						-0.93643293821279,
						-1.58458375678733,
						0.539900488975672,
						2.02412907687227,
						2.26522746193424,
						-0.3267155159282,
						0.918380732611713,
						-0.68379700464293,
						0.737690835072389,
						-1.10451366554463,
						0.839992228955946,
						0.727221777401332,
						-0.78720859645781
					],
					[
						0.9692234407407,
						0.916534933348435,
						1.15011168075544,
						0.402049984080927,
						-0.88981292596341,
						0.445206250549377,
						-0.57656547016908,
						-1.06840365257165,
						0.492616931442943,
						0.845442399982292,
						-1.75157878380646,
						1.29501449700532,
						-0.71601819356231,
						-1.30621608583256,
						-0.74051287118279,
						0.642553514375598,
						0.20633296208565,
						-1.59155733463589,
						1.55882421659896,
						-1.67208582285334,
						0.625224934237523,
						-1.49647360315304,
						0.113874152104226,
						-1.09693765190077,
						-0.64504131904676,
						0.464422165772522,
						0.337512309056395,
						-0.86945111353084,
						0.982323479767747,
						0.530815468157491,
						1.29265661655611,
						1.14991489159125
					],
					[
						0.222705547980353,
						-0.70424486156298,
						-0.62902660059235,
						0.0240348611008897,
						0.107475353664106,
						-0.39874228728742,
						0.610283253363687,
						-1.52469264505978,
						0.541089571175,
						0.369712012969387,
						1.61978579290765,
						-0.59830518024922,
						1.21864620030156,
						1.16633033641669,
						-0.39061173143834,
						1.52398446450556,
						1.11981178681722,
						1.11424159246628,
						-0.79856943849499,
						-1.83986802494262,
						0.244840869946981,
						-0.29367180310352,
						-1.03574710631781,
						1.04523190519139,
						-0.33049327795659,
						-0.02392077979843,
						-1.00156614929744,
						-1.77771794259955,
						1.63355655675796,
						0.995372462943723,
						-1.46179235751947,
						-0.74813238228792
					],
					[
						-0.13818787937989,
						0.0868224475598777,
						-0.98553080488812,
						0.456902631363392,
						1.51890666990914,
						0.307538358979915,
						-1.30997265280462,
						-0.75702895206003,
						0.977600220176694,
						-0.78490439328823,
						0.202739084921288,
						0.53810509253254,
						-1.25252292510102,
						1.03793827262647,
						-0.72893918713781,
						-0.48087945772159,
						-0.65985442957083,
						1.4440902768168,
						1.241403966,
						1.7872733139383,
						-0.09429315755475,
						-1.19434905512825,
						1.86185642817394,
						1.67180478844834,
						-1.30514095017377,
						-0.77209478844445,
						-0.80018611721854,
						0.0386001155563799,
						-0.68691830377397,
						-0.63015140245121,
						-1.25803828373593,
						0.667411073429949
					],
					[
						0.817598078041287,
						1.34229885385624,
						1.42386269784923,
						-0.35677841182543,
						-0.61645030665192,
						-0.72315552633272,
						0.855862338300268,
						-0.65399837142409,
						-1.29089961526247,
						0.816277174349278,
						-1.3762231012852,
						0.660106576176128,
						0.68148005399412,
						-0.74851543191872,
						-1.35782337340091,
						1.17615607414817,
						-0.07894613587979,
						1.43099513984938,
						-0.75121365130223,
						1.48323590464441,
						-0.46886219129296,
						1.11870548399786,
						-0.16915325565139,
						1.25391665256639,
						0.168190328433975,
						-1.02650586114275,
						-0.47351277524109,
						1.30025329593134,
						-1.2413153334936,
						-0.47151370208369,
						-1.49776054821287,
						-1.22631105973625
					]
				]
			},
			"value": {
				"row": 32,
				"col": 32,
				"data": [
					[
						0.111373432304677,
						0.956448896692888,
						0.931632394647011,
						-0.41661248840672,
						-1.0229366864705,
						1.50441052446502,
						-0.23604516289754,
						1.40842323119225,
						-0.46045858035378,
						-1.82638219557436,
						-0.73451466061657,
						-0.8188802961124,
						1.04408254015109,
						1.34908893742743,
						-0.51479661684561,
						-1.69444417624568,
						0.913557122869875,
						-0.49271158906447,
						-1.68304707041408,
						-1.56247296615062,
						1.23042530293482,
						0.0400338447323612,
						-0.50274992788895,
						0.347256835045829,
						-0.92057015931973,
						0.160042097850306,
						0.990742607083666,
						0.908558127394459,
						-0.37198749692615,
						1.52542499278942,
						0.408098830948429,
						-0.57098964524237
					],
					[
						-1.29771913759183,
						-0.81199531722201,
						1.04407252065021,
						-0.63225233963163,
						0.6121337592947,
						0.459158071542067,
						0.310963643763124,
						0.0427542263541223,
						-1.63110501504942,
						-0.36488131839209,
						-1.67504576985229,
						-1.07828482965213,
						0.971959544192896,
						0.98358632374354,
						0.631642101856825,
						1.22369803172999,
						0.912409603327109,
						0.0529704745624298,
						1.71209504199929,
						-0.25135941076774,
						-1.06426069187603,
						0.0843539828570932,
						-0.65803722606621,
						-1.50486409837616,
						1.83548518498669,
						-0.625210512198,
						-1.05508151175876,
						1.00511883802301,
						-0.55354842500813,
						0.792389061240835,
						-0.8050079816076,
						1.33386317492608
					],
					[
						-1.70304956320147,
						-1.08710211583354,
						1.21632580835952,
						1.50048503015884,
						0.537390286404406,
						-0.40797038499405,
						0.0391004192411563,
						-1.19236549908164,
						1.30296401888427,
						-1.30773706947743,
						1.40436117179452,
						-1.48085029331527,
						0.497013416594436,
						0.76238557801562,
						0.666546236560114,
						-0.26961459113522,
						-1.82005931824328,
						0.107157938800317,
						1.57427727308368,
						-0.5678819249289,
						-0.35307900430686,
						-0.17454213205395,
						-0.82183844312404,
						-1.16220701975398,
						1.09098038518357,
						-0.27631571010555,
						0.86555420853008,
						0.254161222523332,
						0.866414679100514,
						0.464197850985846,
						-1.23697260629066,
						0.712270151625632
					],
					[
						-0.62087026187951,
						-0.85054848000442,
						1.49615450499647,
						0.743338060502118,
						-1.94836250637683,
						1.51978664040779,
						0.747883385175848,
						0.528314859334428,
						0.670601460893347,
						-1.84637579861365,
						-0.86120446630494,
						0.182629245180026,
						-1.16444097598211,
						1.23310966751106,
						-0.25323657868618,
						1.33077159660146,
						0.176842596763778,
						-0.3676082330441,
						0.527861144699081,
						1.23097790280361,
						-0.95003753386182,
						1.3331868736368,
						-0.00537116433402,
						1.15878757243535,
						-0.5605207612435,
						-0.36789721808973,
						0.561980753719365,
						-1.72223768161155,
						-0.85993303739024,
						-0.78335979015546,
						0.452914202212135,
						-0.73313597929461
					],
					[
						-0.85289681856836,
						0.00269742808900111,
						-1.13073737787871,
						1.0271054391779,
						1.45107223967019,
						-0.62782696205328,
						1.37260066418614,
						-0.5736993835729,
						-0.84759660028051,
						1.46676169268249,
						1.50191830495088,
						0.605239192168928,
						-0.29541485452703,
						1.13208244742274,
						-0.64442081860019,
						-1.01570994072195,
						0.256863120725519,
						-0.83469304871625,
						0.912586340532686,
						-0.27780590573892,
						-1.57785661652932,
						0.803909984071174,
						0.578453122172524,
						-0.61865348584277,
						0.636682163096272,
						-0.46646741732172,
						-0.37894067105088,
						1.16574655606589,
						-1.42650064786043,
						1.47912582468314,
						-1.2417925046235,
						-1.58183146580875
					],
					[
						-0.4880077162078,
						1.24058758856151,
						-0.68728964146948,
						0.287464785563845,
						1.84299050777324,
						-0.19758214605838,
						-0.54964493105557,
						1.11599077799645,
						-0.07057961235684,
						0.238169792043765,
						1.82035129760719,
						0.62210004477713,
						1.37142162028341,
						0.752412381227575,
						0.806335858423458,
						-0.87379360794696,
						-0.48833776982893,
						-0.4888873552245,
						-0.96423895678061,
						-0.85719693124651,
						-0.53143517401247,
						-1.19421436092044,
						-0.1394921631695,
						-0.51638943407707,
						0.34575665093217,
						-0.91701538631122,
						1.83741759824392,
						-0.52092306783155,
						1.43385649933894,
						-0.96603577963481,
						-1.60360318547241,
						-1.66018818316754
					],
					[
						-1.76540048066741,
						0.776048293579401,
						-0.21279452736199,
						-0.50759436698314,
						-0.46452795737556,
						0.41219151789617,
						-0.15195550515776,
						0.779779408339279,
						-0.25429365267355,
						-0.183173395139,
						0.396817148958081,
						2.07692125908519,
						-1.23919700735123,
						-0.58107206402366,
						0.358398806843232,
						1.20015396049077,
						-1.19763922467209,
						1.78270779476201,
						0.314687971684918,
						-0.49963015814576,
						-1.48594488143229,
						1.85348761349717,
						-1.13262686338891,
						-0.62013154369955,
						-0.98251496468618,
						0.618306745011665,
						0.869491691835158,
						-0.58520611526814,
						0.704179905618618,
						-0.79783857396107,
						-0.95843495139445,
						1.47680411578008
					],
					[
						1.487273276643,
						-1.38463821078916,
						0.209434121594074,
						1.59546345930456,
						-0.49389731589196,
						1.43436988666192,
						-0.83435152811176,
						0.918562447847617,
						1.26484187351432,
						-0.33757742703825,
						0.637441388553021,
						0.845121386255898,
						-0.22894181000657,
						0.933684123494287,
						-1.25826549463018,
						-0.84005440381228,
						-1.20983719297764,
						1.18392634413057,
						1.17287323359815,
						0.281909974520594,
						-1.00339496245726,
						0.0542586414950055,
						-1.41936190917836,
						0.850581770387669,
						0.645830173319271,
						0.187024073925966,
						-0.8592518902518,
						-1.30451753820907,
						-0.07927664270297,
						-1.51306461809953,
						-1.38960499684571,
						0.453439765756592
					],
					[
						-0.89117091302655,
						0.905114872423139,
						1.00125027031621,
						0.328816740735545,
						-1.10970622551288,
						0.00384264744524276,
						0.794879730119228,
						-0.00611379951506,
						1.0033628679501,
						1.19582809625805,
						-0.70896083838734,
						-0.11598029735112,
						0.6383044678295,
						-1.39310178519326,
						1.17683478852087,
						-1.20507585520801,
						0.109541757795194,
						-0.50769007159927,
						0.144699290258782,
						0.4396858947294,
						-0.36666309066085,
						1.81380693770532,
						0.291094552287095,
						1.77968934723466,
						-0.92436057640746,
						-1.51998548018679,
						-1.30302673633164,
						1.86668891702049,
						-1.53958478120874,
						-0.96102058597558,
						-0.3474384021827,
						-0.59356173988157
					],
					[
						-1.33642769024894,
						0.195904858764588,
						1.51151085638569,
						-1.08863058321123,
						-0.18238305954643,
						-0.48995059432257,
						0.699356743436129,
						0.0486302036944289,
						-1.08030999312834,
						-1.23750336501475,
						-1.34283086299443,
						0.775837054932353,
						0.731204866271933,
						-0.37194906358956,
						-1.18448577871107,
						1.37992114770034,
						1.62438098083908,
						1.38257170757978,
						0.146601660631188,
						-0.11192210406889,
						1.84173334964139,
						0.95799771763367,
						0.167561818730192,
						-0.40660691828651,
						-1.29577930655541,
						-0.93250580592453,
						1.59045380171482,
						0.648278931104514,
						-0.43568747389313,
						-0.21198170564089,
						-0.83719765618904,
						-1.15579373773439
					],
					[
						0.822178987855572,
						1.24824767651448,
						-0.20432257093762,
						-1.63521621804428,
						0.860767079218075,
						0.979440687491164,
						0.7034953493404,
						-0.42027266784518,
						0.626160487615945,
						-1.80526737392909,
						0.911335291897056,
						-0.92206475634197,
						-1.86876930228173,
						-0.96973983619223,
						0.944382010970539,
						0.50990735004952,
						-0.64788640983162,
						1.02849412936538,
						1.09375628925952,
						0.342442785327563,
						-0.43335878446449,
						-1.86906168567364,
						1.41469679153592,
						-1.47966226304391,
						0.0343938333895372,
						-0.05179954781264,
						-1.0170330542268,
						-0.42031484987272,
						0.417102060591117,
						0.00914508706526947,
						0.68471665040989,
						1.11410677260096
					],
					[
						-1.67016770877218,
						-1.22917518227063,
						0.27526136453305,
						-0.28232630733667,
						-0.62438665069724,
						-0.38880677100566,
						0.529070307137074,
						-0.12152811947166,
						-1.4352017681095,
						0.0119568163509576,
						-0.81958541789966,
						0.407819513629019,
						-0.28779652609245,
						0.937057179811358,
						0.284943439041181,
						-0.61079826432659,
						1.28614887815993,
						-1.9075622310232,
						1.50310754379771,
						1.50171722484018,
						0.93244395840756,
						-1.2548326474416,
						1.60953267102622,
						0.542985691235576,
						-0.03285264939833,
						1.59429402097607,
						0.563842030117546,
						-0.41359451295598,
						0.375031249792186,
						-0.3288106929838,
						0.854382435584674,
						-1.80216887465513
					],
					[
						0.942311009243349,
						0.421586682753704,
						1.10173136661554,
						0.460682567359104,
						0.174432755736925,
						1.49072385224063,
						-0.00697720724682,
						-0.95016641676907,
						0.207456028238887,
						-0.63840356813038,
						1.03716668866103,
						-0.88560118956015,
						0.470680443560196,
						1.42405461581995,
						-0.54073820697881,
						-0.50520933711273,
						0.507198070571406,
						-0.28903137994625,
						-1.78391186463067,
						-1.1594051356212,
						1.21224202915159,
						1.0605411535812,
						-0.00893481309312,
						-1.52562331987264,
						1.49110726867305,
						1.62085009292256,
						0.00813039493686769,
						-1.33229640290799,
						-0.66653616258677,
						-1.68723746976711,
						-1.12247879481594,
						-0.52834375102636
					],
					[
						0.404288388745573,
						1.08294080624492,
						-0.46007864572623,
						-1.49062400029547,
						1.46805986227587,
						-0.84910738678957,
						-0.5473417937744,
						-0.26867396753462,
						-1.05310549968743,
						0.129769966229756,
						-1.00841468107235,
						1.67899673256382,
						-1.56601664867899,
						-0.28825362490579,
						1.3206452181322,
						-0.24632514641262,
						1.15852677125238,
						-1.52186426202146,
						0.658434786561985,
						0.894213328091282,
						-0.98735547761405,
						-1.21107553134888,
						0.77299550107824,
						1.4878116089116,
						0.558869472105944,
						1.31893285094929,
						-1.17779177973481,
						-0.79546379659236,
						0.677052640029186,
						0.420255685305271,
						0.299581147784785,
						-0.85988252407306
					],
					[
						1.08980940078772,
						0.0361615338339186,
						0.591503872140163,
						-0.4266316392841,
						1.59697574291881,
						1.43149890090746,
						0.607074030342374,
						0.810037662254773,
						-1.59295804945566,
						-0.66874057286704,
						-0.27114666640958,
						1.54455492734652,
						0.425673532860376,
						-0.5544004744068,
						-0.80282005324673,
						-0.5812266678432,
						-0.23483956714009,
						0.885268876098906,
						1.06265615087514,
						-0.77975562113932,
						-0.7376328867444,
						0.920195867939812,
						0.806836722574909,
						0.168004024688158,
						-1.34978232020522,
						-1.53545315184919,
						-0.13951326359554,
						-1.52334765322739,
						1.47194898617637,
						-0.9248168349492,
						0.493810758969142,
						-1.81894556835107
					],
					[
						1.32864118904444,
						-0.80988152111004,
						-0.28341517102749,
						0.139168123185015,
						0.841186832394027,
						0.51930338909124,
						-0.98362934074865,
						-0.15617857024478,
						0.178822704807155,
						-1.60588317562394,
						-0.97784805220438,
						0.65163717360091,
						0.171786940867256,
						-1.54114273880806,
						-0.20571526108723,
						-0.16939965893839,
						-1.00888798643761,
						-1.04871071514109,
						0.320519227324028,
						1.69949251875558,
						-0.69173764297705,
						0.449509101235142,
						1.15179612762809,
						1.13740455409815,
						-1.38264965061034,
						-0.80268199797472,
						1.26320443373836,
						1.07643514488107,
						1.8556067641304,
						-1.72650174915755,
						0.901817737361601,
						-0.29206873005113
					],
					[
						-0.69489751415432,
						1.41023590657212,
						-0.25430143711038,
						-0.71903617344525,
						-1.53451347866838,
						0.480667480752378,
						-0.55220470875416,
						1.43477921733396,
						-1.42225395723684,
						0.114999553311079,
						1.18834103181731,
						0.259931434592548,
						1.237596831987,
						-0.24519457768558,
						-1.15131929336627,
						1.37508716889245,
						-0.68867702698478,
						1.26352468202056,
						0.185949713901288,
						0.395871787921734,
						1.33832099653124,
						0.933277518604466,
						0.062558303099956,
						-0.3433135032817,
						0.291563596316144,
						-1.46176832689749,
						0.76807785450681,
						-1.06599300682005,
						-1.20662902163073,
						-1.08508587394277,
						-1.57135384488264,
						1.25575866670029
					],
					[
						0.181108243050587,
						-1.23036342742021,
						-0.39469302681304,
						-1.12103563985387,
						0.390957119266397,
						-0.57590005336066,
						-1.48339485383077,
						-0.47576158389208,
						0.174051299381885,
						-1.27717250647159,
						-0.60022360885095,
						1.65467346273083,
						-0.49784738510437,
						1.08809734979358,
						-1.3335334228581,
						-0.09269493825434,
						0.0515361418236978,
						2.04603131457755,
						-0.66880777994901,
						-0.05716395817322,
						-0.0495127902345,
						-0.80469503054902,
						0.766589487917607,
						1.30622012409725,
						-0.79440816276735,
						2.10818117371329,
						0.349729898213927,
						0.282107980499951,
						-1.54672220399428,
						0.525630552904294,
						1.51944018094665,
						0.559576043459856
					],
					[
						-1.24902183701012,
						-0.67877177042457,
						-0.89585151675542,
						-1.07914041439127,
						0.176651832392853,
						0.101335469842815,
						-0.65020130544084,
						-0.02618439515066,
						1.20285996263377,
						1.37062332183318,
						-1.20462998730944,
						0.494896147435816,
						-0.17370772362455,
						-0.81996503865465,
						-1.22381737506187,
						-0.26215711069197,
						-1.0293394357792,
						1.6014960137781,
						1.40766630171471,
						0.252121270186702,
						1.68747217448262,
						0.785541337327762,
						-0.85478413868706,
						-0.42439544593408,
						1.67281115967939,
						-0.74416661244221,
						0.897493546723286,
						-1.21083153395562,
						1.62328519605145,
						-0.08411372653462,
						-1.26060451212911,
						0.597430145894833
					],
					[
						0.43275167401269,
						-0.84048122596067,
						0.249813188976345,
						0.679798572629196,
						0.627218157986241,
						1.37309372241787,
						0.453291852274661,
						-0.83175818679612,
						-0.70619029623675,
						-1.79338701158273,
						-0.31323336786614,
						-1.06276036644806,
						-1.62189156034997,
						-0.65004038115167,
						-0.46531363676117,
						0.37500050907054,
						0.802551020810194,
						0.944227634917178,
						-1.34164284088939,
						0.835622830609832,
						-0.15858503786301,
						1.27544457972281,
						1.30414845674109,
						0.972746942998728,
						1.35177671584488,
						0.70389982605407,
						-1.87039438501759,
						-1.3012642003533,
						0.763531208658375,
						-1.1094910583374,
						1.15613536346151,
						-0.23461870157223
					],
					[
						1.20840630788041,
						0.689319742646565,
						-0.3928994053469,
						1.09549873243857,
						0.993589174895818,
						-1.09576305010922,
						0.163440395776685,
						-0.04092790759091,
						0.377115077761029,
						0.865902106472256,
						0.518492167941186,
						1.00234345274788,
						-1.61805721460178,
						-0.51679809405273,
						0.825155646974148,
						-0.28850152581304,
						-0.57125479351223,
						1.25877616157757,
						1.40273436691636,
						-1.02438573823068,
						1.38264527051373,
						1.43888320687541,
						-1.58492316546311,
						-0.80272450512421,
						-0.12681255055725,
						-1.0130688888831,
						-1.25790228042359,
						1.10131312805364,
						-0.7537491495494,
						-1.76310040759073,
						-0.65301431136673,
						-0.81973195125566
					],
					[
						-0.15116051967625,
						-0.30909610802666,
						-0.40632541342161,
						0.872632734393203,
						-1.59615408056291,
						0.836419134952818,
						0.999277861973747,
						-0.40247531031733,
						-1.20044976937539,
						0.397242319643234,
						0.190892986047684,
						1.55669636324828,
						0.806016514498442,
						0.629844513858231,
						-0.77507917482772,
						-1.40125542333749,
						0.651406488793826,
						1.26066919257053,
						-0.54126443120125,
						-1.58626575695939,
						0.701091567461865,
						1.0511496471623,
						0.857244261793415,
						-0.05759057397238,
						0.448707548894771,
						-1.33980498568766,
						1.53870348601241,
						-0.50039183267157,
						0.82701126871912,
						-1.84609666638222,
						0.211561307997418,
						-1.72315715160145
					],
					[
						0.872963585457675,
						-0.64708878052988,
						0.915008718088562,
						1.5322058613362,
						1.07707285912969,
						-0.93363908424686,
						0.857504767063507,
						-0.95565129061489,
						-0.36888244380607,
						0.868429977633626,
						1.07828407114587,
						1.47286113031715,
						-0.62985634933681,
						1.53019793200336,
						0.252529026102245,
						0.388859444394143,
						-0.11757806439626,
						-1.44460850369973,
						-1.64970740866837,
						-1.36938828513646,
						0.52055539230503,
						0.32787165318248,
						0.802454566329081,
						0.391844238028205,
						-0.81982127898784,
						-1.45250338678125,
						-0.90766786430074,
						1.50326161823065,
						-0.12530899962874,
						-0.83270704254273,
						-1.22038403109518,
						-0.91711202697566
					],
					[
						-1.31957353229699,
						0.973409499108125,
						0.516829354612187,
						-1.32955156040805,
						-0.26709915591553,
						-0.39951987592524,
						-0.694892584254,
						-0.76309696697262,
						0.710872286473076,
						2.37286799118111,
						0.274022864587362,
						0.263207196934839,
						2.30641630711658,
						0.7722378909004,
						0.827935635249642,
						-0.41092846613828,
						-1.43135112812474,
						0.118675008498667,
						-0.52193469343062,
						0.843155530038804,
						0.950126471989998,
						1.50477021463999,
						-1.32588944066729,
						0.132248385890952,
						-0.13994901728584,
						-0.92071719715152,
						-1.02352241048808,
						-1.27539569326026,
						0.183002181109586,
						0.260690615516498,
						-1.13828148192467,
						-0.04876422960412
					],
					[
						1.1473272890678,
						-0.09756929084656,
						0.180894827041115,
						-0.37438688359564,
						-1.64689265736468,
						-1.83490367933695,
						-0.291953173716,
						0.00405372259827937,
						0.499044561630771,
						0.948227966699824,
						-0.94556814247593,
						0.939814478483714,
						-1.61595586788835,
						0.408293237010135,
						1.31206933890344,
						-0.30097023057986,
						1.19037525124338,
						-0.7197541585649,
						1.15033136895353,
						1.32498775373926,
						-0.80182912829568,
						-1.31078732315703,
						0.281889294407155,
						-0.43435621176392,
						-1.11330932280103,
						-1.42881333531638,
						-0.3127049525553,
						1.13757543094473,
						-0.25651715203217,
						-0.01623786607868,
						1.54386942149466,
						1.43375543415127
					],
					[
						1.47418920850066,
						-1.26427976078028,
						0.86573131360297,
						1.44576426442076,
						-1.08688057757371,
						-0.08514008285864,
						-0.01562956851044,
						-1.00529879913008,
						-0.54291340152002,
						-1.55154818861717,
						-0.69628195195369,
						-1.72822322663046,
						1.04074522258786,
						0.564192968261116,
						-1.15960897702368,
						-0.09559576838576,
						1.40137796055854,
						0.85080691610693,
						0.0284081746983136,
						1.72388271591145,
						-0.14493919744431,
						0.843127562008926,
						-0.27634063927666,
						-0.75745593598101,
						-0.82362436903946,
						1.24342806693384,
						0.354508215863671,
						-0.62123122761329,
						1.61134342235544,
						-0.72827647568955,
						-1.13271299624366,
						0.268475132461408
					],
					[
						-0.65119298715235,
						0.954390815340363,
						-0.93133668353735,
						-1.4243352898788,
						1.49668421143183,
						0.161138583706827,
						-0.28264168057112,
						0.43738611737828,
						0.799375727854352,
						-0.20085428728887,
						-0.15607452980515,
						1.40229716391932,
						-0.96004744753617,
						0.43471439691378,
						-0.41448631093916,
						-1.14740630994486,
						-1.74850098088588,
						0.772779603719065,
						-0.23118903885589,
						-1.37850659539913,
						-1.70527093285687,
						0.263362170235467,
						1.31085065820607,
						1.58446295888194,
						1.46260671507356,
						-0.26374302757419,
						0.919240012848912,
						0.257598343737951,
						-0.12906926525672,
						1.20608175626273,
						-0.26069905356057,
						-1.57761481446739
					],
					[
						-1.7030876794299,
						0.634452965986478,
						0.426652658729698,
						1.02213578394301,
						-0.63512380332349,
						0.0298041210162474,
						0.0341041793900726,
						-1.41900144441524,
						-0.43543261578435,
						-0.90249729862485,
						-0.46763369877879,
						1.14065810726522,
						-0.79055835978272,
						1.14295858888518,
						1.81884898813191,
						-0.52770357421328,
						0.377305551125675,
						0.909188365998864,
						-0.14510849346798,
						1.39446083120858,
						-1.19701417033407,
						1.09185071558911,
						-0.31012773842494,
						-0.7665544726087,
						-0.08260931060896,
						-1.27268448926221,
						-1.19498929683306,
						-1.42581280251085,
						1.61912304857089,
						1.02353259640735,
						1.26007561211491,
						-0.64921286595982
					],
					[
						1.24715057478166,
						-1.00380113103304,
						0.207343555898322,
						0.924127916147321,
						0.94738671072411,
						-0.67103255463567,
						-1.380713273882,
						0.671524116002921,
						-0.98779264051016,
						-0.11886315152863,
						-0.26419140785581,
						0.118966158404471,
						-1.96988286732041,
						-0.69253935917465,
						-1.41373299273853,
						0.854272741325746,
						0.723236756318209,
						-1.32530970556096,
						0.287006160052554,
						-1.8418592494508,
						0.951327799612961,
						1.17191985908604,
						1.19553649212766,
						1.0730365243917,
						-0.14492806774425,
						-0.31156148678677,
						0.418633060954403,
						-1.71765752683597,
						0.663870484888622,
						0.253816721428031,
						1.19341734475824,
						0.941292438154659
					],
					[
						1.40497958384779,
						-1.14228567736937,
						1.77094285190968,
						0.29785874178632,
						-0.42195245169986,
						-0.07857671125014,
						1.28024926306043,
						-0.6679373962385,
						1.42978068039961,
						-0.04549295418315,
						0.93577223842155,
						-1.1856567981242,
						-0.38704014534179,
						1.48753824538477,
						-0.9715223036962,
						0.415111161063308,
						-0.97956863132602,
						1.3041367909385,
						0.752238339549257,
						0.575828223602071,
						-0.82073025025134,
						-0.3662607964077,
						-1.29735124030968,
						1.69908349557088,
						-0.85933490037773,
						0.883500040059518,
						-0.93539022282964,
						-1.02134902648161,
						-1.05018337764444,
						-0.21651975519539,
						-1.27969964952819,
						-0.51016736733874
					],
					[
						0.784573502096788,
						0.947655752766175,
						-1.17258784020264,
						-1.28492224918194,
						-0.81158675381725,
						-0.13384601989275,
						1.63476779176936,
						0.269605696688003,
						-0.21666072557912,
						1.23532497307164,
						-0.73965998246518,
						-1.4183106717537,
						-1.32846659453026,
						1.28745083313612,
						-1.46496029880278,
						-0.76258616335825,
						-0.6288315660698,
						0.591213409328083,
						1.22885382841647,
						1.17570875470205,
						0.081203287180395,
						-0.93343740441385,
						1.21486296565571,
						0.679469384840557,
						0.807185874497998,
						-1.3749413172714,
						0.882255525087287,
						-1.15814813729536,
						1.23754640628587,
						-0.70309880685829,
						-0.51682914253173,
						0.591195688501773
					],
					[
						1.93583359358452,
						-1.28014691666801,
						-0.60085404588616,
						0.952677603882916,
						-1.61015442564722,
						0.287844125826676,
						-0.37461567771699,
						-0.97506552101628,
						0.389621046951465,
						-1.58829692451398,
						1.19210024678961,
						-0.46267311652436,
						0.410821564248062,
						1.54610340484911,
						1.17780661217649,
						-0.9927155766654,
						1.04448085244808,
						-0.27740507214575,
						0.143020266763369,
						-0.892266825062,
						-0.39809737121387,
						0.954894177238995,
						0.383488135343084,
						0.802147038942152,
						-0.94071235149037,
						-0.90900395338193,
						-0.79348370054716,
						-1.0956098046288,
						0.166926475651794,
						1.97394836961442,
						0.625902291229433,
						-0.79651452243188
					]
				]
			}
		}
	],
	"wem": {
		"sequence_length": 10,
		"vector_size": 32,
		"word_dict": {
			"<p>": 0,
			"0": 1,
			"1": 2,
			"2": 3,
			"3": 4,
			"4": 5,
			"5": 6,
			"6": 7,
			"7": 8,
			"8": 9,
			"9": 10
		},
		"embedding": {
			"row": 11,
			"col": 32,
			"data": [
				[
					0.0841420635331989,
					0.253761191476002,
					1.01235023812909,
					0.169761244241182,
					0.990473939542201,
					0.41348194407728,
					0.834703264620993,
					0.193026203213237,
					0.536262694216834,
					0.502512946829922,
					0.463566371134632,
					0.648706603600688,
					0.183609875476456,
					0.9028164810547,
					0.12218012648024,
					0.625030392918393,
					0.00961294209711208,
					0.549875039440476,
					0.221926468485355,
					1.01898485817113,
					0.523254678440593,
					0.983562899057058,
					0.750819705338334,
					0.802630640379413,
					0.787576961665357,
					0.19843685826936,
					0.215135587509867,
					0.555596312171768,
					0.0759302941301522,
					0.848510801537897,
					0.482904028749162,
					0.670410587581162
				],
				[
					0.148361951699712,
					0.588047005190159,
					0.622399863187213,
					0.156842684096992,
					0.694827262875312,
					0.208208419173231,
					0.922246501306147,
					0.444464782055878,
					0.117881547887509,
					1.00000000064768,
					0.674295097204186,
					0.907531978946839,
					0.73278810920419,
					0.976507570653376,
					-0.00000000020641,
					0.977365855488424,
					0.318758350773605,
					0.234516982633021,
					0.903970006577559,
					0.96718429120348,
					0.332542125019442,
					0.298744143386176,
					0.203777250409578,
					0.898139587390206,
					0.34790799899805,
					0.229187894564894,
					0.977299489696305,
					0.70593570661053,
					0.414195062808238,
					0.358142664599232,
					0.0209761258439895,
					0.968406227936865
				],
				[
					0.663996041115216,
					0.091103818655967,
					0.05000313341568,
					0.745942843457742,
					0.775317855842159,
					0.455121174527051,
					0.378799931081864,
					0.910590201686847,
					0.276085976347846,
					0.513946553085968,
					-0.00000000000082,
					0.99999999999852,
					0.157562034261106,
					0.156537213143941,
					0.862192029500828,
					0.611799526924377,
					0.761366350795016,
					0.297267704677672,
					0.130498522878114,
					0.751815147442644,
					0.883498997191479,
					0.522857630059765,
					0.819333452238826,
					0.501891603101154,
					0.951073995426622,
					0.952901440154325,
					0.0580333581863891,
					0.121742935064746,
					0.74072865603922,
					0.759061645689007,
					0.999428883502596,
					0.75347342392042
				],
				[
					0.109134371516268,
					0.314805417555533,
					0.345830420799868,
					0.490164102453997,
					0.655834325970864,
					0.227748866030502,
					0.365542637404612,
					0.537673443745019,
					0.0361860685220954,
					0.277882097570298,
					0.145082436127589,
					0.999999709800527,
					0.748327128397464,
					0.500742171927458,
					0.352469233632938,
					0.638877422236621,
					0.805179154359268,
					0.713576723141865,
					0.947400083774032,
					0.725724489973543,
					0.0808399889655818,
					0.244680029846621,
					0.383976753320101,
					0.48204868756945,
					0.910576462566544,
					0.151919092471539,
					0.416328056818964,
					0.299848652447924,
					0.49251674313063,
					0.000000394097539808088,
					0.157190795008957,
					0.900560953737495
				],
				[
					0.19952103957997,
					0.0415091620104618,
					0.538115078330273,
					0.403691354949731,
					0.303558865066971,
					0.875291427041719,
					0.368239346138991,
					0.451408104323799,
					0.916957919016869,
					0.991724024223394,
					0.55240564970507,
					0.00822658713286979,
					0.752998979205824,
					0.0184363711206059,
					0.981208827863915,
					0.3256966005442,
					0.440414195457523,
					0.980189383908128,
					0.794724787816819,
					0.0410806947728424,
					0.859437327149919,
					0.974660115397908,
					0.37736435675534,
					0.501991175261161,
					0.269856866422971,
					0.018934362923905,
					0.876711093389021,
					0.846604420945734,
					0.00923464846896841,
					0.499773906463347,
					0.98420644379564,
					0.297783125348245
				],
				[
					0.508548615805583,
					0.886757495552175,
					0.00448867836558684,
					0.298119629642127,
					0.523232570030923,
					0.236285958899766,
					0.710603552322549,
					0.0526276099622244,
					0.0131687623493726,
					0.271101424145034,
					0.610527113780351,
					1.00398984463301,
					0.331309267811967,
					0.719084779867263,
					0.955444700374539,
					0.3010107429431,
					0.174864741201833,
					0.327186310595087,
					0.817851479820845,
					0.171440576935295,
					0.363774111548706,
					0.828773423927781,
					0.213158006687687,
					0.413575364568285,
					0.818192705788725,
					0.348643687140677,
					0.0843059858529283,
					0.0688452048324652,
					0.116248073395865,
					0.253524525008957,
					0.629240334300973,
					0.533395562371885
				],
				[
					0.193509910867246,
					0.401961216324252,
					0.764657759881427,
					0.779254008114124,
					0.126859877480578,
					0.986959137578411,
					0.438466702850538,
					0.620083492483915,
					0.432285218388143,
					0.266747815534084,
					0.531849476649483,
					0.696770062184125,
					1.00000025644578,
					0.194087260854739,
					0.218307028680112,
					0.621728286407179,
					0.457358435327847,
					0.623223635787312,
					0.770819420535165,
					0.357522110766807,
					0.351801868777855,
					0.857162988836152,
					0.41892297762538,
					0.234293210188327,
					0.83663197220232,
					0.0217300316586922,
					0.000000265871760398569,
					0.717588290503075,
					0.287602791943751,
					0.0225819179052075,
					0.979930136166345,
					0.911771596606342
				],
				[
					0.511575609885085,
					0.983266938972404,
					0.797761158059029,
					0.820017546744372,
					0.180654480530396,
					0.913071940932233,
					0.114538106502848,
					0.175568797120039,
					0.0405100914873286,
					0.501184756626259,
					0.670526201095401,
					0.853299895154824,
					0.315179405728747,
					0.875662000749089,
					0.639670340376608,
					0.822945456456463,
					0.975573177153116,
					-0.06017945519276,
					0.681452853427481,
					0.874670639957129,
					0.530610891631847,
					0.724957176746107,
					0.689580571780309,
					0.46849232603997,
					0.0717552206072811,
					0.60098108643074,
					0.483451369003528,
					0.314683633417979,
					0.478941192817651,
					0.808608592613755,
					0.872149296576356,
					1.06209074158535
				],
				[
					0.314184209343715,
					0.69809671410993,
					0.00960090562956986,
					0.347484615245381,
					0.483965017515791,
					0.797886644516658,
					0.449280835674108,
					0.642498229513672,
					0.22096207066592,
					0.938006915954684,
					0.267111465165793,
					0.40352346452767,
					0.300245451224625,
					0.29852963193895,
					0.505588147892992,
					0.217718231200666,
					0.124079888701238,
					0.280950525495973,
					0.304968203948651,
					0.581125750889208,
					0.451429179490454,
					0.0514703204565188,
					0.212510830007348,
					0.526091562328225,
					0.635278671897988,
					0.191391955792294,
					0.505254261786371,
					0.986226990758009,
					0.0405690039019793,
					0.61461882341227,
					0.049624117041041,
					0.651549719448132
				],
				[
					0.652584459668175,
					0.35110865272793,
					0.405268496783587,
					0.111212178661525,
					0.456234662101954,
					0.912017032073258,
					0.237822258314515,
					0.573390412987926,
					0.697747229662783,
					-0.00979644881268,
					0.0599222330984255,
					0.804539891544358,
					0.189388215214237,
					0.216781123383519,
					0.997552629814081,
					0.0191489143926128,
					0.903050370165276,
					0.797019102359826,
					0.0534056637497032,
					0.973296521146515,
					0.683927801207823,
					0.0737838322397767,
					0.242382894773445,
					0.572384726229892,
					0.995423644108241,
					0.797914128051578,
					0.122301396287184,
					0.825823672553463,
					0.533062188672724,
					0.308314119470325,
					0.106268577536309,
					0.32094529111097
				],
				[
					0.0199020592997202,
					0.629160545822276,
					0.327156192283584,
					0.999999999999995,
					0.201023348556095,
					0.376229302875459,
					0.178444584952694,
					0.821018765550821,
					0.0712227986820044,
					0.764474407465809,
					0.533113966000499,
					0.561386470312432,
					0.363508814917759,
					0.273815545282928,
					0.90285003863987,
					0.187077245544855,
					0.787541238219567,
					0.43161907750947,
					0.608857437684154,
					0.0382715692866308,
					0.552691735023969,
					0.456525800015759,
					0.175765391951344,
					0.36451529969037,
					0.767762746635235,
					0.206395663312144,
					0.770759727525822,
					0.0000000000000186024271397097,
					0.307011517816192,
					0.453134754925652,
					0.852012654534025,
					0.892809335307284
				]
			]
		},
		"pe_cache": {
			"row": 10,
			"col": 32,
			"data": [
				[
					0,
					1,
					0,
					1,
					0,
					1,
					0,
					1,
					0,
					1,
					0,
					1,
					0,
					1,
					0,
					1,
					0,
					1,
					0,
					1,
					0,
					1,
					0,
					1,
					0,
					1,
					0,
					1,
					0,
					1,
					0,
					1
				],
				[
					0.841470984807897,
					0.54030230586814,
					0.681561350355269,
					0.731760975798725,
					0.533168439914023,
					0.846009110281708,
					0.409308924041938,
					0.912395859646256,
					0.310983592907186,
					0.950415280255183,
					0.234921075603842,
					0.972014448574266,
					0.17689218624615,
					0.984230234470095,
					0.13295726553039,
					0.991121771298906,
					0.0998334166468282,
					0.995004165278026,
					0.074919157941476,
					0.997189610742782,
					0.0562044992146925,
					0.998419277792664,
					0.0421571532172568,
					0.99911099204874,
					0.0316175064024337,
					0.999500041665278,
					0.0237115145833866,
					0.999718842513315,
					0.0177818568796661,
					0.999841890283614,
					0.0133348190961964,
					0.999911087347106
				],
				[
					0.909297426825682,
					-0.41614683654714,
					0.997479997605337,
					0.0709482514038036,
					0.902130714963897,
					0.431462829359294,
					0.746903535224257,
					0.664932409399261,
					0.591127117215293,
					0.806578409885076,
					0.456693359523083,
					0.889624176474268,
					0.348205275889952,
					0.937418308890115,
					0.263553681039078,
					0.964644731085363,
					0.198669330795061,
					0.980066577841242,
					0.149417211889675,
					0.98877423954668,
					0.112231311029263,
					0.993682108536051,
					0.0842393503456884,
					0.996445548865234,
					0.0632033979331694,
					0.998000666577784,
					0.0474096958270817,
					0.998875528152324,
					0.0355580907906361,
					0.999367611131822,
					0.0266672669241094,
					0.999644365199343
				],
				[
					0.141120008059867,
					-0.98999249660045,
					0.778272522419513,
					-0.6279266524418,
					0.993253167134793,
					-0.11596614150994,
					0.953634462145589,
					0.300967294914735,
					0.812648896642037,
					0.582753610702225,
					0.652904012444876,
					0.757440658093676,
					0.508536134419632,
					0.86104064944086,
					0.389470316837206,
					0.921039017796057,
					0.29552020666134,
					0.955336489125606,
					0.223075424783597,
					0.974801187349306,
					0.167903309792429,
					0.985803468527448,
					0.126171768569587,
					0.992008409649849,
					0.0947260913327461,
					0.995503373987663,
					0.0710812178889303,
					0.997470531125319,
					0.0533230805423059,
					0.998577312520908,
					0.0399949726371271,
					0.99919988098666
				],
				[
					-0.75680249530793,
					-0.65364362086361,
					0.141538923280738,
					-0.98993269124549,
					0.778471741460492,
					-0.62767965376255,
					0.993280734530983,
					-0.11572978186099,
					0.95358074048692,
					0.301137462585474,
					0.81257090773398,
					0.582862350735039,
					0.652828001742749,
					0.757506171684805,
					0.508471339544998,
					0.861078914421504,
					0.389418342308651,
					0.921060994002885,
					0.295479780122797,
					0.955348993582232,
					0.223044491574647,
					0.974808265649306,
					0.16787985138252,
					0.985807463706673,
					0.126154066534568,
					0.992010660979403,
					0.0947127699176345,
					0.995504641483167,
					0.071071208499693,
					0.99747124435865,
					0.0533155662319056,
					0.998577713749597
				],
				[
					-0.95892427466314,
					0.283662185463226,
					-0.57112720119269,
					-0.8208615717999,
					0.323935203610092,
					-0.94607926933322,
					0.858895997159332,
					-0.51215004253019,
					0.999946516789605,
					-0.01034231890521,
					0.926757313172194,
					0.375660594795163,
					0.776529980028186,
					0.630080304498899,
					0.618443712571926,
					0.785829099983103,
					0.479425538604203,
					0.877582561890373,
					0.366223309062432,
					0.930526994718242,
					0.277480530594754,
					0.960731260624351,
					0.209289441149982,
					0.977853736416203,
					0.157455898182344,
					0.987526019974963,
					0.118291063537645,
					0.992978964675049,
					0.0887968623598419,
					0.996049756405295,
					0.0666266789698157,
					0.997777974125233
				],
				[
					-0.27941549819893,
					0.960170286650366,
					-0.97739611938065,
					-0.21141623830646,
					-0.2303674746703,
					-0.97310370804659,
					0.574025568818852,
					-0.81883737478341,
					0.947148157502652,
					-0.32079645842704,
					0.989072089716497,
					0.147432701066762,
					0.875740566889649,
					0.482781999979075,
					0.717434716160919,
					0.696625744605453,
					0.564642473395035,
					0.825335614909678,
					0.434908377895003,
					0.900474709715235,
					0.331039330341231,
					0.943616957121495,
					0.25032691096285,
					0.968161369632045,
					0.188600287052825,
					0.982053935241641,
					0.141802840321412,
					0.989894920926853,
					0.106494436926544,
					0.994313298162958,
					0.0799259437981643,
					0.996800804327511
				],
				[
					0.656986598718789,
					0.753902254343305,
					-0.85931347492705,
					0.511449266114242,
					-0.71372116817741,
					-0.70042993517943,
					0.188581107483483,
					-0.9820576184218,
					0.800421646322522,
					-0.5994373929764,
					0.996027410599761,
					-0.08904716353672,
					0.94733070694136,
					0.320256977575794,
					0.803686620773551,
					0.595052783868449,
					0.644217687237691,
					0.764842187284489,
					0.501148923061353,
					0.865361055811068,
					0.383551567645765,
					0.923519461059959,
					0.290919295547197,
					0.956747596536476,
					0.219556091352419,
					0.975599878408176,
					0.1652348792448,
					0.986254244442556,
					0.124158335882807,
					0.992262418733478,
					0.0932109957711166,
					0.99564637812195
				],
				[
					0.989358246623382,
					-0.14550003380861,
					-0.28022801447858,
					0.959933466393059,
					-0.97726174628769,
					-0.21203650450506,
					-0.22990432546798,
					-0.97321323518082,
					0.574317769121217,
					-0.81863245725516,
					0.947233978841464,
					-0.32054296019125,
					0.989042480737582,
					0.147631200281139,
					0.875667898139709,
					0.482913793722631,
					0.717356090899523,
					0.696706709347165,
					0.564572621128427,
					0.825383399077167,
					0.434851227989026,
					0.900502309556414,
					0.330994420997711,
					0.943632710999566,
					0.250292357856393,
					0.968170302993584,
					0.188574004121465,
					0.982058982429058,
					0.141782973560524,
					0.989897766644786,
					0.106479472470243,
					0.994314900794743
				],
				[
					0.412118485241757,
					-0.91113026188468,
					0.449193624285084,
					0.893434434025033,
					-0.93982351280099,
					0.341660306132293,
					-0.60810861682699,
					-0.79385383424203,
					0.291259120667224,
					-0.95664419959991,
					0.845422816629026,
					-0.5340976138526,
					0.999560318493108,
					-0.02965079584018,
					0.932100415774087,
					0.362199965369649,
					0.783326909627483,
					0.621609968270664,
					0.624822981536822,
					0.78076644506756,
					0.484776130346349,
					0.874638270055924,
					0.370481033104045,
					0.92884003149636,
					0.280778352859511,
					0.959772637954167,
					0.211807091012024,
					0.977311493945008,
					0.159362776706764,
					0.987220089645825,
					0.119729014424617,
					0.992806609116252
				]
			]
		}
	}
}